svm_type c_svc
kernel_type rbf
gamma 0.166667
nr_class 15
total_sv 163
rho -0.427235 -0.667385 -0.87905 -0.788308 -0.456099 -0.667391 -0.879078 -0.758079 -0.788331 -0.818554 -0.879063 -0.818561 -0.87905 -0.697608 -0.343865 -0.761393 -0.582947 0.00326093 -0.362109 -0.761396 -0.522822 -0.582457 -0.642117 -0.761403 -0.64211 -0.761393 -0.409975 -0.631067 -0.374345 0.346998 -0.0601764 -0.631068 -0.262136 -0.363538 -0.446603 -0.631068 -0.446601 -0.631069 -0.123885 0.34681 0.762554 0.601247 -0.0260968 0.480559 0.373095 0.331657 -0.000390802 0.320947 1.00117e-09 0.568381 0.584816 0.329672 -0.346818 0.157834 0.0255555 -0.0202511 -0.346878 -0.0264625 -0.346881 0.281566 -0.364931 -0.762545 -0.525098 -0.58448 -0.643812 -0.762553 -0.643816 -0.762545 -0.412637 -0.60126 -0.202541 -0.318395 -0.401902 -0.601284 -0.401943 -0.601285 -0.0618451 0.480559 0.373024 0.331658 0.0258247 0.320948 0.026098 0.568378 -0.143668 -0.220844 -0.480558 -0.22084 -0.480558 0.138753 -0.0596479 -0.373064 -0.0595995 -0.373074 0.269514 -0.331658 -0.00972043 -0.331657 0.352572 0.320946 0.000390803 0.568381 -0.32095 0.352578 0.568381
label 1111 10111 11011 11101 11110 100111 101011 101101 101110 110011 110101 110110 111001 111010 111100
nr_sv 44 19 11 4 7 18 11 4 8 7 6 4 6 4 10
SV
0.4200511414552517 0.2443286911657536 0.08851895013732393 0.1551883786464461 0.3987175197428717 0.2441649734060208 0.08863700591151089 0.177250080018395 0.1548798367934311 0.1331767075936439 0.08852881342410814 0.1324853075994371 0.08851895002590424 0.2214688085080777 3:30 4:33 5:38 6:33 
0.5509322157728226 0.3197103904198094 0.1168079559996634 0.2032151432955814 0.5228732112089955 0.3199312134071901 0.1163094106205861 0.2324975233325403 0.203580093296186 0.1743627960647702 0.1161570377887529 0.174546829132536 0.1168079559678689 0.2904808208469821 3:37 4:43 5:40 6:33 
0.3695083962243637 0.2148173800538663 0.07822777853570587 0.1368752708757317 0.3511049992775952 0.2148210998992854 0.07845080566919996 0.1566142780042354 0.1363933052967227 0.1169103310470535 0.07819312405557663 0.1168314642245892 0.07822777856513036 0.1952364209397155 3:35 4:35 5:35 6:33 
0.4436355941276857 0.2574907544485758 0.09348515362041192 0.1640673030396968 0.4215462261838714 0.2577451888338988 0.09366423809975082 0.1874144560154659 0.1639356905506522 0.1411443388298055 0.09347561118352959 0.1410529327402409 0.09348515361179091 0.2342393404799245 3:35 4:36 5:37 6:31 
0.5678542096843809 0.3295155569233389 0.1196254428735721 0.2099904609768636 0.5390373080122393 0.3295753114281332 0.1195217917577616 0.2396643557508196 0.209646153058392 0.1796771234529915 0.11978079887937 0.1798215951954199 0.1196254428157398 0.2996078326508808 3:36 4:46 5:43 6:36 
0.1157686657588172 0.06734078219056711 0.02480080666394476 0.0427170548817266 0.1101982664418416 0.06703653548193163 0.02433836233215224 0.04885038334207205 0.04320024806957623 0.03703473620431512 0.02478173949431561 0.03668985727631823 0.02480080676111148 0.06188766279076897 3:28 4:33 5:33 6:32 
0.5725740263441935 0.3322992833784095 0.1212020762859676 0.2115437021463483 0.5434320913243573 0.3325262501705573 0.1212461793815396 0.2417931656212775 0.2115915100965083 0.1813741415976488 0.1207211841790116 0.1813025986366144 0.1212020763952412 0.3022595287612118 2:8 3:32 4:33 5:31 6:37 
0.332797833580491 0.1932541630131502 0.07009891720182215 0.1234098316922745 0.3160572122057828 0.1934608477245545 0.0704834097066904 0.1407118912590085 0.1230117951166865 0.1051745400959054 0.07006510016624214 0.1056766622007875 0.07009891714777898 0.1755284345810402 3:31 4:37 5:33 6:33 
0.54834617263721 0.3183948710702427 0.1152773614957857 0.2023263281676586 0.5206596800913107 0.318441903825826 0.1157139682471054 0.2315290283056516 0.2030321013124154 0.1736135481694171 0.1157959500561249 0.1737066818748857 0.1152773615012407 0.2894840647080368 3:34 4:41 5:38 6:31 
0.3122950548077877 0.1812528257056984 0.06583266064940173 0.1152348586405222 0.2963682280361977 0.1813465364964169 0.06602305591118023 0.1325301956162993 0.1153439360811933 0.09868107124063509 0.06596744101821607 0.09897448868427958 0.06583266055538453 0.164586266684481 3:28 4:33 5:33 6:35 
0.4355892761938044 0.2530898633988819 0.09234415447817844 0.160814901735863 0.4131474256904271 0.2528055506071024 0.09221984285329249 0.1838632063167617 0.1608108140330865 0.1383397502665365 0.09207078586687126 0.1379672191437472 0.09234415431230761 0.2301612080095832 1:5 3:28 4:33 5:34 6:39 
0.5728711664910541 0.3326442555671067 0.1206932023351677 0.2115727469200787 0.5438321588931763 0.3325537314887224 0.1208314895894376 0.2418682951749578 0.2116089039078058 0.1813896708967004 0.1209003410197793 0.1809481041678193 0.1206932022770695 0.3022421649598284 3:30 4:33 5:34 6:44 
0.2465956390553737 0.1429536657769114 0.05215389575400326 0.091428539542486 0.2345591495256122 0.1434561175232294 0.0516981359473942 0.1040234205155702 0.09047531395545109 0.07876261487390455 0.05158396226688476 0.0783253781792254 0.05215389571702227 0.1297639106603125 3:32 4:33 5:31 6:35 
0.5296680610286488 0.3073631641256082 0.1117792432368189 0.195670010792599 0.5028132732630746 0.3075044153342466 0.1115610052413588 0.2236423630711518 0.1956541681851484 0.1675545500635513 0.1118392082217287 0.1678384468888888 0.1117792432486364 0.2796028651482204 3:30 4:28 5:33 6:35 
0.3720773306990217 0.2156462152855029 0.07860940445137755 0.1376771109060403 0.3531674171558559 0.2161890529317808 0.07812823388632036 0.1564982076042139 0.1372845664766692 0.1178939310118787 0.07874695198982187 0.1177143296946906 0.07860940436448818 0.1962377623377419 1:2 2:2 3:28 4:33 5:33 6:33 
0.1281909422522724 0.07302298295279509 0.0270146699115607 0.04818823916262115 0.1181752261967591 0.07359211401616603 0.02697468613158672 0.05329974965676566 0.04740618126720223 0.03951245341790048 0.026955881154744 0.04105493086103886 0.02701466993416562 0.06536948189633243 3:28 4:33 5:31 6:31 
0.4922779564691048 0.2864532052225777 0.1043169966077886 0.1819106296786661 0.4666894164941088 0.28623659801926 0.1043350627593653 0.2074858607607626 0.1824213533734369 0.1557673457433048 0.1035985792989066 0.1555354356034036 0.1043169964799461 0.2601493006131336 3:30 4:36 5:37 6:38 
0.2353839009161148 0.1383585363806053 0.04972258345912933 0.0865762735697701 0.2273005451445322 0.1374032927930178 0.04957345700230537 0.1007492892832168 0.08712835097968294 0.07550064113804972 0.04958460988505341 0.07419315557965525 0.04972258335114318 0.1261488088913237 2:1 3:28 4:33 5:31 6:31 
0.5730352690557031 0.3324861168485695 0.1207536003605336 0.2114455686377945 0.5438243647993439 0.3323062250227056 0.121282600059855 0.2418112199197824 0.2116374487014172 0.1815872031036521 0.1212238523546109 0.1817440155722241 0.1207536003025585 0.3024290258664351 1:14 2:4 3:31 4:33 5:33 6:33 
0.290182939619639 0.1682711448131309 0.06090653546469451 0.1076536594775194 0.2750824257084556 0.1678624725937833 0.06125054268770215 0.1222984841913924 0.1075404507362092 0.09155395766395866 0.060882069438805 0.09169383162529039 0.06090653541904894 0.1527120096994869 3:31 4:32 5:35 6:35 
0.5727051310055872 0.3324873876779994 0.1211972101134749 0.2117924907836626 0.5439920913766086 0.3327503257336411 0.1210035237430716 0.2415642304273481 0.2117081591131593 0.1814363387524637 0.1208575298145651 0.1815595556855715 0.1211972102232256 0.3023611198535635 1:4 2:8 3:36 4:31 5:35 6:42 
0.3693425821576229 0.2144551647183355 0.07846517522085042 0.1364428476603744 0.3507403276832943 0.2144130989182388 0.07761835994510514 0.1558554179234669 0.1362239946616256 0.117182689405127 0.07822846922188847 0.1168906503740332 0.07846517531223536 0.1948160918917926 3:34 4:33 5:35 6:31 
0.1469668673729405 0.08553149686157174 0.03069394011524187 0.0540071809168764 0.1391127489685933 0.08529609118486893 0.03167920955836567 0.06214922627455111 0.05470632463364777 0.0463517275969452 0.03118612484114641 0.04665507130565828 0.03069394011291197 0.07825062584469922 3:31 4:33 5:31 6:33 
0.5725117264207552 0.3328574196328972 0.1208303637975585 0.2115595592310974 0.5432996296016006 0.3323128013904528 0.1212009162995874 0.2421095642782371 0.2114315769223508 0.181122477120659 0.1207534497946027 0.1809574847069614 0.1208303637864403 0.3022037122676701 1:10 2:3 3:36 4:35 5:38 6:42 
0.5346925697350939 0.3106868175281265 0.1129010819455102 0.1980915857633738 0.5076809393962967 0.3104417040017844 0.1130346687407068 0.2259435678947423 0.1975198247595174 0.1690559676964176 0.1129128122803879 0.1695720703039973 0.1129010819672679 0.2823084716200731 3:33 4:31 5:35 6:28 
0.4893815322456471 0.2837722555689391 0.1037464804112734 0.1807249305096212 0.4641625867611165 0.2838775190442299 0.1032000127246664 0.2065171846501797 0.1806329345750333 0.154738808968537 0.1037417649903185 0.1547772372095047 0.1037464804008295 0.2583986383940584 3:30 4:39 5:33 6:31 
0.5724581081662447 0.3325046601209446 0.121083839786917 0.2115206651042084 0.5434091243931605 0.3323203857079148 0.1210844427749786 0.2416971693173887 0.2113409064751346 0.1812896660980369 0.1211098902143587 0.1812111151283329 0.1210838398964403 0.302064365361087 1:10 2:8 3:36 4:37 5:41 6:40 
0.5605691842263915 0.3253484994922227 0.1181276456223842 0.2069450446705156 0.5319851690577924 0.3253557997994394 0.1182310748488242 0.2366076664804652 0.2070011160078015 0.1774921278872482 0.1187707927489672 0.1775336610831986 0.1181276456303475 0.2961965127183017 3:30 4:38 5:40 6:33 
0.03345288737367978 0.01868765128359035 0.006081320462207386 0.0123404706120404 0.03268378673617956 0.01910875409811481 0.006782917695101737 0.01418005811681445 0.01165914739289916 0.01064742273070549 0.006727944627858809 0.01047738935472751 0.006081320575025399 0.01733252095279427 3:30 4:35 5:38 6:38 
0.5163122347550769 0.2998756407577684 0.1090411141189538 0.190758959212183 0.4909523450607848 0.3003746402271547 0.108705855787299 0.2182468438424928 0.1908684245684546 0.1636380605101228 0.1089629024238936 0.1637333434313708 0.1090411140987392 0.2726785428071832 1:1 3:30 4:33 5:28 6:31 
0.448354756373296 0.260502639053336 0.09482060630616608 0.1656811820134786 0.425640543472388 0.2601186556673593 0.09442911856738317 0.189367599269139 0.166235375046374 0.14206307053194 0.09488896987215636 0.142160737553931 0.09482060648990087 0.2366095444990147 3:33 4:33 5:33 6:37 
0.4769095237512165 0.2770803343011029 0.1015315541991411 0.1764102671844791 0.4528646987489693 0.2770500504520705 0.1006377199156335 0.2018462744132088 0.1765110612400323 0.1515320161727308 0.1011541907831945 0.1514744719922047 0.1015315540892964 0.251926503652787 3:30 4:33 5:39 6:37 
0.5724530782366177 0.3326962867278128 0.1209712395621747 0.2114110605250582 0.5435523507573302 0.332581631469591 0.1211427810476958 0.2418336040437551 0.2115888682159145 0.18138254799012 0.1209883473836186 0.1816620246743954 0.1209712395997517 0.3022861755704586 3:38 4:36 5:28 6:38 
0.3964694598042453 0.2302956632731344 0.08371436482254017 0.1465073550755305 0.3767249908616805 0.2301970477665392 0.08345427611402773 0.1676125500871475 0.1465222066522654 0.1257116084239114 0.0837684648709783 0.1256499783968179 0.08371436479271677 0.2093052208892196 1:3 3:30 4:35 5:33 6:33 
0.3192274024075973 0.1854573608257845 0.06795473355869823 0.1178987245001823 0.3036774141576462 0.1858262188668097 0.06737745233393372 0.134947893323729 0.1185644640061195 0.1011231654789481 0.06794308828746956 0.1014858734710056 0.06795473355679259 0.1692374171499534 3:30 4:35 5:36 6:33 
0.297426381251774 0.1727651780832254 0.06321212945711442 0.1097533849288959 0.2826270239518193 0.1728523345073548 0.06277674183764728 0.1259849673511042 0.1095479783029915 0.09419371794219132 0.06313674565339944 0.09440225971057645 0.06321212946814028 0.1571195797084134 3:31 4:31 5:33 6:33 
0.5728607305819036 0.3324689753434387 0.1210215080978523 0.2116200435150916 0.5439089432241734 0.3326116592981233 0.1209632438652042 0.2417500345961598 0.2115484056824495 0.1812228375556304 0.1214058620360953 0.1817775283403743 0.1210215081355019 0.3023413657733639 3:35 4:46 5:31 6:33 
0.2671799359904231 0.1551512351988668 0.05596922890298636 0.09856545114293562 0.2538350886834214 0.1550834374408407 0.0560882581031951 0.1124385026572336 0.09835212177042103 0.08457836759403536 0.05595596391302129 0.08470427262252878 0.05596922895122648 0.1410290113476037 3:28 4:35 5:31 6:33 
0.4366996598397695 0.2535727295551988 0.09184532694636609 0.1616032930014355 0.4155003160550588 0.2535313276939565 0.09214691710549922 0.1846354434359637 0.1614144964982659 0.1382790572807022 0.09183922430812368 0.1381539984847826 0.0918453269979591 0.2304062710904386 1:6 3:28 4:31 5:33 6:38 
0.5724488923601684 0.3324170740869789 0.120593547259255 0.2113177833993293 0.5433413907818953 0.3325866725173068 0.1211192366795108 0.2418229014186148 0.2113783991979948 0.1809824128459963 0.1207828939961621 0.1810828563475495 0.1205935472150731 0.3023801922202073 2:5 3:37 4:31 5:33 6:35 
0.5727286745407369 0.3329813940390886 0.1206876802768075 0.2114988425971372 0.5437535489513992 0.3326791982433796 0.1213719663734596 0.2418231438627324 0.2122120139138491 0.1814358932598172 0.1207631958479574 0.1812624720460309 0.1206876803055566 0.3023413279742945 1:3 3:31 4:35 5:46 6:37 
0.5719676219432902 0.3326551650443784 0.1208194612984208 0.2110676162019526 0.5432210613172103 0.3321710598640128 0.1211482240374694 0.2415395226988133 0.2112560531731726 0.1810637526205848 0.1205818097001952 0.1810751369642753 0.1208194614673594 0.3019563259838909 3:40 4:33 5:31 6:33 
0.3871982852254334 0.2248127624856472 0.08186456672055704 0.1433927593824699 0.3673059598591677 0.2248504186418437 0.08157803732943607 0.1633847255129147 0.1431694497727774 0.1230582106436372 0.08167940528435499 0.1223436862866148 0.08186456667024999 0.204628457112886 1:1 3:30 4:35 5:31 6:36 
0.5722961529330015 0.3322423595985096 0.1206544914746969 0.2115824892817826 0.543860094169883 0.3326497364611434 0.1209817607761027 0.2417464543634573 0.212024476129875 0.1814066024178686 0.1210071153628323 0.1812938596444644 0.1206544915034342 0.3022262862827277 3:38 4:41 5:33 6:28 
-1 0.6562072810757614 0.2381790241128994 0.4172886311274118 1 0.6376083499967231 0.2382829971107589 0.4768677602201278 0.4175794239679168 0.3578168370702502 0.2385711068854167 0.3579413366205993 0.2381790242480353 0.5897292084141037 1:22 2:50 3:14 4:49 5:47 6:31 
-1 0.5142641124636964 0.1873170928329505 0.3269923503869783 0.7857248827087667 0.4992596976825289 0.1869211833516144 0.3739598964609769 0.3272012394122256 0.2799553335872871 0.1868524155678493 0.2803751570727582 0.1873170930712447 0.4620121150283838 2:32 4:35 5:35 6:33 
-1 0.4758719315754943 0.1725607157856073 0.3024503674499859 0.7276926824294683 0.4629558039374915 0.1727343182923917 0.3457876334956914 0.302691118115168 0.2599153172092367 0.172534808770426 0.259719936038786 0.1725607153856085 0.4282538260540704 1:2 2:28 4:34 5:33 6:36 
-1 0.6563018490626569 0.2380683928009572 0.4175863024485784 1 0.6376083438832854 0.2380058690234264 0.4776275286418341 0.4175794199732281 0.3581243992793302 0.2385833578232489 0.3576960338958774 0.2380683925264018 0.5901168090471878 2:37 4:38 5:41 6:46 
-1 0.6564267933950946 0.2385975561241835 0.4167386060714248 1 0.6379776849133122 0.238714502481083 0.4770676729124595 0.4175994934722475 0.357951409051327 0.2385711065746442 0.3579776096806967 0.2386431763726166 0.5898671355639418 2:31 4:37 5:50 6:33 
-1 0.5685290166112038 0.2067831788696627 0.3615515161400373 0.8693242183341416 0.5528985054486562 0.2068846577133815 0.4136039986148574 0.3618111493935118 0.3105075984285676 0.2067786793151817 0.3099533821491022 0.2067831787653269 0.511561964347257 2:31 4:28 5:33 6:35 
-1 0.6562035942523733 0.2390095176334372 0.4170813401029691 1 0.6379305273046623 0.2387380467243646 0.4770723873063863 0.417345128890365 0.3577059629172109 0.2385820280489661 0.3574559720837071 0.2390095177928154 0.589891677893288 1:2 2:31 4:28 5:39 6:28 
-1 0.656063894351626 0.238512824398273 0.4172558952881269 1 0.6376766788595503 0.2388044166833196 0.4773555780211851 0.4175101485277777 0.3578770951032072 0.2389668080991779 0.3579733269299284 0.2385128242024606 0.5901486609122231 2:37 3:5 4:35 5:43 6:36 
-0.9603626616430296 0.4279463957647831 0.156160062415627 0.2720381341077088 0.6545719332814952 0.4160827448325779 0.15555068067976 0.3111486906031459 0.2725111945714482 0.2331647978569258 0.1561280499520832 0.2334254207392747 0.1561600626300743 0.384351524664356 2:28 4:35 5:31 6:36 
-1 0.5050903732811665 0.183506530185159 0.3208443842046953 0.7715812057582093 0.4908435340243001 0.1838758813087381 0.3673762664881578 0.3213362054827256 0.2753668410121036 0.1834913716662557 0.2752146084377817 0.1835065303440911 0.4543029886204959 2:28 4:37 5:33 6:35 
-1 0.5386381837762297 0.1959664610523919 0.3425947096957641 0.8249832856904094 0.5241303819605071 0.196456783144865 0.3923552275569819 0.3427300350674241 0.2945878775797427 0.1961584760878168 0.2941876030638045 0.1959664607944809 0.4847387778105198 2:36 4:39 5:38 6:35 
-0.9818865092292242 0.4355201504303539 0.1582688976344603 0.2769294124774135 0.6664433769905052 0.4236957136366989 0.1585327173411145 0.3163431570415461 0.277317010598857 0.2377400748592851 0.1582580777512173 0.2377220843129345 0.1582688973257634 0.391851386306342 2:30 4:33 5:35 6:33 
-1 0.6561363140128934 0.2384111215313913 0.4166482167823557 1 0.6378347626498114 0.238437326873111 0.4769270977621327 0.4174052663891255 0.3577944763207106 0.2381517958031689 0.3579295670188198 0.2385975555727875 0.5901868540055817 2:30 4:47 5:41 6:37 
-1 0.6560388276001925 0.2386421189832578 0.4170810238381505 1 0.63787962189752 0.2388096209061025 0.4772952448377371 0.4173711678495106 0.3577573251721745 0.2386759472231081 0.3579986852647596 0.2384111206074554 0.5900247336402914 2:28 3:2 4:37 5:38 6:50 
-1 0.6561840510720209 0.2385412710814473 0.4170569110776839 1 0.6378804778708381 0.2384203253839469 0.4769951563400061 0.4175190484130414 0.3577578336304075 0.2386007148488834 0.3579768486502847 0.238541271011841 0.5901571928647137 2:28 4:34 5:40 6:38 
-1 0.5228336491404856 0.1902145454459393 0.3317743858370444 0.7985727974347445 0.5080736179075931 0.1901507413648213 0.3800326378768399 0.3328920858035624 0.2848421571215348 0.1900752380763777 0.2849951406268819 0.1902145457183823 0.4699761608975436 2:34 4:38 5:38 6:33 
-1 0.4542807511246004 0.1654719631301548 0.2883638274829303 0.6941547589030151 0.4413517742724751 0.1653136094420312 0.3304285558500102 0.2889223349027524 0.2472563281770296 0.16546876679747 0.2476712909631801 0.1654719631394893 0.4083233361180099 2:30 4:31 5:33 6:35 
-1 0.6556991937836242 0.2386431765009077 0.4171203098977065 1 0.6378839042447726 0.2382570642327632 0.4775380182477701 0.4175886203880138 0.3581421228060429 0.2384132346436516 0.3579986885697522 0.2386421210792175 0.5901868579152896 2:48 3:14 4:36 5:39 6:34 
-1 0.651763637225743 0.2371455494812925 0.4145838200818183 0.9969908088839936 0.6345068123625183 0.2371092579424063 0.4742174917221536 0.4150899087810988 0.3557362128176261 0.2371380160650565 0.3557873078810709 0.2371455494119073 0.58636028958009 2:30 4:35 5:33 6:28 
-1 -1 0.3511912252883785 0.5958617196928097 1 0.8945906162837168 0.3509502451306111 0.7022296105196304 0.6061733114771085 0.5267932617916685 0.3512212457250267 0.5268215414371111 0.3510744819546409 0.8340880141370588 2:30 3:30 5:42 6:37 
-1 -1 0.3635663250650834 0.6171369352423195 1 0.9270195236401876 0.3634527197514676 0.7279491306646083 0.6279032458918044 0.5457674416156205 0.3640686023951096 0.5453362700480614 0.3637423251535922 0.8639787024631504 2:28 3:32 4:3 5:33 6:33 
-1 -1 0.3687423403710187 0.6258717942234429 1 0.9395880075999756 0.3691897943833773 0.7382828814814962 0.6361681590391176 0.5535365974802934 0.3692430298179835 0.5535355655859858 0.3689059830561749 0.876283170700324 2:35 3:38 5:31 6:35 
-1 -1 0.3509456234107248 0.5948836092487718 1 0.8944226442992269 0.351121460620211 0.7018559097291305 0.6053175425914564 0.5264934255433352 0.3507746359593558 0.5265013834600965 0.350765999140057 0.8336777504527653 2:31 3:30 5:43 6:33 
-1 -1 0.3692204032037263 0.6252714434474697 1 0.9398706494892554 0.3688664106014869 0.738067434340887 0.6365798803722051 0.5534958015180864 0.3692430240749223 0.5535211091201161 0.3689186976232034 0.8760704513447856 1:2 2:30 3:39 4:3 5:37 6:40 
-1 -1 0.3692222055449629 0.6259330896652382 1 0.9397064487257879 0.3685813930723427 0.7375994399121675 0.6361711363975096 0.5535413310198651 0.368762486772474 0.5535207229364084 0.3691182280047224 0.8758477244759225 1:5 2:38 3:29 5:40 6:33 
-1 -1 0.3684574521900829 0.6252331829223831 1 0.9393056564489529 0.3688271501473324 0.7368858850642414 0.6363477677727406 0.5529504055134806 0.368470917954781 0.5527315301844352 0.3687499462376421 0.8754728320284692 2:30 3:28 5:31 6:37 
-1 -1 0.3623581214834594 0.6146735119300839 1 0.9234665716718621 0.3627995524313669 0.7247703147883353 0.6256674532773159 0.5433859807799274 0.3628572724290611 0.5439538153840084 0.3625209613385874 0.8609901295918513 2:30 3:28 5:37 6:33 
-1 -1 0.3692204666932453 0.6252125210355863 1 0.93970726563699 0.3689260425604709 0.7375584708627206 0.636676326938498 0.5536792109173647 0.3688345327030172 0.5533353647751391 0.3687397648489097 0.8760051335601263 2:37 3:38 4:4 5:46 6:39 
-1 -1 0.3586291926905045 0.6078753201349173 1 0.9128769519826128 0.3582658124137341 0.7168580685004712 0.6178751806110233 0.5370751153980313 0.3580431970186717 0.5376429680826375 0.3585156331568247 0.8512224001827957 2:31 3:30 5:33 6:31 
-1 -1 0.3684466440588134 0.6255824994111135 1 0.9395219443651563 0.3690194188875989 0.7379428541363114 0.636288194890541 0.5532814284223265 0.3684810551495969 0.5530997289860007 0.3689479794856452 0.8759321164378729 1:5 2:30 3:34 4:6 5:35 6:33 
-1 -1 -1 1 1 1 0.9741044713135292 1 1 1 0.9996041869081418 1 0.9999999979876685 1 2:30 3:31 4:35 6:40 
-1 -1 -1 1 1 1 0.9741044752258186 1 1 1 0.9999999971986001 1 0.9999999999999665 1 1:4 2:32 3:42 4:49 5:18 6:44 
-1 -1 -1 1 1 1 0.9741044713121142 1 1 1 1 1 1 1 1:1 2:34 3:30 4:28 6:33 
-1 -1 -1 1 1 1 0.9741044752241484 1 1 1 1 1 1 1 1:13 2:28 3:30 4:33 6:40 
-1 -1 -1 -0.601952046975055 1 1 0.6020700086740363 1 0.9455796920746989 0.9028466967623672 0.601894738477074 0.8974628558117448 0.6019453680384638 1 2:30 3:31 4:28 5:35 
-1 -0.9919801444987839 -0.7835356269541359 -0.3480828185997017 0.9939494737575366 0.7494013289601285 0.3478115785693531 0.629834279477998 0.5462113824674839 0.5216089496873563 0.3473865197225839 0.5175978593856811 0.3473603041616581 0.715331800800411 2:28 3:30 4:31 5:35 
-1 -1 -1 -0.6445368634070233 1 1 0.6444270657485767 1 1 0.9673966917259172 0.6444776254796583 0.9613090728616388 0.6444684451508008 1 2:28 3:34 4:36 5:33 
-1 -1 -1 -0.6141364811242844 1 1 0.6142479515168349 1 0.9642370964442128 0.9211595370356641 0.614469507848311 0.9155583324051428 0.6144489504259313 1 2:31 3:32 4:33 5:35 
-1 -1 -1 -0.6534903255237149 1 1 0.6531337230543003 1 1 0.9795468190655076 0.6536343207568625 0.9735617167409614 0.6536839491024063 1 2:30 3:35 4:43 5:50 6:18 
-1 -1 -1 -0.4850123998981027 1 0.9754878008766702 0.4851794999930854 0.8562089717137149 0.7610237033367302 0.7276426105470418 0.4848273862922268 0.7230738319164182 0.4848048905989469 0.9425563500582707 2:28 3:28 4:31 5:34 
-1 -1 -1 -0.6527890644721178 1 1 0.6531301724438133 1 1 0.9797986951761459 0.6533099014232837 0.9736411052722875 0.6532880925217929 1 2:34 3:31 4:41 5:33 6:2 
-1 -0.7465629298504939 -0.4896977106282361 -0.1774042049751952 -0.3116385356557611 0.4755461466802016 0.1775055026701539 0.3557456481066461 0.3110403182412091 0.2668733740857569 0.177545182178148 0.2669501437627294 0.1772315806973422 0.4403826622993881 1:35 4:35 5:37 6:38 
-1 -0.9965818334310911 -0.6530141501593945 -0.237794884772772 -0.4151105056317197 0.635316935768493 0.2374245704582027 0.4747184878513717 0.4159529709477051 0.3559937620347201 0.2379471261251655 0.3563592253897446 0.2374370791592949 0.5872836269752066 1:35 2:4 4:46 5:46 6:40 
-1 -0.9816137343267601 -0.6431690645771662 -0.2337298421857905 -0.408907202953977 0.6258319084220429 0.2338340345234924 0.4678702703919375 0.4088662835130679 0.3508676768577467 0.2338172480625923 0.351022312315502 0.2339575194591717 0.5784837126764163 1:31 3:7 4:34 5:33 6:36 
-1 -0.9884292505848641 -0.6475927216686538 -0.2359677571628392 -0.4117572122739546 0.6298624189979753 0.2360637895036284 0.4712090019800307 0.4116763106201793 0.3533077955565307 0.2353354166269713 0.3529793397652569 0.2350146604964308 0.5825606549091863 1:31 3:6 4:33 5:28 6:33 
-1 -0.99699096246026 -0.6530386855245405 -0.2372750549995337 -0.4151609349936076 0.6348973589695832 0.2371762803251019 0.4746492058462884 0.4158707083199012 0.3562741709250148 0.2373939565736449 0.3563743151267101 0.2379466573282391 0.5872840414288011 1:31 2:12 3:12 4:38 5:34 6:28 
-1 -0.8916938588454197 -0.5843866545728095 -0.2121397246041718 -0.3714455943931286 0.5679421920216551 0.2120503277534291 0.4246422761761748 0.3712887794969106 0.3186346449958539 0.212386105346582 0.3188081985461352 0.2124460769335395 0.5256575989703999 1:31 3:3 4:33 5:33 6:33 
-1 -0.9965871342594883 -0.6530920136262819 -0.237750327313229 -0.4150058831799721 0.6351644633742642 0.2373954114411477 0.4747188222957026 0.4159532637385608 0.3562171677027465 0.2370065711917184 0.356359475983166 0.2374247016701172 0.5873212938610212 1:47 2:20 3:20 4:46 5:47 6:46 
-1 -0.992689834506591 -0.6503818963865023 -0.2367637091989148 -0.413455126343648 0.6321837121741241 0.236263695217952 0.4731605379343738 0.4141016162980553 0.3544548965185713 0.2363877041189399 0.3549359457434236 0.2363915630054128 0.5848837929783833 1:35 4:41 5:33 6:33 
-1 -0.9159947660054816 -0.6002540550670364 -0.2181872509931544 -0.3814964259924742 0.5836852545719018 0.2182418393366115 0.4366696136845208 0.3814422267594045 0.3273804038020826 0.2182379462408495 0.3273339465426037 0.2178038568669373 0.5402342172831459 1:31 4:31 5:35 6:33 
-1 -0.9490997420227917 -0.6215577737910282 -0.225871533266462 -0.3956663317926162 0.6045851084297765 0.2258628323771228 0.4516490941758987 0.3950567640994238 0.3391501167303178 0.2259471252362674 0.3393050330342268 0.2259880839534631 0.5592022088259722 1:33 4:33 5:28 6:33 
-1 -0.8918691707163112 -0.5842056574421026 -0.2123599843922196 -0.3715879688294273 0.5678322108811086 0.2124863175739462 0.424696448201552 0.3714687150318263 0.3183746113267115 0.2125110957005906 0.3181911254703309 0.2125849613922729 0.5256556420158142 1:33 4:36 5:31 6:33 
-1 -0.8249522381277292 -0.5401244887147769 -0.1968553504740026 -0.3435128429032355 0.525695864495756 0.1964830374316648 0.3933706929060515 0.3441778030644593 0.2948473822685002 0.1964703243635685 0.2944635187658395 0.1964666125469215 0.4861353705516465 1:33 4:35 5:35 6:34 
-1 -0.9943254756431286 -0.6515228151818931 -0.2367518844051257 -0.4142567109506771 0.6336846441469063 0.2374777713779221 0.4739266728253648 0.4149002725839653 0.354984575981152 0.2368304442349203 0.3555331683295224 0.2369729677240967 0.5861125936398474 1:37 3:5 4:31 5:28 6:33 
-1 -0.9948786304984484 -0.6515679598014501 -0.2368542503376153 -0.4143990221082277 0.6342030032880651 0.2369931655405131 0.4741842760427137 0.4152206253025212 0.3559488634020614 0.2368824514162296 0.355766300720836 0.2375097449599732 0.5863580181052109 1:36 3:8 4:36 5:31 6:33 
-1 -0.9960839784756329 -0.652504182317503 -0.2377782930581103 -0.4148621150466013 0.6349711218998589 0.2372814142640841 0.4748421592414946 0.415725176540842 0.356038476278262 0.2374147881100387 0.3559327044264872 0.2373748953702292 0.5865486568524475 1:33 4:37 5:37 6:28 
-1 -0.9967786748382327 -0.6530915532546817 -0.237252445877656 -0.4151457565294407 0.6351272443604891 0.2370359587881776 0.4751481012910753 0.4159706302592771 0.3564728157457702 0.2379459734142661 0.3560203519837827 0.2374370791592949 0.5877402422720323 1:33 4:42 5:46 6:47 
-0.9864183194238787 -0.6378071801708152 -0.4177033639285158 -0.152010888727947 -0.2652962321839027 0.4061924754320999 0.1524104776405663 0.3036617332014083 0.2654543029500435 0.2281852522557721 0.1519943990321465 0.2281352616265597 0.1526110908348237 0.3752657715202717 1:33 4:34 5:37 6:37 
-1 -0.9971005556512094 -0.6530952533574276 -0.237252613255261 -0.4152450719951652 0.6351204403279755 0.2380135737762835 0.4751369578473946 0.4158332322326478 0.355994013532429 0.2379461420273604 0.3555296324671433 0.2374008684424392 0.5868919844957398 1:33 3:16 4:42 5:45 6:41 
-1 -1 -1 -0.3964021269840779 -0.6667615598292764 -1 0.3961109651948793 0.7930621066270038 0.6777173962995942 0.5949302737722574 0.3966302939732161 0.59495497641642 0.3964491364790207 0.932886690623952 1:31 3:35 5:33 6:32 
-1 -0.850386364603811 -0.6467130529745061 -0.2430779733793125 -0.4087377273518656 -0.8522046451227682 0.2435849732340287 0.4861384026476298 0.4154534442305933 0.3642114817249538 0.2428827116667026 0.3645698962833543 0.2428917763076287 0.5721746840362274 1:32 3:28 5:33 6:33 
-1 -1 -1 -0.3976516274503823 -0.6688830152127924 -1 0.3983225514525855 0.7955571945918757 0.6799715189708937 0.5965627309456638 0.3978761878674085 0.5963483647920711 0.397881279258506 0.93555788987296 1:31 2:2 3:41 4:1 5:33 6:33 
-1 -1 -0.8993913259470392 -0.3381653268641219 -0.5682307176277061 -1 0.3381633829513271 0.6759001142606055 0.5781290735323071 0.5069364551005865 0.3382758090122557 0.5072366594960853 0.3382798328991583 0.7955103859812894 1:35 3:28 5:35 6:33 
-1 -1 -1 -0.3982660582750988 -0.6704448998096364 -1 0.3988022912485122 0.7973419760682444 0.6814910216754936 0.59863260193551 0.3986518473297326 0.5978975474836139 0.3987664127145885 0.9380827140074384 1:39 2:5 3:32 5:35 6:38 
-1 -1 -1 -0.3981384070938367 -0.6692729299950269 -1 0.3979686957176401 0.7959250992145008 0.6803042425808412 0.5969368606950809 0.3979422567540411 0.5972445349835489 0.3979435901576932 0.9364164231734952 1:33 2:3 3:39 5:35 6:28 
-1 -1 -1 -0.3985449041290065 -0.6705095815053427 -1 0.3988053284757351 0.7977126747181323 0.6821402176850511 0.5978223913166062 0.3988607977999209 0.598259201635463 0.3988626743652702 0.9384666894022364 1:43 2:5 3:28 5:33 6:31 
-1 -0.8436925730820113 -0.643971901222179 -0.2424232057743108 -0.4062481875294139 -0.8456378591195092 0.2416836147539554 0.4841392989362038 0.4134318954851449 0.3635380155619258 0.2418566664027974 0.3622736534509148 0.2418330254529821 0.5692725183349465 1:33 3:30 5:33 6:33 
-1 -1 -1 -0.398904816791499 -0.670484041008092 -1 0.3982933751265698 0.7973178078268466 0.6814619383612458 0.5978800825445677 0.3987499098022561 0.598286812360811 0.3988255807187118 0.9379914831054429 1:33 3:31 5:33 6:41 
-1 -1 -1 -0.3989202323711541 -0.6701284040938096 -1 0.3988044826335835 0.7976551543041212 0.6814947708603363 0.5978228544626288 0.398657852560363 0.5982640691203307 0.3986545892772648 0.9384674148354385 1:37 3:30 5:45 6:32 
-1 -1 -1 -0.3895053208871996 -0.6551880658738367 -1 0.3894603392111834 0.7792501708048361 0.6659985313322873 0.5847262519402189 0.3896156668313059 0.5846642839773871 0.3896121023691756 0.9163563263305144 1:28 3:29 5:33 6:35 
-1 -1 -1 -0.947712979580257 -1 -1 -1 1 1 1 0.9468286655063131 1 0.947790280048535 1 1:34 3:30 4:34 5:2 6:36 
-1 -1 -1 -0.9487049134953534 -1 -1 -1 1 1 1 0.9484722438390809 1 0.9487142434782729 1 1:33 3:30 4:31 5:3 6:38 
-1 -1 -1 -1 -1 -1 -1 1 1 1 1 1 1 1 1:34 2:3 3:32 4:34 6:31 
-1 -1 -1 -1 -1 -1 -1 1 1 1 1 1 1 1 1:33 3:40 4:35 5:9 6:35 
-1 -1 -1 -0.4512631423084577 -0.7318340730625447 -1 -1 -0.4512631362422687 0.74406705644205 0.6761880046949333 0.4512499860114881 0.6763651848544173 0.4512499903605998 0.9901385241075127 1:34 3:34 4:34 5:36 
-1 -1 -1 -0.5128909859079976 -0.8315154534269115 -1 -1 -0.5128909810779406 0.84565261286119 0.7690548963840192 0.5128814418017474 0.7691753703779239 0.5128814460765072 1 1:31 3:31 4:36 5:39 6:2 
-1 -1 -1 -0.5191207154601621 -0.841083122264986 -1 -1 -0.5191206709201143 0.8552475412862702 0.7781290241904482 0.5191134476740782 0.7780958293004003 0.5191134435741841 1 1:34 3:28 4:33 5:33 6:5 
-1 -1 -1 -0.5196330939777167 -0.8421884929872842 -1 -1 -0.5196331717561139 0.8563868389022671 0.7795600613666372 0.5196242508187375 0.7790586900736599 0.5197988110501526 1 1:35 2:33 3:45 4:33 5:33 
-1 -1 -1 -0.4512848348355534 -0.7319438266421234 -1 -1 -0.4512848436195652 0.7438664365970244 0.6772794937323662 0.4513113563564848 0.6772229100456839 0.4513113557744911 0.9912447576270945 1:33 3:31 4:33 5:35 
-1 -1 -1 -0.5070496552055229 -0.8226350758709053 -1 -1 -0.5070496734229356 0.8363595490936224 0.7610721600069223 0.5070768311617946 0.7614826627939618 0.5070768316769136 1 1:35 3:31 4:33 5:40 
-1 -1 -1 -0.5189515615894638 -0.8421884443008119 -1 -1 -0.5189515567728359 0.8563867894307371 0.77915634705156 0.5197987851675903 0.7790591911416688 0.5196242277930774 1 1:41 2:13 3:37 4:36 5:37 
-1 -1 -1 -0.5198060107151257 -0.842654762636146 -1 -1 -0.5198059661882258 0.8562423706961628 0.7795600125731135 0.5189439010080791 0.7795401614122839 0.5189438936940742 1 1:44 2:5 3:32 4:35 5:38 
-1 -1 -1 -0.6270302641433164 -0.9740585501076782 -1 -1 -0.6267057198789094 -1 0.9401337758861108 0.6271239017773853 0.9407269110649586 0.6269197612033708 1 1:35 2:48 3:6 5:33 6:28 
-1 -1 -1 -0.6269205872529822 -0.9742717547153366 -1 -1 -0.6269201804236366 -1 0.9409375686455983 0.6268380386607182 0.9407269426987784 0.6268380157637818 1 1:31 2:31 3:8 4:2 5:29 6:33 
-1 -1 -1 -0.6224283826652934 -0.9679901687536814 -1 -1 -0.6224518562392035 -1 0.9341830961073687 0.6228416620437418 0.9336118221484279 0.6228412207073144 1 1:35 2:30 5:33 6:31 
-1 -1 -1 -0.6228914199923071 -0.9676664626378827 -1 -1 -0.6224872366806343 -1 0.9342764370558404 0.6226863854383825 0.9337374837962519 0.622527619688471 1 1:35 2:28 5:34 6:36 
-1 -1 -1 -0.6271077902075837 -0.9742717219337408 -1 -1 -0.6266719943789515 -1 0.9401337758854601 0.6263927829370378 0.9400645800356436 0.6269197612029372 1 1:36 2:42 3:9 4:1 5:33 6:35 
-1 -1 -0.9505823950720333 -0.436273858617589 -0.6793949725073331 -1 -0.9187953209492675 -0.4373804435897748 -0.7971552112500286 0.6551660798697579 0.4367565059056263 0.6555645330875519 0.4365928402576972 0.8846809601008312 1:28 2:28 5:33 6:33 
-1 -1 -0.950585804187287 -0.4373476971209281 -0.6793982436674731 -1 -0.918798730064521 -0.4373825688088898 -0.7970539840592954 0.6551692665498635 0.437360723237108 0.6555677271683876 0.4373607811764275 0.884999187312193 1:28 2:28 4:1 5:33 6:31 
-1 -1 -1 -0.6659321910785604 -1 -1 -1 -0.6652843759539651 -1 -1 0.6659318099182959 0.9863758284770298 0.665010338893062 1 1:31 2:28 4:31 6:39 
-1 -1 -1 -0.6663459801353955 -1 -1 -1 -0.6657071192911896 -1 -1 0.6654144231882596 0.9871966326853036 0.666342871431068 1 1:33 2:31 4:35 6:33 
-1 -1 -1 -0.6636282049447795 -1 -1 -1 -0.6629919879371371 -1 -1 0.6627004617281191 0.9828669705081504 0.6636231999555254 1 1:31 2:28 4:36 5:2 6:37 
-1 -1 -1 -0.6677161694124909 -1 -1 -1 -0.6690027257953932 -1 -1 0.6686500303824854 0.9900893166353208 0.667728977827923 1 1:42 2:40 4:36 6:32 
-1 -1 -1 -0.6677161881450897 -1 -1 -1 -0.6690027257962885 -1 -1 0.6686500303833816 0.9903131489133388 0.6686485351257219 1 1:33 2:30 3:31 5:35 
-1 -1 -1 -0.6686612662836841 -1 -1 -1 -0.6680110652260265 -1 -1 0.6686532443994587 0.9900893166366503 0.6686460767666997 1 1:33 2:30 3:4 4:49 5:12 6:33 
-1 -1 -1 -0.9996041869081418 -1 -1 -1 -0.972920442403673 -1 -1 -1 1 0.9996041889105196 1 1:33 2:30 4:33 5:31 
-1 -1 -1 -0.9999999971986001 -1 -1 -1 -0.9736222822951981 -1 -1 -1 1 0.9999999971985666 1 1:34 2:31 4:38 5:35 
-1 -1 -1 -1 -1 -1 -1 -0.9743732767218328 -1 -1 -1 1 1 1 1:33 2:42 3:7 4:33 5:33 
-1 -1 -1 -1 -1 -1 -1 -0.97438490792469 -1 -1 -1 1 1 1 1:31 2:30 4:28 5:37 
-1 -1 -1 -0.6466571683753538 -0.9782300573935973 -1 -1 -0.6468751945085887 -1 -1 -0.962807378225456 -0.6467302705354125 0.6466972040919746 1 1:32 2:32 3:28 6:39 
-1 -1 -1 -0.6732077965061717 -1 -1 -1 -0.6734317960970136 -1 -1 -1 -0.6733290585011369 0.6738202540553458 1 1:31 2:26 3:28 6:37 
-1 -1 -1 -0.6792730314560356 -1 -1 -1 -0.6795067248290891 -1 -1 -1 -0.6791995705607088 0.6792369355351744 1 1:35 2:31 3:40 4:12 6:28 
-1 -1 -1 -0.6512470687569836 -0.9839747170002774 -1 -1 -0.6507428494942562 -1 -1 -0.9676527173191434 -0.6511938354539369 0.6506399339694544 1 1:31 2:31 3:28 4:4 6:40 
-1 -1 -1 -0.6791889705925569 -1 -1 -1 -0.6787562559666066 -1 -1 -1 -0.6791443698203034 0.6791865217361681 1 1:28 2:30 3:32 6:33 
-1 -1 -1 -0.6704259643128984 -1 -1 -1 -0.6706871791044458 -1 -1 -0.9964711183111942 -0.6704028951285015 0.6704191506118824 1 1:33 2:28 3:31 5:2 6:40 
-1 -1 -1 -0.9999999979876685 -1 -1 -1 -0.9741044738980805 -1 -1 -1 -0.9996041889105196 -1 1 1:34 2:38 3:38 5:33 
-1 -1 -1 -1 -1 -1 -1 -0.9741477878556914 -1 -1 -1 -1 -1 1 1:40 2:42 3:28 5:33 
-1 -1 -1 -0.9999999999999665 -1 -1 -1 -0.9741044739077187 -1 -1 -1 -0.9999999971985666 -1 1 1:31 2:39 3:39 4:17 5:39 
-1 -1 -1 -1 -1 -1 -1 -0.9741477878653173 -1 -1 -1 -1 -1 1 1:33 2:30 3:34 4:11 5:33 
-1 -1 -1 -0.431980078565582 -0.7175636563068959 -1 -1 -0.4313668470159632 -0.8605512372177767 -0.7299607406111708 -0.6468899845209808 -0.4319800804456078 -0.6464052808252631 -0.4319790935493293 1:33 2:32 3:37 4:39 
-1 -1 -1 -0.4058038058576399 -0.6757785715937086 -1 -0.9986688480356746 -0.4059217836530771 -0.8104184719727039 -0.6869667924587757 -0.6088927014475739 -0.4058038053306511 -0.6089217290158565 -0.4058043080283545 1:32 2:30 3:30 4:31 5:3 
-1 -1 -1 -0.4313310209084523 -0.7184828362994733 -1 -1 -0.4317079216988735 -0.8612161164158494 -0.7305373972314781 -0.6474013571773269 -0.4313310216531796 -0.6474108648269883 -0.4316052970961666 1:34 2:32 3:32 4:37 5:21 6:11 
-1 -1 -1 -0.4309767859787119 -0.7178619958860901 -1 -1 -0.4311808992423704 -0.8604632789119312 -0.7294860112640927 -0.6468646649581179 -0.4309767844949315 -0.6473426774637622 -0.430976785558098 1:31 2:37 3:30 4:34 
-1 -1 -0.8116361019793407 -0.3122431047062614 -0.5201868018705034 -1 -0.7686075137681061 -0.3122903472684153 -0.6229039551845396 -0.5285857076459437 -0.4692933730294045 -0.3122431071354632 -0.4684831413679021 -0.312242559985367 1:33 2:30 3:30 4:35 
-1 -1 -1 -0.4316014371257315 -0.7184725682999602 -1 -1 -0.4312766386040495 -0.8612223894578475 -0.730110190126254 -0.6474436746012292 -0.4316014385487488 -0.6474632909014432 -0.4313266337603302 1:28 2:30 3:39 4:33 
-1 -1 -1 -0.4316043376944988 -0.7181538702576835 -1 -1 -0.4317160907868425 -0.8612308956896551 -0.7305714393275512 -0.647363910777465 -0.4316043369638837 -0.6469622454097823 -0.4316048579026135 1:28 2:33 3:47 4:38 5:3 
-1 -1 -1 -0.4312572135864733 -0.7175746106487159 -1 -1 -0.4312185115593341 -0.8605641620426551 -0.7301225068354389 -0.646862876392907 -0.4312572128666552 -0.6469691967979277 -0.4312577300550698 1:36 2:37 3:37 4:36 
-1 -0.8920414996836892 -0.6879323233957815 -0.2619823176927372 -0.4359492931578546 -0.8940020896609311 -0.6439068579001603 -0.2619766083802926 -0.5223397955375688 -0.4433410912779017 -0.3921236926739226 -0.2619823153943348 -0.3926986403641745 -0.2619823206729129 1:33 2:31 3:30 4:33 
-1 -1 -1 -0.4312198978839118 -0.7178639465377964 -1 -1 -0.4313443517907821 -0.8604729793040802 -0.7299982706344177 -0.6468637644210721 -0.4312198971665442 -0.6473429330269003 -0.4312204133917582 1:35 2:34 3:30 4:35 5:5 6:2 
