svm_type c_svc
kernel_type rbf
gamma 0.030303
nr_class 10
total_sv 370
rho 0.171392 -0.0568399 0.129711 0.0525238 0.190721 -0.166097 -0.0660589 -0.0652081 -0.048601 -0.22134 -0.0404641 -0.110074 0.0177215 -0.320788 -0.242563 -0.224433 -0.217277 0.183797 0.107918 0.242812 -0.106227 -0.00561538 -0.00790497 0.00768022 -0.0699101 0.058443 -0.180184 -0.198697 -0.186738 -0.173916 0.127537 -0.215082 -0.121621 -0.115256 -0.0999279 -0.340329 -0.261619 -0.244859 -0.237432 0.100381 0.108934 0.115716 -0.00218811 0.0133332 0.0173472
label 0 1 2 3 4 5 6 7 8 9
nr_sv 36 39 35 45 43 41 41 22 41 27
SV
0.4101482219740896 0.3307194174601303 0.3955839331962449 0.3694797675198512 0.4169540270545146 0.2878377536318203 0.3279616806192797 0.3254210355546145 0.3348187454246193 1:6 2:8 3:6 4:6 5:6 6:6 7:6 8:6 9:6 10:6 11:7 12:7 13:7 14:8 15:8 16:9 17:13 18:9 19:7 20:12 21:14 22:15 23:9 24:7 25:5 26:5 27:5 28:5 29:7 30:13 31:16 32:14 33:10 
0.7422107527996518 0.5972671305615291 0.715472520597057 0.666537053250896 0.7545444929240521 0.5287060740650573 0.5915381035826043 0.5918642680250268 0.602516930933066 1:6 2:8 3:6 4:6 5:6 6:6 7:6 8:6 9:6 10:6 11:6 12:6 13:6 14:6 15:8 16:8 17:8 18:11 19:9 20:11 21:13 22:15 23:8 24:6 25:4 26:4 27:4 28:4 29:6 30:9 31:16 32:16 33:14 
0.5334617624805843 0.4293167752735086 0.5126037452310669 0.4787353272794568 0.5419875887140377 0.3771828411509041 0.4250599444209228 0.4247796174348871 0.4328921646258117 1:8 2:10 3:8 4:6 5:8 6:8 7:8 8:8 9:6 10:6 11:8 12:8 13:8 14:8 15:6 16:6 17:6 18:8 19:6 20:10 21:14 22:17 23:16 24:6 25:4 26:4 27:4 28:4 29:6 30:15 31:16 32:14 33:10 
0.2889054211967745 0.2331271020744225 0.2788513954991384 0.2597699000842692 0.2936394756430735 0.2060279753552041 0.2298971753700055 0.231100792158289 0.2348810224373437 1:6 2:10 3:12 4:9 5:7 6:6 7:6 8:6 9:6 10:6 11:6 12:6 13:6 14:6 15:6 16:6 17:6 18:8 19:6 20:9 21:14 22:16 23:8 24:7 25:5 26:5 27:5 28:5 29:7 30:8 31:16 32:14 33:11 
0.5351069348164539 0.4307187299980693 0.5153639393063058 0.4808643534408029 0.5436696488882656 0.3790648485395037 0.4266554860415136 0.4266167031464587 0.4332721746109847 1:6 2:10 3:8 4:6 5:7 6:7 7:7 8:8 9:8 10:8 11:7 12:7 13:7 14:7 15:7 16:6 17:6 18:8 19:6 20:10 21:14 22:16 23:11 24:6 25:4 26:4 27:4 28:4 29:6 30:17 31:16 32:14 33:10 
1 0.8642033887992829 1 0.9643234666289401 1 0.7695465673674164 0.8559566054062687 0.8614146671243401 0.8720517796369768 1:8 2:10 3:7 4:8 5:8 6:10 7:14 8:12 9:7 10:6 11:6 12:6 13:6 14:6 15:6 16:6 17:6 18:8 19:6 20:9 21:13 22:15 23:12 24:8 25:6 26:6 27:6 28:6 29:10 30:12 31:17 32:15 33:11 
0.08853734760738415 0.07181401507627917 0.08512339265039613 0.07989291372990528 0.09043003251700284 0.06120850432954316 0.07153036581955691 0.07033172474335284 0.07166407268470713 1:9 2:11 3:7 4:6 5:6 6:6 7:6 8:6 9:6 10:6 11:6 12:6 13:6 14:6 15:6 16:6 17:6 18:8 19:7 20:9 21:13 22:16 23:10 24:6 25:4 26:4 27:4 28:4 29:6 30:9 31:17 32:15 33:9 
0.6716014560583073 0.5402718167717869 0.6480127565382253 0.6031232449736087 0.6834277749570157 0.4777535681112524 0.5358073713776419 0.5355801858265629 0.5447454658639228 1:6 2:10 3:13 4:9 5:8 6:6 7:6 8:6 9:6 10:6 11:6 12:6 13:6 14:6 15:6 16:6 17:6 18:8 19:6 20:12 21:14 22:16 23:8 24:7 25:5 26:5 27:5 28:5 29:7 30:8 31:16 32:14 33:10 
0.1628332839770943 0.1320338547985012 0.1575113130131825 0.1470184285029932 0.1660053777010075 0.1153106524366232 0.1301534995408236 0.1297174711372729 0.1324181343262775 1:6 2:8 3:6 4:6 5:6 6:6 7:6 8:6 9:6 10:6 11:6 12:8 13:8 14:8 15:6 16:6 17:7 18:9 19:8 20:9 21:13 22:15 23:9 24:6 25:4 26:4 27:4 28:6 29:6 30:12 31:17 32:14 33:9 
0.03225192864847788 0.02629606511205193 0.03371028642815693 0.02844965822969555 0.03315503380908288 0.02908119281074234 0.02555051762747172 0.02567652672116333 0.02551341064154438 1:7 2:9 3:7 4:7 5:7 6:7 7:7 8:7 9:6 10:6 11:6 12:6 13:6 14:6 15:6 16:6 17:6 18:9 19:7 20:9 21:13 22:17 23:13 24:8 25:5 26:4 27:4 28:4 29:6 30:8 31:15 32:13 33:9 
1 0.818607658901408 0.9804583403041988 0.9132283683826811 1 0.7259635522980047 0.8104630424625568 0.8118823717329277 0.8290408846523857 1:6 2:8 3:6 4:6 5:7 6:8 7:7 8:7 9:7 10:6 11:6 12:6 13:8 14:13 15:12 16:11 17:12 18:10 19:6 20:9 21:14 22:16 23:14 24:9 25:7 26:8 27:8 28:8 29:8 30:10 31:16 32:14 33:11 
0.1675038966988878 0.1343773777473374 0.1611421694666023 0.1502369313399848 0.1706803293389714 0.1189015803615111 0.1332230978597874 0.1329168502563668 0.1354684386305266 1:6 2:8 3:6 4:6 5:6 6:7 7:9 8:8 9:6 10:7 11:7 12:7 13:6 14:6 15:6 16:6 17:6 18:8 19:6 20:9 21:13 22:15 23:10 24:6 25:6 26:6 27:4 28:4 29:6 30:11 31:15 32:13 33:9 
0.529440666455697 0.4243624488454059 0.5268424030353835 0.4734242488819119 0.5402372337485791 0.4348471728088615 0.4200643112710099 0.471544049110268 0.4434596392792919 1:6 2:9 3:10 4:8 5:7 6:8 7:8 8:8 9:8 10:6 11:6 12:6 13:6 14:6 15:7 16:8 17:10 18:9 19:8 20:10 21:13 22:15 23:12 24:9 25:6 26:5 27:6 28:6 29:8 30:13 31:18 32:14 33:9 
0.751060822440942 0.6041853604351261 0.7237964022180184 0.6749298818545585 0.7626586537086494 0.5356755077155576 0.5980362073224388 0.5988714223595908 0.6100007663356497 1:11 2:12 3:8 4:7 5:6 6:7 7:6 8:6 9:6 10:6 11:6 12:6 13:6 14:6 15:6 16:6 17:7 18:9 19:6 20:11 21:16 22:17 23:10 24:7 25:5 26:4 27:4 28:4 29:6 30:9 31:17 32:14 33:9 
0.149621175292286 0.1199760968540281 0.1437274951509065 0.1343596317748664 0.1511534873442244 0.1045485159979454 0.118896829149969 0.1156817488715992 0.1180735439268222 1:6 2:9 3:11 4:8 5:7 6:6 7:6 8:6 9:6 10:6 11:6 12:8 13:8 14:8 15:7 16:6 17:6 18:8 19:6 20:10 21:13 22:15 23:11 24:7 25:5 26:5 27:5 28:5 29:7 30:11 31:16 32:14 33:10 
1 0.9296292476845108 1 1 1 0.8269889678935498 0.920967030070462 0.9227908177941013 0.9387008350749796 1:6 2:8 3:11 4:13 5:14 6:13 7:9 8:7 9:6 10:6 11:6 12:6 13:6 14:6 15:6 16:6 17:6 18:8 19:6 20:11 21:14 22:15 23:10 24:9 25:8 26:8 27:7 28:8 29:10 30:11 31:15 32:13 33:10 
0.09272488522277281 0.07433713064349441 0.08807034671797813 0.08225192641549509 0.09275809066902557 0.06415505722219966 0.0731944505403134 0.07131683193950611 0.07229541153118378 1:6 2:8 3:7 4:7 5:7 6:6 7:6 8:6 9:6 10:6 11:6 12:6 13:6 14:6 15:8 16:8 17:10 18:8 19:6 20:11 21:13 22:15 23:8 24:8 25:6 26:5 27:5 28:5 29:7 30:8 31:15 32:13 33:10 
0.4252011415362221 0.3424372899510753 0.4100362513598144 0.3821998960433479 0.4323637610770885 0.3020085386836002 0.3387336603368722 0.3377125218115304 0.3443969642421159 1:6 2:8 3:6 4:7 5:7 6:9 7:8 8:7 9:6 10:6 11:6 12:6 13:6 14:6 15:6 16:6 17:6 18:8 19:6 20:9 21:13 22:15 23:11 24:10 25:4 26:4 27:4 28:4 29:6 30:9 31:15 32:13 33:9 
0.001471042568876245 0 0.002722552244231661 0 0.001826117511110486 0 0 0 0.02833020046755972 1:6 2:8 3:8 4:8 5:8 6:7 7:6 8:6 9:7 10:8 11:8 12:7 13:6 14:6 15:6 16:6 17:6 18:8 19:6 20:9 21:13 22:15 23:11 24:6 25:4 26:4 27:5 28:6 29:8 30:12 31:15 32:13 33:10 
0.2148382900889063 0.1732495773150128 0.2072069131476473 0.193284092596887 0.2183767147532025 0.1523557032132369 0.1723416131231465 0.1743472454580701 0.1772542038776388 1:6 2:8 3:6 4:6 5:6 6:6 7:6 8:6 9:6 10:6 11:7 12:7 13:8 14:8 15:8 16:9 17:10 18:11 19:9 20:9 21:15 22:17 23:11 24:8 25:5 26:4 27:4 28:5 29:7 30:13 31:16 32:14 33:11 
0.3548482960636783 0.2847456230972748 0.3437970682507488 0.3180875478511187 0.360844476593526 0.2534433276061809 0.2825090488438101 0.2841197972670256 0.2960347546059238 1:6 2:8 3:6 4:6 5:7 6:7 7:7 8:7 9:7 10:7 11:8 12:9 13:8 14:8 15:6 16:6 17:6 18:8 19:6 20:10 21:13 22:15 23:15 24:6 25:4 26:4 27:4 28:4 29:8 30:13 31:15 32:13 33:9 
0.474549804090913 0.3816563252079692 0.4634186073508861 0.4250030000233416 0.4821261020065535 0.3411710528988215 0.3777042999791335 0.3773752916965857 0.3806599718825273 1:6 2:8 3:6 4:7 5:6 6:6 7:6 8:7 9:9 10:8 11:6 12:6 13:6 14:6 15:6 16:6 17:6 18:8 19:6 20:9 21:13 22:15 23:8 24:6 25:4 26:4 27:4 28:5 29:9 30:11 31:15 32:13 33:9 
0.05931635021496207 0.04467175004857796 0.05716693010810259 0.04998510339773229 0.06082267070760174 0.04122845782182286 0.04396789579501756 0.04439769133256613 0.03697870034237635 1:6 2:8 3:6 4:6 5:7 6:8 7:8 8:8 9:8 10:8 11:8 12:6 13:6 14:6 15:6 16:6 17:6 18:8 19:6 20:10 21:13 22:15 23:14 24:6 25:4 26:4 27:4 28:4 29:6 30:14 31:15 32:13 33:9 
0.5740654496246108 0.4605033997598297 0.5515714545080035 0.5140115284933059 0.585768064827377 0.4088156085721544 0.455826287503298 0.456283915619467 0.4660135144720368 1:6 2:8 3:6 4:7 5:7 6:8 7:8 8:7 9:6 10:6 11:6 12:6 13:6 14:8 15:10 16:12 17:10 18:8 19:6 20:10 21:13 22:15 23:12 24:8 25:6 26:6 27:6 28:6 29:9 30:11 31:15 32:13 33:11 
0.0005355142106361438 0.000855647705277374 0 0.001274773244124379 0 0 0.001264159868290107 0.0009494674295182908 0 1:6 2:8 3:6 4:6 5:6 6:6 7:6 8:7 9:8 10:7 11:7 12:7 13:6 14:6 15:6 16:6 17:6 18:8 19:6 20:9 21:13 22:15 23:8 24:6 25:4 26:4 27:4 28:6 29:6 30:12 31:15 32:13 33:9 
0.1213423940470561 0.09844120387967496 0.1158827073501027 0.1100338919272201 0.1238241417845436 0.08561916164182502 0.097566687593705 0.09810684447046122 0.09345169629574496 1:6 2:8 3:8 4:8 5:9 6:8 7:6 8:6 9:6 10:6 11:6 12:7 13:8 14:8 15:7 16:6 17:6 18:9 19:7 20:10 21:13 22:16 23:13 24:8 25:5 26:4 27:4 28:5 29:7 30:11 31:15 32:13 33:11 
0.1625843212366935 0.1304819917585941 0.1543423622984061 0.1457455199032117 0.164693873015397 0.1138411035057153 0.1294697882185211 0.1317532773323984 0.1303576451539756 1:6 2:8 3:6 4:6 5:6 6:6 7:6 8:6 9:6 10:6 11:6 12:6 13:6 14:6 15:6 16:6 17:6 18:8 19:6 20:9 21:13 22:15 23:8 24:6 25:4 26:4 27:4 28:4 29:6 30:8 31:15 32:13 33:9 
0.6868049015858515 0.5513485872784369 0.6610745625285562 0.6152766564985619 0.6988269899219428 0.4939426471436315 0.5457687355160558 0.5470802441211252 0.5587080900768776 1:6 2:8 3:6 4:6 5:6 6:6 7:6 8:6 9:6 10:6 11:7 12:7 13:8 14:9 15:10 16:13 17:12 18:10 19:8 20:12 21:14 22:16 23:11 24:9 25:7 26:6 27:6 28:6 29:7 30:13 31:16 32:13 33:10 
0.5306993544422959 0.4278924522684863 0.5118449421995752 0.4770853775956757 0.5392965583867262 0.3770329600656615 0.4231400832518892 0.4182816537280622 0.4295927365047673 1:6 2:9 3:9 4:8 5:8 6:7 7:7 8:6 9:6 10:6 11:6 12:7 13:7 14:8 15:7 16:8 17:9 18:11 19:8 20:14 21:15 22:17 23:12 24:9 25:6 26:4 27:4 28:5 29:7 30:11 31:16 32:14 33:9 
0.556603214519741 0.4487263579430794 0.5392967799638795 0.5011459188707094 0.5667956176881862 0.4023026890224485 0.4443535563333734 0.4498982103434326 0.4530035526093311 1:7 2:10 3:8 4:6 5:6 6:7 7:7 8:8 9:8 10:8 11:7 12:7 13:7 14:7 15:6 16:6 17:6 18:9 19:8 20:9 21:14 22:16 23:17 24:6 25:4 26:4 27:4 28:4 29:6 30:13 31:18 32:14 33:9 
1 0.9012002286650813 1 1 1 0.8543937305782298 0.8919756062697763 0.9246064418688957 1 1:6 2:8 3:6 4:6 5:6 6:7 7:8 8:10 9:12 10:12 11:11 12:8 13:6 14:6 15:6 16:6 17:6 18:8 19:6 20:9 21:13 22:15 23:13 24:9 25:4 26:4 27:6 28:8 29:11 30:15 31:15 32:13 33:9 
0.6290664745880192 0.5073886565440402 0.6064034713706287 0.565951339793057 0.6395327793088822 0.4452236137029553 0.5023893519399925 0.5014282792242185 0.5111594183827015 1:6 2:8 3:6 4:6 5:7 6:8 7:8 8:8 9:7 10:6 11:6 12:6 13:6 14:6 15:6 16:6 17:7 18:12 19:11 20:10 21:13 22:17 23:12 24:6 25:4 26:4 27:4 28:4 29:6 30:13 31:17 32:16 33:10 
0.2108644860203402 0.171541587078393 0.2062680111929104 0.1908695409486285 0.2162054904415535 0.1513163306744579 0.1693843068457101 0.1694796810701819 0.1754807416753835 1:6 2:8 3:6 4:6 5:6 6:6 7:6 8:6 9:6 10:6 11:6 12:6 13:6 14:6 15:6 16:8 17:10 18:8 19:6 20:9 21:13 22:15 23:8 24:7 25:5 26:5 27:5 28:5 29:7 30:8 31:15 32:13 33:9 
0.3191980979413853 0.2524554530133656 0.3049275437972741 0.2819134352164804 0.3257273722028184 0.2216947168318943 0.2497129678651182 0.2506514188661996 0.2548356552306392 1:6 2:8 3:6 4:7 5:8 6:9 7:9 8:8 9:8 10:7 11:6 12:6 13:6 14:6 15:6 16:6 17:7 18:9 19:8 20:10 21:13 22:15 23:10 24:9 25:4 26:4 27:4 28:4 29:9 30:14 31:17 32:14 33:9 
0.2262316255470401 0.181779526471653 0.2202537017391479 0.2030057565559491 0.2295721996549249 0.1657972582995115 0.1802770617796096 0.1802198317186065 0.1828146325827721 1:6 2:8 3:6 4:6 5:6 6:6 7:6 8:6 9:6 10:6 11:7 12:7 13:7 14:7 15:7 16:8 17:11 18:9 19:6 20:10 21:14 22:16 23:12 24:7 25:5 26:5 27:5 28:5 29:7 30:8 31:15 32:13 33:9 
0.1477532810219943 0.1183070128593544 0.1410297318708165 0.1327002898911113 0.1494181815416543 0.1028138405569455 0.1171418664389392 0.1167378444571538 0.118803666299796 1:6 2:8 3:6 4:6 5:7 6:6 7:6 8:6 9:6 10:6 11:6 12:6 13:6 14:6 15:7 16:7 17:10 18:11 19:9 20:9 21:15 22:17 23:9 24:6 25:4 26:4 27:5 28:5 29:7 30:9 31:16 32:14 33:11 
-0.3338802955138997 0.3134598891324309 0.3862987439682433 0.3584737803537298 0.409171903436207 0.2732766521287349 0.3050105369455214 0.3122657828919567 0.3151247056607662 1:2 2:8 3:9 4:9 5:8 6:7 7:4 8:3 9:3 10:3 11:3 12:3 13:3 14:3 15:3 16:3 17:3 18:3 22:2 23:3 24:3 25:4 26:6 27:18 28:18 29:17 30:3 31:2 32:2 33:2 
-0.2360061092281586 0.2217122660175606 0.2731869190180704 0.253821174671206 0.2895050143686108 0.1935350788384401 0.2160726994587957 0.2205143951633128 0.2233779225742065 1:2 2:4 3:5 4:6 5:8 6:8 7:8 8:5 9:4 10:3 11:4 12:4 13:3 14:3 15:3 16:3 17:3 18:3 19:5 22:3 23:3 24:4 25:6 26:9 27:19 28:19 29:18 30:3 
-0.6167898327071648 0.5797813779297258 0.7147832436217663 0.6628519832549638 0.7580078157766398 0.5058277594811523 0.5641202274044831 0.5776453559823713 0.5833191476015818 1:5 2:7 3:8 4:8 5:8 6:7 7:4 8:3 9:3 10:3 11:3 12:3 13:3 14:3 15:3 16:3 17:3 18:3 19:3 22:3 23:5 24:6 25:6 26:7 27:19 28:19 29:18 
-0.6143883915043842 0.5774337964889411 0.7116285849832429 0.6599429012922076 0.7545742629923837 0.5034266959081634 0.5617668837617463 0.5753517386805849 0.5804189006579196 2:3 3:4 4:5 5:8 6:9 7:9 8:3 9:3 10:3 11:3 12:5 13:5 14:5 15:5 16:3 17:4 18:4 19:3 21:4 22:6 23:3 24:3 25:4 26:5 27:18 28:18 29:18 30:5 
-0.3865912737828373 0.3631979953003491 0.447890467813908 0.4152718493568424 0.4754423050741463 0.3170776031297756 0.3535069694973809 0.3618173611562304 0.3652307952048365 1:2 2:7 3:8 4:9 5:9 6:8 7:7 8:3 9:3 10:3 11:3 12:3 13:3 14:3 15:3 16:3 17:3 18:3 22:2 23:4 24:4 25:5 26:6 27:17 28:18 29:18 30:4 31:3 32:2 
-0.4101934521682813 0.3862648447064526 0.4755821730766827 0.4408790207726884 0.5040202326534069 0.3365756870727695 0.3748791583509752 0.3844479819342247 0.3881175337408638 1:6 2:5 3:5 4:5 5:6 6:6 7:4 8:3 9:3 10:3 11:3 12:3 13:3 14:3 15:3 16:3 17:3 18:3 19:3 21:2 22:1 23:1 24:3 25:3 26:5 27:18 28:19 29:19 30:2 
-0.07307047696274829 0.06903885321781425 0.08573133747742752 0.07946248401735047 0.08946346685016951 0.06001128358096687 0.06789050581728981 0.06872404210892995 0.06906611682392359 2:3 3:4 4:5 5:6 6:6 7:4 8:3 9:3 10:3 11:3 12:3 13:3 14:3 15:3 16:3 17:3 18:3 19:5 24:2 25:3 26:6 27:18 28:18 29:18 30:1 
-0.3405988037681293 0.3203572363928777 0.3950129413114892 0.3656044600550934 0.4188682620996638 0.2794431789297262 0.3119090011767023 0.3196668116234956 0.3227726484560228 2:3 3:4 4:5 5:6 6:6 7:4 8:3 9:3 10:4 11:8 12:8 13:8 14:4 15:3 16:3 17:3 18:3 24:2 25:3 26:8 27:17 28:17 29:17 30:5 31:3 32:3 33:3 
-0.4980843192506973 0.4678835787003585 0.5764992006289374 0.5347737697420574 0.6122284580252216 0.4086266033567272 0.4552587971786173 0.4661275737332535 0.4703836841805105 1:3 2:4 3:5 4:7 5:8 6:7 7:5 8:4 9:4 10:3 11:3 12:3 13:3 14:3 15:3 16:4 17:4 18:4 19:4 23:1 24:3 25:4 26:6 27:19 28:19 29:19 30:10 
-0.4071357092325785 0.3826651565766634 0.471118795562483 0.4368311810481845 0.4994685080172534 0.3337998407074667 0.3725052081643149 0.3808458824042553 0.3842236061256366 2:3 3:4 4:8 5:11 6:11 7:5 8:3 9:3 10:3 11:3 12:3 13:3 14:3 15:3 16:3 17:3 18:3 19:3 20:2 21:2 22:3 23:3 24:3 25:3 26:5 27:18 28:18 29:18 30:3 
-0.2145870192407522 0.2017130226567906 0.2493308626151204 0.2312404845502877 0.2636494984104696 0.1761918769907195 0.1965497805802344 0.2015551187751205 0.2029075853884575 2:3 3:4 4:5 5:7 6:7 7:4 8:4 9:5 10:7 11:7 12:4 13:4 14:4 15:3 16:3 17:3 18:3 19:3 23:2 24:2 25:3 26:7 27:18 28:18 29:18 30:5 31:3 32:2 33:2 
-0.6105711992765663 0.5736453212772243 0.7068753854782059 0.6555270051866081 0.7497335848573649 0.5003414209738288 0.5578453653505258 0.5716855538808874 0.5765247913017223 2:3 3:4 4:5 5:7 6:9 7:10 8:8 9:5 10:5 11:4 12:5 13:4 14:4 15:3 16:3 17:3 18:3 19:3 20:1 21:3 22:3 23:4 24:3 25:7 26:10 27:18 28:18 29:18 30:3 
-0.6952378959167984 0.6532341275062615 0.8051472024574955 0.7465939017442823 0.8539251149678375 0.5703620292685754 0.6353281080427666 0.6507935332735491 0.6566920517260797 2:3 3:4 4:5 5:6 6:6 7:4 8:3 9:3 10:3 11:3 12:3 13:3 14:3 15:3 16:4 17:6 18:8 19:8 24:2 25:4 26:9 27:18 28:18 29:18 30:3 31:2 32:2 33:2 
-0.02675005373053507 0.02203701351874392 0.0297801080217769 0.02749919754575131 0.03080730607549998 0.02030268706606208 0.02416502666552924 0.0225898864341524 0.02167724252699309 1:2 2:3 3:4 4:5 5:6 6:6 7:4 8:3 9:3 10:3 11:3 12:3 13:3 14:3 15:3 16:3 17:3 18:3 24:2 25:3 26:5 27:17 28:18 29:18 
-0.09662975505884515 0.09117208660204451 0.1112540322936852 0.1039245887741409 0.1191083531244484 0.07982991844795076 0.08778605111158494 0.09080345284012861 0.09159995300038994 1:3 2:4 3:4 4:5 5:6 6:6 7:4 8:3 9:3 10:3 11:4 12:4 13:3 14:3 15:3 16:3 17:3 18:3 19:3 24:2 25:3 26:8 27:19 28:19 29:19 
-0.1568465322357903 0.1476237772202466 0.1814757398247402 0.1684794383175172 0.1930752159723951 0.1288422766032315 0.143367706847738 0.1466828112197604 0.1484757522023133 2:3 3:4 4:5 5:6 6:6 7:5 8:5 9:6 10:5 11:4 12:3 13:3 14:3 15:3 16:3 17:3 18:3 21:2 24:2 25:4 26:8 27:17 28:17 29:17 30:3 
-0.2107743705185262 0.1978370424414707 0.2438027369524952 0.2258977243643582 0.258223259656157 0.1725929453374288 0.1919948964998963 0.197233028274376 0.1987332346839 2:3 3:4 4:5 5:6 6:6 7:5 8:5 9:5 10:4 11:4 12:3 13:3 14:3 15:5 16:5 17:5 18:3 19:3 24:2 25:3 26:12 27:18 28:18 29:18 30:6 
-0.1778220501169173 0.1668034975642019 0.2059251067003173 0.1912592747554342 0.2174562638745169 0.1458625986611098 0.161908015477678 0.1660966144919387 0.1675178239505617 2:3 3:4 4:5 5:6 6:6 7:4 8:3 9:3 10:3 11:4 12:7 13:6 14:3 15:3 16:3 17:3 18:3 24:2 25:3 26:5 27:17 28:17 29:17 30:3 31:1 32:2 33:2 
-0.8067752528212472 0.7585702867215527 0.9347713764857181 0.866974410271202 0.9913868660394616 0.6616514379245763 0.7379198095676595 0.7556889004800006 0.7623084360431115 2:3 3:4 4:5 5:6 6:8 7:8 8:7 9:4 10:3 11:3 12:4 13:4 14:3 15:7 16:10 17:9 18:7 19:7 20:1 21:2 22:2 23:5 24:5 25:7 26:13 27:18 28:18 29:18 30:7 31:3 32:2 33:1 
-0.1127437876934061 0.1055319475310923 0.1301478870080899 0.1202715876321681 0.1384375472914935 0.0921956242082243 0.1023053021141461 0.1056065239907961 0.106326877146573 2:3 3:4 4:5 5:6 6:6 7:4 8:3 9:3 10:3 11:3 12:3 13:3 14:3 15:3 16:5 17:5 18:3 19:2 24:4 25:3 26:7 27:18 28:18 29:17 
-0.7576925482706171 0.7116928650785385 0.8772322060617318 0.8137631666390744 0.9307995983027602 0.6209387188991276 0.6922407632871401 0.7090302090822141 0.7154569357811493 2:3 3:4 4:5 5:6 6:6 7:4 8:3 9:3 10:3 11:3 12:4 13:8 14:10 15:7 16:6 17:5 18:4 20:2 21:2 22:3 23:2 24:4 25:5 26:9 27:17 28:17 29:17 30:4 31:2 
-0.2074163054590405 0.1947811554426913 0.239823913076514 0.2224059745179316 0.2551446028095566 0.1694515916833226 0.1892212583079247 0.1934897786410235 0.1958121489933306 2:3 3:4 4:5 5:6 6:6 7:4 8:4 9:4 10:5 11:6 12:6 13:5 14:3 15:3 16:3 17:3 18:3 19:3 24:2 25:3 26:5 27:18 28:18 29:18 30:6 31:3 32:3 
-0.5791004909386523 0.5444142182925273 0.6707432333556723 0.6218331030475002 0.7109281655033611 0.4746495002790357 0.5292876421687274 0.5418599686696052 0.5472972883549955 2:3 3:4 4:5 5:7 6:8 7:10 8:5 9:5 10:5 11:5 12:4 13:4 14:5 15:5 16:5 17:3 18:3 21:1 22:2 23:3 24:3 25:4 26:12 27:17 28:17 29:17 30:10 
-0.2875948785434767 0.2699705485080671 0.3326087113393975 0.3085400537545719 0.3529441799864066 0.2360671875559962 0.2621639553973912 0.2695738866969667 0.2713415751694318 1:2 2:4 3:6 4:9 5:9 6:8 7:4 8:4 9:4 10:5 11:5 12:4 13:3 14:3 15:3 16:3 17:3 18:3 22:2 23:3 24:3 25:4 26:10 27:18 28:18 29:17 30:7 
-0.3857519810557448 0.362628242355083 0.4469229449914792 0.4140796112734929 0.4735014295090792 0.3160476278422962 0.3524112309588545 0.3612311700449645 0.3642796234333672 2:3 3:4 4:5 5:6 6:6 7:5 8:5 9:5 10:4 11:8 12:8 13:5 14:5 15:4 16:3 17:3 18:3 19:3 20:2 21:2 22:2 23:2 24:2 25:3 26:12 27:18 28:18 29:18 30:6 
-0.4136301193924295 0.3885655186340457 0.4789469406405431 0.4441806666255726 0.508209598001414 0.3388707423680789 0.37883084414093 0.3868948358111261 0.3907171421948269 2:3 3:4 4:5 5:6 6:6 7:4 8:3 9:3 10:3 11:4 12:4 13:4 14:4 15:4 16:4 17:5 18:3 24:2 25:3 26:12 27:17 28:17 29:17 30:1 
-0.3718421004321208 0.3494237814812782 0.4300953956903395 0.3994479377692179 0.4563764265648099 0.3043759815576682 0.3396163422820451 0.3477593263600912 0.3504282361677421 2:3 3:4 4:5 5:6 6:6 7:5 8:4 9:4 10:5 11:6 12:9 13:8 14:4 15:3 16:3 17:3 18:3 24:2 25:5 26:9 27:17 28:17 29:17 30:8 31:2 32:2 33:2 
-0.3039520301594678 0.2847851094466763 0.3517897989960749 0.325973081188038 0.3731840362902568 0.249203454851435 0.2779950721438607 0.2843403692035471 0.2866479208962737 2:3 3:7 4:8 5:6 6:6 7:4 8:3 9:3 10:3 11:3 12:3 13:3 14:3 15:3 16:3 17:3 18:3 24:2 25:3 26:5 27:17 28:17 29:17 30:2 32:2 33:2 
-0.3295758657354716 0.3095671619907715 0.3821142554943828 0.3540495000152644 0.405874171126576 0.2704547809879153 0.3014667165969778 0.3090126384963749 0.3119688437357916 2:3 3:4 4:5 5:9 6:10 7:6 8:3 9:3 10:3 11:3 12:3 13:3 14:3 15:3 16:3 17:3 18:3 19:3 20:2 21:3 22:2 23:2 24:2 25:3 26:5 27:18 28:18 29:18 
-0.6545841031349565 0.6155350912513238 0.7577135559726593 0.7028068655387981 0.803706027835365 0.5364992799732479 0.5983339304480101 0.612497513627592 0.6182009822931305 2:3 3:4 4:5 5:6 6:6 7:4 8:5 9:5 10:11 11:11 12:5 13:4 14:3 15:3 16:3 17:3 18:3 19:3 20:2 21:2 22:2 23:2 24:4 25:5 26:10 27:18 28:18 29:18 30:6 
-0.7686354139951747 0.7223625497940425 0.8900195226028244 0.825892249493606 0.9444379336674539 0.6304259398151171 0.7029454787769204 0.7198227638424438 0.7267215827931607 2:3 3:4 4:5 5:6 6:6 7:5 8:5 9:8 10:12 11:14 12:8 13:6 14:3 15:3 16:3 17:3 18:3 20:2 21:2 22:2 23:3 24:5 25:8 26:10 27:17 28:17 29:17 30:5 31:3 32:3 33:3 
-0.5459124996244121 0.5130588882697783 0.6322336298988723 0.5864903439872882 0.6709196729411252 0.4477365882640901 0.4991725099442299 0.5111869578380148 0.5158036979213647 2:3 3:4 4:5 5:6 6:7 7:7 8:6 9:5 10:4 11:4 12:5 13:5 14:5 15:4 16:4 17:5 18:5 19:4 23:2 24:3 25:5 26:15 27:18 28:18 29:18 30:9 
-0.3020231471166324 0.2837053196714594 0.3502263301496681 0.3244431535359971 0.3710836423935018 0.2479439085773542 0.2759545149073021 0.2825510360769916 0.2857000639975769 2:3 3:4 4:5 5:6 6:6 7:4 8:3 9:3 10:5 11:9 12:8 13:5 14:3 15:3 16:3 17:3 18:3 23:2 24:4 25:5 26:9 27:17 28:17 29:17 30:4 31:1 
-0.807975866485744 0.7592767871370483 0.9359892737914153 0.8675945032093759 0.992651186014431 0.6619554277008382 0.7381469563256291 0.7560817317964746 0.7631370336902379 2:3 3:4 4:5 5:8 6:9 7:4 8:3 9:3 10:6 11:9 12:7 13:3 14:4 15:8 16:8 17:8 18:4 19:3 21:2 22:5 23:3 24:2 25:3 26:11 27:18 28:18 29:18 30:8 31:3 32:3 33:5 
-0.1352586876003892 0.1269381932868046 0.1561787664655928 0.1448093849204334 0.1657686771687969 0.1105604629629258 0.1235903500100324 0.1261634760594763 0.127364784914865 1:2 2:4 3:5 4:7 5:8 6:7 7:4 8:3 9:3 10:4 11:7 12:7 13:5 14:3 15:3 16:3 17:3 18:3 19:3 21:2 22:1 23:3 24:3 25:4 26:9 27:19 28:19 29:18 30:4 31:2 
-0.4398012779197702 0.4137037008212676 0.5092029180408209 0.4727392397299954 0.5402796387789911 0.3606855581316934 0.4024092187981439 0.4112764049184893 0.4154647066140711 1:4 2:7 3:6 4:5 5:6 6:6 7:4 8:3 9:3 10:3 11:3 12:4 13:5 14:4 15:4 16:3 17:3 18:4 19:4 24:2 25:3 26:8 27:18 28:19 29:19 30:7 31:2 32:1 33:2 
-0.2130688340872678 0.2010927060926651 0.2478251798220584 0.2297318003909755 0.2623351409174586 0.1746243036073322 0.1953082723342209 0.1998488746807146 0.2019188034589512 2:3 3:5 4:9 5:9 6:7 7:4 8:3 9:3 10:3 11:3 12:3 13:3 14:3 15:3 16:5 17:5 18:3 22:2 23:3 24:3 25:3 26:7 27:17 28:17 29:17 30:5 
-0.1654588222121901 0.1553178747821695 0.1912983973624645 0.1772076741771891 0.2027419466621596 0.1352614067902542 0.1513968295393808 0.1546415968526163 0.1558311788922566 2:3 3:5 4:6 5:8 6:8 7:5 8:4 9:3 10:3 11:5 12:5 13:5 14:3 15:3 16:3 17:3 18:3 23:2 24:2 25:3 26:8 27:17 28:17 29:17 30:9 
-0.1566310421268039 0.1499217106554969 0.1820036879365354 0.1687792948695161 0.1937314491520333 0.1292379653788722 0.1431178277491521 0.1483709011452837 0.1510084406708467 2:3 3:4 4:5 5:6 6:6 7:4 8:3 9:3 10:3 11:3 12:3 13:3 14:3 15:3 16:3 17:3 18:3 24:2 25:3 26:5 27:17 28:17 29:17 
-0.3607754037481609 -0.4192870156538772 0.406143563603493 0.378594087402458 0.4285397790883288 0.3050316957298556 0.3400615405351807 0.3382367239564145 0.3441063239338678 1:7 2:11 3:12 4:9 5:6 6:3 7:4 8:7 9:4 10:3 11:4 12:4 13:4 14:4 15:4 16:4 17:5 18:11 19:11 20:1 21:8 22:9 23:10 24:12 25:10 26:8 27:8 28:8 29:9 30:11 31:11 32:7 33:5 
-0.0567304207221252 -0.06564199844175096 0.06672777132734388 0.0591002568550278 0.06579520470122698 0.04784840911794826 0.0531258422044012 0.05215358443424149 0.05307400966507454 1:8 2:11 3:10 4:8 5:6 6:3 7:3 8:4 9:3 10:3 11:4 12:4 13:4 14:4 15:4 16:5 17:7 18:13 19:12 20:4 21:7 22:9 23:9 24:9 25:10 26:9 27:7 28:7 29:8 30:10 31:12 32:10 33:5 
-0.4766078520704815 -0.5506689834069453 0.5703005876971767 0.5000130532465308 0.5605448491985174 0.4030971077013406 0.4486354088921322 0.447322393387886 0.4539752985172225 1:7 2:10 3:9 4:8 5:6 6:3 7:3 8:4 9:3 10:3 11:4 12:4 13:4 14:4 15:6 16:7 17:14 18:14 19:12 20:4 21:8 22:9 23:9 24:9 25:9 26:9 27:8 28:9 29:10 30:12 31:12 32:10 33:7 
-0.5078906666760611 -0.5898788683777046 0.600182633633919 0.5323474104922732 0.6069247834517872 0.4291368446694262 0.4775283997804984 0.4811328768891519 0.484536879085781 1:9 2:11 3:9 4:8 5:7 6:7 7:8 8:4 9:5 10:5 11:4 12:4 13:4 14:4 15:4 16:4 17:7 18:12 19:12 20:3 21:10 22:12 23:11 24:9 25:8 26:7 27:7 28:9 29:10 30:14 31:12 32:10 33:6 
-0.6379847143049846 -0.7366838940385185 0.7086980203762031 0.6687069484590308 0.7487053300194075 0.5391374678861093 0.5999478884103882 0.5990304565253264 0.6082402984839083 1:7 2:10 3:8 4:7 5:6 6:4 7:4 8:4 9:3 10:3 11:4 12:5 13:6 14:9 15:5 16:4 17:5 18:13 19:14 20:2 21:8 22:10 23:9 24:9 25:8 26:7 27:8 28:8 29:10 30:16 31:11 32:9 33:6 
-0.2650358894691984 -0.3059478879913308 0.286419744720099 0.2769699340946629 0.3111433786098535 0.2232314851660352 0.2487297675633475 0.2476456331402904 0.252048923569804 1:8 2:10 3:8 4:7 5:5 6:3 7:3 8:4 9:3 10:3 11:4 12:4 13:4 14:6 15:6 16:7 17:14 18:13 19:12 20:1 21:8 22:10 23:10 24:9 25:9 26:10 27:10 28:8 29:9 30:11 31:12 32:10 33:7 
-0.5348807180974048 -0.622589865572079 0.6173518722895438 0.5602720261306077 0.6359163683954249 0.4526475320962748 0.5033540380673529 0.5023013429933274 0.5099763323560009 1:7 2:10 3:12 4:7 5:6 6:6 7:5 8:6 9:7 10:6 11:5 12:5 13:4 14:4 15:4 16:4 17:5 18:12 19:12 20:2 21:9 22:10 23:9 24:9 25:9 26:8 27:10 28:11 29:10 30:12 31:12 32:10 33:6 
-0.01114074799872264 -0.01253205134700861 0.006987261936191628 0.01236386148159265 0.01341069964353703 0.009405117500684606 0.01069286422332213 0.01054876531715275 0.0112145483791509 1:7 2:10 3:10 4:10 5:7 6:3 7:3 8:4 9:3 10:3 11:4 12:4 13:4 14:4 15:4 16:4 17:5 18:13 19:13 20:2 21:7 22:9 23:9 24:10 25:9 26:7 27:7 28:8 29:9 30:11 31:11 32:9 33:7 
-0.1619259011190764 -0.1858992945266691 0.1833448381951197 0.1690458734264723 0.1889185998344343 0.1369692453939471 0.1521860878284062 0.1519836197579739 0.1540057099793166 1:7 2:10 3:11 4:10 5:9 6:4 7:4 8:4 9:3 10:3 11:4 12:4 13:4 14:5 15:5 16:5 17:6 18:12 19:11 20:3 21:8 22:10 23:10 24:10 25:9 26:7 27:8 28:10 29:10 30:13 31:11 32:7 33:5 
-0.6208804727235926 -0.7175103796921747 0.6926610009127567 0.6504429590141141 0.730410316293027 0.5252100913833988 0.5839719725363748 0.5818246078689954 0.5918979576566372 1:12 2:13 3:8 4:7 5:5 6:3 7:3 8:4 9:3 10:3 11:4 12:4 13:4 14:4 15:4 16:4 17:5 18:12 19:13 20:1 21:8 22:10 23:10 24:9 25:8 26:7 27:7 28:7 29:8 30:10 31:12 32:11 33:7 
-0.6376241828839473 -0.7405246364794635 0.7302957764751814 0.6691475226457589 0.7565259137204976 0.5394632965643525 0.5999468694300059 0.599049115293135 0.6088194400099666 1:7 2:10 3:8 4:7 5:6 6:4 7:5 8:8 9:7 10:5 11:4 12:4 13:4 14:4 15:4 16:4 17:5 18:11 19:11 21:7 22:9 23:9 24:9 25:8 26:9 27:10 28:10 29:11 30:13 31:11 32:7 33:5 
-0.08396535380679168 -0.09743152903042596 0.1024096355576029 0.0883590667025589 0.09856718420126975 0.0708571917813435 0.07913491277996132 0.07953809382324369 0.0802471419891601 1:10 2:12 3:9 4:7 5:5 6:3 7:3 8:4 9:3 10:3 11:4 12:4 13:4 14:4 15:4 16:4 17:5 18:11 19:11 21:7 22:9 23:9 24:9 25:8 26:7 27:7 28:7 29:8 30:10 31:12 32:9 33:8 
-0.2201514297990975 -0.254014360781763 0.2468532910151536 0.230671917204335 0.2587411282862784 0.1854338477996209 0.2064174391001017 0.2070070563715129 0.2096852988272447 1:9 2:12 3:9 4:8 5:5 6:3 7:3 8:4 9:3 10:3 11:4 12:4 13:4 14:4 15:4 16:4 17:5 18:11 19:11 20:4 21:9 22:9 23:9 24:9 25:8 26:7 27:7 28:7 29:8 30:10 31:11 32:7 33:5 
-0.284592083841794 -0.3299347920157905 0.3114864360126028 0.2982581015055609 0.3353876835613417 0.2408695429175923 0.2680042991041394 0.2675884085690224 0.2710564686793874 1:7 2:10 3:8 4:7 5:5 6:3 7:3 8:4 9:3 10:3 11:4 12:4 13:4 14:4 15:4 16:4 17:5 18:14 19:14 20:2 21:7 22:9 23:9 24:9 25:8 26:7 27:7 28:7 29:8 30:10 31:11 32:9 33:7 
-0.1534884135040336 -0.1773645000662617 0.219939673396373 0.1607386902410432 0.1802465439900904 0.1304416857125625 0.1451249855067089 0.1441170485197888 0.1465968910122929 1:7 2:10 3:8 4:7 5:8 6:6 7:4 8:4 9:4 10:3 11:4 12:4 13:4 14:5 15:5 16:5 17:10 18:13 19:12 20:1 21:8 22:10 23:10 24:9 25:9 26:8 27:8 28:8 29:10 30:14 31:12 32:10 33:6 
-0.2508708691252042 -0.2904568688063975 0.3217466431070847 0.2629324944338051 0.2969184319377701 0.2117372297722196 0.2355042168669967 0.2354301248270492 0.2391232983834196 1:7 2:10 3:8 4:7 5:5 6:3 7:3 8:4 9:4 10:4 11:4 12:4 13:4 14:4 15:4 16:5 17:12 18:12 19:11 21:7 22:9 23:9 24:9 25:9 26:8 27:8 28:8 29:9 30:11 31:12 32:10 33:6 
-0.2775269438442026 -0.3201879792988517 0.3034565324997295 0.2906130325929067 0.3246798581365154 0.2342218851725684 0.2607997608827401 0.2604895123328942 0.2642534827726011 1:7 2:10 3:12 4:7 5:5 6:3 7:3 8:4 9:3 10:3 11:4 12:5 13:5 14:4 15:4 16:4 17:5 18:11 19:11 21:7 22:9 23:9 24:10 25:10 26:8 27:8 28:8 29:8 30:10 31:11 32:7 33:5 
-0.7803037115776579 -0.9022169288745064 0.8736101511904852 0.8180389313185094 0.9185180891035476 0.6599921237232341 0.7342221787363564 0.732774938687703 0.7438990234203586 1:7 2:10 3:8 4:7 5:5 6:3 7:3 8:4 9:3 10:4 11:6 12:8 13:8 14:6 15:5 16:6 17:13 18:14 19:13 20:3 21:10 22:12 23:11 24:11 25:10 26:10 27:8 28:8 29:9 30:11 31:13 32:11 33:6 
-0.01554100741174999 -0.01789046966720339 0.02425348906427274 0.01642435984372757 0.01931362149994525 0.01376555349330487 0.01452408388314547 0.01470588867751948 0.0150065978476933 1:7 2:10 3:9 4:8 5:6 6:3 7:3 8:4 9:3 10:3 11:5 12:6 13:5 14:4 15:4 16:4 17:5 18:11 19:11 20:3 21:7 22:9 23:9 24:9 25:8 26:7 27:7 28:7 29:8 30:11 31:12 32:7 33:7 
-0.123356056662081 -0.1444632435553977 0.1261947354252314 0.1308204081357956 0.1475356738137805 0.1045971090738692 0.1171278337713289 0.1160879377986964 0.1184489734680142 1:7 2:10 3:8 4:7 5:8 6:6 7:4 8:4 9:3 10:3 11:4 12:4 13:4 14:4 15:4 16:4 17:5 18:11 19:11 20:1 21:8 22:10 23:10 24:9 25:8 26:7 27:7 28:7 29:8 30:13 31:11 32:7 33:5 
-0.3610530805863421 -0.4173517615611906 0.3975708051926328 0.3789700585339892 0.4245874658126336 0.306127169047314 0.3400353125930323 0.3387321892268368 0.3439777721769871 1:9 2:11 3:9 4:7 5:5 6:3 7:3 8:4 9:3 10:3 11:4 12:4 13:4 14:4 15:5 16:7 17:9 18:11 19:11 21:8 22:10 23:10 24:9 25:9 26:10 27:9 28:9 29:9 30:10 31:11 32:7 33:5 
-0.8252842106297251 -0.9540288969138144 0.9237714142023192 0.865958283293053 0.9710188408739024 0.6983457399085061 0.776459966840415 0.7757316350481488 0.7874137801630893 1:7 2:11 3:13 4:12 5:9 6:7 7:4 8:4 9:3 10:3 11:4 12:5 13:7 14:5 15:4 16:4 17:5 18:11 19:11 20:3 21:8 22:11 23:11 24:11 25:9 26:8 27:9 28:9 29:11 30:14 31:11 32:8 33:6 
-0.2982047737588806 -0.3444997101925604 0.3122976972024095 0.3124796857466252 0.3502284965692166 0.2526028236218115 0.2804524942178021 0.2802014901825525 0.2846747609389741 1:8 2:11 3:9 4:7 5:5 6:3 7:3 8:4 9:3 10:3 11:4 12:4 13:4 14:5 15:5 16:6 17:14 18:14 19:13 20:3 21:7 22:9 23:10 24:9 25:9 26:10 27:9 28:8 29:9 30:11 31:12 32:11 33:8 
-0.2859485980934612 -0.3317513605990116 0.3177665163345867 0.2990456580798262 0.337673338145272 0.2413173647877711 0.2684499703654026 0.2680540152887815 0.2720256556418836 1:7 2:10 3:8 4:7 5:5 6:3 7:3 8:4 9:4 10:4 11:5 12:5 13:7 14:8 15:7 16:6 17:6 18:13 19:12 20:4 21:9 22:10 23:10 24:10 25:10 26:9 27:8 28:9 29:10 30:10 31:11 32:9 33:5 
-0.5327189325187758 -0.6156716923720286 0.592721312093011 0.558486867401354 0.6265805871173175 0.4512475670099487 0.5010085399225492 0.5005924027305446 0.5086108968768961 1:7 2:10 3:8 4:7 5:5 6:3 7:3 8:4 9:3 10:4 11:5 12:5 13:9 14:8 15:6 16:4 17:5 18:11 19:11 20:3 21:10 22:11 23:10 24:10 25:9 26:7 27:8 28:7 29:8 30:10 31:12 32:8 33:5 
-0.5030918652324686 -0.5810796860311199 0.559910635969996 0.5273695994457269 0.5913940623282834 0.4253436319773831 0.4735526004556263 0.4724146409339166 0.4797982242028077 1:9 2:12 3:9 4:7 5:5 6:3 7:3 8:4 9:3 10:3 11:4 12:5 13:8 14:8 15:6 16:5 17:9 18:13 19:12 21:10 22:12 23:11 24:10 25:9 26:8 27:8 28:8 29:10 30:12 31:12 32:11 33:7 
-0.9654634472486018 -1 1 1 1 0.8196785946535889 0.9077394010199888 0.9087521894956695 0.9199287239180581 1:8 2:10 3:8 4:7 5:5 6:6 7:7 8:10 9:10 10:4 11:4 12:4 13:4 14:4 15:4 16:4 17:5 18:11 19:11 20:4 21:11 22:13 23:12 24:11 25:10 26:7 27:7 28:8 29:9 30:11 31:11 32:7 33:5 
-0 -0 0.02151616273282532 0 0 0 0 0 0 1:8 2:10 3:8 4:8 5:7 6:7 7:5 8:4 9:4 10:3 11:4 12:4 13:4 14:4 15:4 16:4 17:7 18:12 19:11 20:3 21:9 22:10 23:9 24:9 25:8 26:7 27:7 28:7 29:9 30:14 31:13 32:8 33:5 
-0.5802413296396081 -0.6705203787457183 0.6382940860713878 0.6074424595006002 0.681776710321122 0.4900563879976328 0.5453275728173442 0.5432082487791566 0.5526227223399703 1:7 2:10 3:8 4:7 5:8 6:8 7:7 8:4 9:3 10:3 11:4 12:4 13:4 14:4 15:4 16:4 17:6 18:13 19:12 20:5 21:9 22:11 23:11 24:9 25:8 26:7 27:7 28:7 29:8 30:13 31:11 32:9 33:5 
-0.04727270942971758 -0.05551781278754964 0.05512369993008267 0.04977878709065192 0.05465539949513827 0.040336825669795 0.04448759713464563 0.04426004296807667 0.04513409229577078 1:7 2:11 3:10 4:9 5:7 6:4 7:4 8:4 9:3 10:3 11:4 12:4 13:4 14:4 15:4 16:4 17:5 18:12 19:12 20:5 21:8 22:9 23:9 24:9 25:8 26:7 27:7 28:8 29:9 30:13 31:11 32:7 33:5 
-0.07322738749972066 -0.08516139231327195 0.07612200127141942 0.07744146915508604 0.08747604091911598 0.06240947000498297 0.06963577463116302 0.06982274758077055 0.07126779959685024 1:7 2:10 3:8 4:7 5:5 6:3 7:3 8:4 9:3 10:3 11:4 12:4 13:4 14:5 15:6 16:7 17:8 18:13 19:12 20:3 21:8 22:9 23:9 24:9 25:9 26:10 27:9 28:7 29:8 30:10 31:11 32:9 33:5 
-0.007141595306431464 -0.006169402377930489 0.01968545578384188 0.005712927129751577 0.00495214465432053 0.004991797560917565 0.004856668927587536 0.005682718640995141 0.004876051570134352 1:7 2:10 3:8 4:7 5:6 6:4 7:4 8:4 9:3 10:3 11:4 12:4 13:4 14:4 15:4 16:4 17:5 18:11 19:11 21:7 22:9 23:9 24:9 25:8 26:7 27:7 28:7 29:8 30:13 31:11 32:7 33:5 
-0.3515018744582215 -0.4105714654890915 0.4332027884161407 0.3685765104153453 0.4191838149323782 0.2971850404564044 0.3308969669454515 0.3302469232976356 0.3352476258945259 1:7 2:10 3:8 4:7 5:5 6:3 7:3 8:4 9:4 10:6 11:7 12:6 13:5 14:7 15:5 16:4 17:5 18:11 19:11 21:8 22:10 23:9 24:9 25:8 26:8 27:9 28:9 29:10 30:11 31:13 32:9 33:5 
-0.003077604548303456 -0.003255433487129701 0 0.003783319874997424 0.004165403415463634 0.002888266626331946 0.004471824383518228 0.002900494834292327 0.00413264183811668 1:7 2:10 3:8 4:7 5:5 6:3 7:3 8:4 9:3 10:3 11:4 12:4 13:4 14:4 15:4 16:4 17:5 18:11 19:11 21:7 22:9 23:9 24:9 25:8 26:7 27:7 28:7 29:8 30:10 31:11 32:7 33:5 
-0.9434260395454229 -1 1 0.989107830039594 1 0.7979000135652765 0.8876462786892606 0.8865423161336868 0.9005150105277576 1:7 2:10 3:8 4:7 5:5 6:3 7:3 8:4 9:8 10:11 11:7 12:6 13:5 14:4 15:4 16:4 17:6 18:13 19:12 20:2 21:7 22:11 23:11 24:12 25:11 26:9 27:8 28:8 29:9 30:11 31:12 32:10 33:6 
-0.2991174756538211 -0.3336926871917155 -0.2615742114378176 0.2970477903867434 0.3830086918974459 1 0.2564504840113954 0.2948325722796795 0.2714675487940958 1:7 2:9 3:8 4:7 5:3 6:4 7:5 8:10 9:12 10:9 11:8 12:6 13:6 14:6 15:6 16:8 17:9 18:10 19:8 20:9 21:13 22:15 23:15 24:12 25:8 26:6 27:6 28:6 29:9 30:11 31:13 32:11 33:7 
-0.3979885323930886 -0.4745602387633435 -0.3739997882356082 0.4244208721296048 0.4830513042229791 0.3743082739418788 0.3661858333606115 0.3705239069180003 0.3850626336714721 1:7 2:9 3:7 4:7 5:6 6:5 7:4 8:7 9:9 10:9 11:8 12:4 13:3 14:3 15:5 16:7 17:8 18:10 19:7 20:3 21:7 22:8 23:8 24:6 25:6 26:8 27:8 28:8 29:11 30:14 31:16 32:14 33:8 
-0.598262482261423 -0.7149048332082168 -0.5601374321256228 0.6386126823514847 0.7271182644700414 0.5639834880844733 0.5508469465186021 0.5588997827160849 0.5679757183879616 1:7 2:9 3:7 4:6 5:5 6:3 7:4 8:4 9:5 10:5 11:4 12:4 13:4 14:7 15:14 16:14 17:13 18:10 19:8 20:4 21:7 22:8 23:9 24:8 25:7 26:7 27:9 28:10 29:14 30:18 31:16 32:11 33:5 
-0.08743246447018342 -0.1062637293834995 -0.05626534710338441 0.09377866911990018 0.1077765219430384 0.08272905170923864 0.0807193395818465 0.08247603820058454 0.08403136687558471 1:9 2:10 3:8 4:6 5:5 6:3 7:4 8:4 9:5 10:5 11:4 12:4 13:3 14:3 15:5 16:7 17:8 18:10 19:7 21:6 22:8 23:8 24:6 25:4 26:4 27:6 28:7 29:11 30:15 31:18 32:12 33:5 
-0.2575003392466717 -0.3085976649259205 -0.2479415303515085 0.2757546637246444 0.3138154683195848 0.2430477244385109 0.2372107058219846 0.2413162534784635 0.244894741540833 1:7 2:9 3:7 4:6 5:5 6:3 7:4 8:4 9:5 10:5 11:4 12:4 13:4 14:7 15:8 16:9 17:12 18:10 19:8 20:3 21:7 22:9 23:9 24:7 25:5 26:5 27:7 28:8 29:11 30:18 31:16 32:11 33:5 
-0.1915162999182671 -0.2289090606994692 -0.1661321323462306 0.2047658732009313 0.2330747744836686 0.1807022540793711 0.1765231576107057 0.1787623114805154 0.1824618782864542 1:7 2:9 3:7 4:6 5:5 6:3 7:4 8:4 9:5 10:5 11:4 12:4 13:4 14:4 15:7 16:8 17:8 18:10 19:7 21:6 22:8 23:8 24:6 25:4 26:4 27:6 28:7 29:13 30:17 31:16 32:11 33:5 
-0.1324723115561434 -0.1584238443538384 -0.1117055754889414 0.140575647547359 0.1607496239107429 0.1247058564090166 0.121417709642096 0.1232056137923595 0.1256079571036672 1:8 2:11 3:10 4:8 5:6 6:3 7:4 8:4 9:5 10:5 11:4 12:4 13:3 14:3 15:5 16:7 17:8 18:10 19:7 21:7 22:9 23:8 24:6 25:4 26:4 27:6 28:8 29:12 30:14 31:17 32:12 33:8 
-0.1077859645337879 -0.1325210467030025 -0.1355462255954338 0.1155929634197416 0.1334899528081658 0.1015779873067204 0.1019425811019433 0.102639785119271 0.1051977313683475 1:7 2:9 3:7 4:6 5:5 6:3 7:4 8:4 9:5 10:5 11:4 12:4 13:3 14:3 15:5 16:7 17:8 18:10 19:10 21:6 22:9 23:8 24:6 25:4 26:4 27:6 28:7 29:11 30:15 31:17 32:11 33:5 
-0.1549995816412274 -0.1854806071011934 -0.1573649074012051 0.1656956197377626 0.1889547503001846 0.1456660806186304 0.1432892500020123 0.1443665099660653 0.1472697452036121 1:7 2:9 3:9 4:6 5:5 6:4 7:4 8:5 9:6 10:6 11:4 12:4 13:3 14:3 15:6 16:8 17:9 18:12 19:11 20:5 21:8 22:9 23:8 24:6 25:5 26:5 27:6 28:7 29:12 30:15 31:16 32:14 33:5 
-0.4141385516646375 -0.495429553583318 -0.3749178708476209 0.4427186220906943 0.5039507929402622 0.3900429817324279 0.3815781092484238 0.3872190544244362 0.3931755373264925 1:8 2:10 3:13 4:8 5:6 6:3 7:4 8:5 9:6 10:6 11:4 12:4 13:4 14:4 15:7 16:7 17:8 18:10 19:8 20:3 21:6 22:8 23:9 24:6 25:5 26:7 27:8 28:8 29:12 30:19 31:17 32:12 33:5 
-0.5107673423380193 -0.6110176534420988 -0.4744140087211015 0.5463189787159561 0.6213635869532557 0.4815556202082331 0.4706096554756996 0.4779502452230109 0.4851944919865894 1:9 2:12 3:10 4:8 5:8 6:6 7:4 8:4 9:5 10:5 11:4 12:4 13:3 14:3 15:7 16:10 17:13 18:10 19:8 20:4 21:8 22:9 23:10 24:7 25:5 26:5 27:7 28:9 29:15 30:17 31:18 32:13 33:6 
-0.3599181496788072 -0.4305639297906719 -0.369675987392624 0.385168704304941 0.43829522621416 0.3393277896913448 0.3315024190533723 0.3368154368662282 0.3424449591224268 1:7 2:9 3:12 4:10 5:7 6:5 7:4 8:4 9:5 10:5 11:4 12:4 13:3 14:3 15:5 16:7 17:13 18:12 19:9 20:2 21:7 22:9 23:8 24:7 25:6 26:6 27:8 28:10 29:14 30:15 31:16 32:12 33:8 
-0.2136758795051784 -0.2555892963396338 -0.2003166075907894 0.2280732364142892 0.2599461379821896 0.2009300196863106 0.1969933238583672 0.2044263075577653 0.2132909764109513 1:7 2:9 3:7 4:6 5:6 6:3 7:5 8:5 9:7 10:10 11:10 12:5 13:4 14:4 15:6 16:7 17:8 18:11 19:10 20:2 21:7 22:9 23:10 24:8 25:6 26:7 27:7 28:8 29:12 30:18 31:17 32:14 33:5 
-0.3687885693035263 -0.4415827415251883 -0.3617233386732694 0.3946257249932962 0.4486748928283435 0.3475941698965242 0.3396400004518923 0.343691001152901 0.3536520935826346 1:7 2:9 3:7 4:6 5:5 6:3 7:4 8:4 9:5 10:8 11:10 12:7 13:3 14:3 15:5 16:7 17:9 18:10 19:7 21:6 22:8 23:8 24:8 25:7 26:7 27:7 28:8 29:11 30:14 31:16 32:12 33:7 
-0.03926397058912336 -0.04579105196286343 -0.04297795838087783 0.0431073608078355 0.04707477092986619 0.03651290336046949 0.03614850284987153 0.03670817446512405 0.03707186523433166 1:7 2:10 3:9 4:7 5:6 6:3 7:4 8:4 9:5 10:5 11:4 12:4 13:3 14:3 15:5 16:7 17:8 18:10 19:7 21:6 22:8 23:8 24:6 25:4 26:4 27:6 28:7 29:11 30:14 31:17 32:12 33:8 
-0.6195045626125424 -0.7406923266680914 -0.5792564880120195 0.6617530571905944 0.7542587642071544 0.5836663109570951 0.5705985662354701 0.5793730041384915 0.5911715088252387 1:7 2:9 3:7 4:6 5:5 6:3 7:4 8:5 9:8 10:9 11:8 12:5 13:5 14:4 15:7 16:11 17:13 18:12 19:9 20:3 21:7 22:9 23:8 24:8 25:8 26:8 27:8 28:10 29:15 30:18 31:16 32:14 33:5 
-0.6304409978850076 -0.7533184952443099 -0.6022982096384738 0.673499773934833 0.7676571561173033 0.5951376608652574 0.5797843604960773 0.5955562394383863 0.6318740665927975 1:7 2:9 3:7 4:6 5:5 6:3 7:4 8:5 9:9 10:12 11:12 12:4 13:3 14:3 15:5 16:8 17:9 18:11 19:8 20:2 21:8 22:11 23:11 24:9 25:7 26:7 27:8 28:8 29:11 30:14 31:16 32:12 33:6 
-0.07017425652976053 -0.08351531341465611 -0.08714884927308543 0.07465812871957078 0.08388271660278269 0.06611078335421036 0.06401554703618377 0.06550411712478435 0.06633277391807392 1:8 2:10 3:11 4:10 5:7 6:4 7:4 8:5 9:6 10:5 11:5 12:5 13:4 14:3 15:5 16:7 17:8 18:10 19:7 21:6 22:9 23:9 24:8 25:6 26:7 27:8 28:9 29:13 30:16 31:17 32:11 33:5 
-0.5398113767171704 -0.6388670794518732 -0.5357038997969911 0.5712730554938112 0.6599534936145494 0.5036261230132815 0.4921114423946816 0.5054634842000725 0.5088355985259666 1:7 2:9 3:7 4:7 5:7 6:7 7:8 8:7 9:6 10:5 11:4 12:4 13:3 14:3 15:5 16:7 17:8 18:10 19:7 20:3 21:8 22:10 23:11 24:7 25:4 26:6 27:7 28:7 29:11 30:14 31:16 32:12 33:5 
-0.4198140350329387 -0.5023359674251315 -0.3939818026323523 0.4493330543932922 0.5110243454603792 0.3957946221071759 0.3866521788052474 0.392715604339726 0.3987607404537673 1:7 2:9 3:12 4:10 5:7 6:6 7:5 8:6 9:6 10:5 11:4 12:4 13:3 14:3 15:5 16:7 17:8 18:10 19:7 20:1 21:6 22:8 23:8 24:6 25:5 26:7 27:8 28:11 29:14 30:14 31:16 32:12 33:8 
-0.4113664605185947 -0.4921137318250024 -0.3920625070355999 0.4397687728001028 0.5000714191242537 0.387419267144461 0.3787035957157284 0.3846109730745517 0.3905353455619001 1:7 2:9 3:7 4:7 5:6 6:4 7:4 8:7 9:6 10:5 11:4 12:4 13:4 14:4 15:6 16:9 17:13 18:12 19:11 20:5 21:9 22:9 23:8 24:6 25:5 26:7 27:8 28:8 29:12 30:18 31:17 32:12 33:5 
-0.7499464922033606 -0.8964725069530086 -0.7150069748163143 0.801042374600751 0.9115209529121717 0.7061799559524359 0.6900807358618122 0.7007893689526062 0.7141705047003931 1:7 2:9 3:7 4:6 5:5 6:3 7:4 8:4 9:5 10:7 11:9 12:10 13:9 14:3 15:5 16:7 17:8 18:10 19:7 21:6 22:8 23:8 24:9 25:8 26:8 27:9 28:10 29:12 30:15 31:16 32:11 33:5 
-0.406978054119815 -0.4864987012126024 -0.3824132483735833 0.4354132236884301 0.4950721336783149 0.3830593183795129 0.3743131081756226 0.3799911406030332 0.3862387935899292 1:7 2:9 3:7 4:6 5:5 6:3 7:4 8:4 9:5 10:5 11:4 12:4 13:4 14:6 15:12 16:14 17:13 18:12 19:9 20:3 21:7 22:8 23:9 24:8 25:7 26:7 27:8 28:9 29:13 30:18 31:17 32:12 33:7 
-0.1298179157022496 -0.153496093660919 -0.1135304692841421 0.1390052361092293 0.1557908537187601 0.1231799658533305 0.1164675208503309 0.1200636493421653 0.1204683190644026 1:7 2:9 3:7 4:6 5:5 6:3 7:4 8:4 9:5 10:5 11:4 12:4 13:3 14:3 15:5 16:7 17:8 18:11 19:10 21:6 22:8 23:8 24:6 25:4 26:4 27:6 28:7 29:11 30:15 31:17 32:13 33:5 
-0.388157657680258 -0.4612700436117679 -0.3643020321903531 0.4121426058351523 0.4684549226607287 0.3640472102083929 0.3554947536803692 0.3607734553654354 0.366409450143923 1:7 2:10 3:8 4:7 5:6 6:3 7:4 8:4 9:5 10:5 11:4 12:4 13:3 14:5 15:6 16:8 17:10 18:11 19:8 20:7 21:9 22:8 23:8 24:6 25:5 26:4 27:6 28:7 29:11 30:15 31:16 32:11 33:5 
-0.4325200967282836 -0.5172056899260237 -0.4034815418589305 0.4624926067690719 0.5260887145843226 0.4076312281092469 0.3982379276328656 0.4040725478521762 0.4096562397057543 1:7 2:9 3:7 4:6 5:5 6:3 7:5 8:6 9:8 10:7 11:4 12:4 13:3 14:3 15:8 16:9 17:12 18:10 19:7 21:6 22:8 23:8 24:6 25:5 26:7 27:7 28:10 29:13 30:15 31:16 32:14 33:8 
-0.1023242144195048 -0.1222127840281324 -0.1059246084912453 0.1095485946093842 0.124831088046326 0.09601569827828089 0.09407933256404562 0.09539319765811968 0.09723480462335472 1:7 2:11 3:9 4:7 5:5 6:3 7:4 8:4 9:5 10:5 11:4 12:4 13:3 14:3 15:5 16:8 17:14 18:11 19:8 20:4 21:8 22:8 23:8 24:6 25:5 26:5 27:7 28:8 29:11 30:15 31:17 32:12 33:6 
-0.1584545060265006 -0.1888442875862667 -0.1508872804856956 0.1688491152275213 0.1919995121105327 0.1494484593222561 0.1457432305301559 0.1474445223818747 0.1492941046431129 1:8 2:10 3:8 4:7 5:5 6:3 7:4 8:7 9:7 10:6 11:4 12:4 13:4 14:4 15:6 16:7 17:8 18:10 19:8 20:2 21:6 22:8 23:8 24:6 25:6 26:7 27:7 28:7 29:11 30:19 31:17 32:11 33:5 
-0.03700326926357181 -0.0456052769799099 -0.0288581775236905 0.04100274280246548 0.04477630100553068 0.03553101189667394 0.03431613270509688 0.03465627980462979 0.035207085859458 1:7 2:9 3:7 4:6 5:5 6:3 7:4 8:6 9:7 10:5 11:4 12:4 13:3 14:3 15:5 16:7 17:8 18:10 19:7 20:2 21:8 22:8 23:8 24:6 25:4 26:4 27:6 28:7 29:11 30:14 31:16 32:11 33:5 
-0.4624723757447597 -0.5573640884333795 -0.4352902016389258 0.4972354804506706 0.5638560951690623 1 0.4294842691647908 0.456458409161207 0.4364100123553375 1:7 2:9 3:12 4:10 5:7 6:4 7:5 8:12 9:13 10:9 11:8 12:6 13:6 14:6 15:6 16:7 17:8 18:9 19:7 20:10 21:14 22:15 23:14 24:13 25:9 26:7 27:7 28:7 29:10 30:12 31:15 32:12 33:6 
-0.352658205891191 -0.4226405840256551 -0.3357393455161453 0.3777539030655082 0.424086216739733 1 0.3251152695864059 0.304628527539387 0.3320176405333651 1:7 2:9 3:8 4:7 5:3 6:4 7:5 8:10 9:12 10:9 11:8 12:6 13:6 14:6 15:6 16:7 17:8 18:9 19:6 20:9 21:13 22:15 23:14 24:12 25:8 26:6 27:6 28:6 29:9 30:10 31:13 32:10 33:5 
-0.1545226028083917 -0.1799920713902523 -0.1412610995831848 0.1615609615866125 0.201490669652825 1 0.1393251003925422 0.1552621506747995 0.1340712679250499 1:7 2:9 3:8 4:7 5:3 6:4 7:5 8:12 9:13 10:9 11:8 12:6 13:6 14:6 15:6 16:7 17:8 18:9 19:7 20:9 21:13 22:15 23:14 24:12 25:8 26:6 27:6 28:6 29:9 30:12 31:14 32:11 33:5 
-0.01022414614667598 -0.01181494088018479 -0 0.009960944928006801 0.0118338060057311 0.008835137287655195 0.008980086862325416 0.009192477546127679 0.008696380688799327 1:9 2:10 3:11 4:9 5:9 6:5 7:4 8:4 9:5 10:5 11:4 12:4 13:3 14:3 15:5 16:7 17:10 18:11 19:8 20:3 21:7 22:9 23:9 24:7 25:5 26:4 27:7 28:9 29:14 30:15 31:18 32:12 33:7 
-0.684566866197204 -0.7691231440398627 -0.6030455266783354 0.6877804654311958 0.7931664469483195 1 0.5925958724758518 0.6992867228860383 0.6655445332094115 1:7 2:9 3:8 4:7 5:4 6:4 7:5 8:10 9:12 10:11 11:10 12:8 13:7 14:8 15:7 16:8 17:8 18:9 19:7 20:10 21:13 22:15 23:15 24:12 25:8 26:6 27:7 28:8 29:11 30:15 31:13 32:10 33:6 
-0.3311642482123346 -0.3830468201342968 -0.3023523956591098 0.3434755569044068 0.3853167591126654 1 0.2948937603393744 0.3238115805413006 0.3174570474319552 1:7 2:9 3:12 4:10 5:7 6:4 7:5 8:10 9:12 10:9 11:8 12:6 13:6 14:6 15:6 16:7 17:8 18:9 19:7 20:10 21:13 22:15 23:14 24:13 25:9 26:7 27:7 28:7 29:10 30:11 31:14 32:11 33:7 
-0.740380035488057 -0.885508784663251 -0.7426984985372692 0.7916140862374601 0.916285372955879 0.697778233342073 0.6819838816263675 0.6945155951761623 0.7034369593988087 1:7 2:9 3:8 4:8 5:8 6:7 7:5 8:6 9:7 10:7 11:4 12:4 13:3 14:3 15:5 16:7 17:8 18:10 19:7 21:6 22:9 23:10 24:11 25:11 26:6 27:6 28:7 29:11 30:14 31:16 32:11 33:5 
-0.126525213113652 -0.1511072590250138 -0.1336389258360961 0.1351523063901418 0.153875031701196 0.1190810113943722 0.1165570536832087 0.1192158516727833 0.1194395457002419 1:8 2:10 3:7 4:6 5:5 6:3 7:4 8:6 9:7 10:7 11:8 12:6 13:5 14:4 15:6 16:7 17:8 18:10 19:7 21:7 22:9 23:8 24:6 25:7 26:8 27:8 28:9 29:13 30:17 31:16 32:11 33:5 
-0.2919761365545338 -0.3495868790752085 -0.3404434153149825 0.3126071697054413 0.3555167867842213 0.2758426539298137 0.2695012978818743 0.2732322196337704 0.2775937097298168 1:9 2:11 3:12 4:9 5:5 6:3 7:4 8:4 9:5 10:5 11:4 12:4 13:3 14:3 15:5 16:7 17:8 18:10 19:7 20:3 21:8 22:8 23:8 24:7 25:6 26:6 27:7 28:8 29:11 30:14 31:16 32:11 33:5 
-0.02439330845685873 -0.03047891539866391 -0.01558789723771799 0.02529257145739008 0.02976697572675465 0.02297740940222213 0.02338527348194664 0.02348942683159764 0.02345805753451253 1:7 2:9 3:7 4:6 5:5 6:3 7:4 8:5 9:6 10:6 11:4 12:4 13:3 14:3 15:5 16:7 17:9 18:10 19:7 21:6 22:8 23:8 24:6 25:4 26:4 27:6 28:7 29:11 30:14 31:16 32:14 33:6 
-0.3828251112479801 -0.4576785898764911 -0.3565823433534226 0.4098174984259269 0.4655369894535752 0.3610035139458663 0.3525130896775577 0.3571839576841999 0.3551654838339074 1:7 2:9 3:7 4:6 5:5 6:3 7:4 8:5 9:8 10:11 11:9 12:4 13:4 14:4 15:6 16:7 17:8 18:10 19:8 21:6 22:10 23:10 24:8 25:7 26:7 27:6 28:7 29:11 30:18 31:16 32:14 33:5 
-0.7303910769536418 -0.8733122951299284 -0.6847877244584933 0.780913581884535 0.8891494822103758 0.6882579856522508 0.6726501728979013 0.6835832809671765 0.706364910736201 1:11 2:13 3:10 4:8 5:7 6:4 7:5 8:6 9:7 10:8 11:10 12:6 13:3 14:3 15:6 16:7 17:8 18:10 19:8 20:3 21:8 22:9 23:8 24:6 25:8 26:9 27:8 28:10 29:14 30:17 31:17 32:14 33:9 
-0.01919274924736993 -0.01955204201850406 -0.03891959980196551 0.01983792891791968 0.02200475485673924 0.01731546634681377 0.01726787473859318 0.01639904456986452 0.01626004713074746 1:7 2:9 3:7 4:6 5:5 6:3 7:4 8:4 9:5 10:5 11:4 12:4 13:3 14:3 15:5 16:7 17:8 18:10 19:7 21:6 22:8 23:8 24:6 25:4 26:4 27:6 28:7 29:11 30:14 31:16 32:11 33:5 
-0.4227393665767687 -0.5049423381605783 -0.3930257626376858 0.4516664106879267 0.5121448453086183 0.3975755935842206 0.3884197876320557 0.3947367283777281 0.4035788722436736 1:7 2:9 3:7 4:8 5:9 6:7 7:6 8:6 9:6 10:6 11:5 12:4 13:3 14:3 15:5 16:8 17:9 18:10 19:9 20:3 21:7 22:9 23:9 24:6 25:5 26:4 27:7 28:8 29:14 30:15 31:17 32:14 33:9 
-0.1523031968013346 -0.1817038775292843 -0.1503314935249134 0.1630155753691474 0.1863419223589822 0.1436796224029682 0.1411454212823816 0.1431587252014967 0.1445365483929891 1:7 2:9 3:7 4:6 5:5 6:3 7:4 8:4 9:5 10:5 11:4 12:4 13:3 14:3 15:7 16:10 17:11 18:12 19:11 20:1 21:8 22:9 23:9 24:7 25:5 26:4 27:7 28:8 29:12 30:16 31:17 32:12 33:5 
-0.3472375809993757 -0.4155826402467183 -0.3237929927534574 0.370696434988996 0.4220084721184595 0.3271165237714367 0.3199207054746421 0.3244280753556814 0.3294146895514202 1:7 2:10 3:10 4:8 5:6 6:4 7:5 8:5 9:6 10:6 11:6 12:4 13:3 14:3 15:5 16:8 17:13 18:11 19:8 20:2 21:7 22:9 23:8 24:6 25:5 26:7 27:10 28:12 29:14 30:14 31:17 32:12 33:5 
-0.3590029687439645 -0.4206270095736249 -0.3377612810912612 -0.4057079395635246 0.427036647275201 0.2973847413908758 0.3335623467922187 0.3360382664884592 0.3407936070022841 1:2 2:4 3:4 4:5 5:6 6:7 7:7 8:8 9:9 10:10 11:9 12:8 13:9 14:13 15:13 16:5 17:3 18:3 20:5 21:6 22:7 23:8 24:8 25:8 26:9 27:15 28:18 29:18 30:17 31:4 32:2 
-0.2427117978951588 -0.2853832964847673 -0.2290201862553868 -0.2756047119612288 0.2910119161297753 0.2025421184118706 0.2267329472512135 0.2283916216325911 0.2322110294304049 1:2 2:4 3:4 4:5 5:6 6:7 7:7 8:7 9:6 10:6 11:6 12:10 13:14 14:14 15:13 16:5 17:3 18:3 20:4 21:5 22:7 23:8 24:9 25:7 26:7 27:12 28:18 29:18 30:17 31:5 32:3 33:2 
-0.4654227502049864 -0.5451758360865442 -0.4383771468263576 -0.525741856237491 0.5538931827415586 0.3853079184948379 0.4312097693463426 0.4345879357745707 0.4417796630763381 1:2 2:4 3:4 4:6 5:7 6:8 7:9 8:10 9:7 10:7 11:7 12:8 13:12 14:13 15:13 16:8 17:3 18:3 20:7 21:9 22:9 23:10 24:9 25:7 26:7 27:11 28:18 29:18 30:17 31:7 32:2 
-0.6014884901145854 -0.7053186947408187 -0.5668251842336716 -0.6799802197455093 0.7158205284281981 0.4986809962809207 0.5584890679987033 0.5619812982352344 0.5721127453673203 1:3 2:4 3:6 4:7 5:7 6:8 7:8 8:9 9:10 10:9 11:8 12:11 13:13 14:13 15:13 16:5 17:3 18:3 19:2 20:4 21:6 22:7 23:8 24:9 25:9 26:10 27:15 28:19 29:19 30:18 31:14 32:4 
-0.4889486561164612 -0.5731555854731272 -0.4603633034188104 -0.552218212967001 0.5819407713216886 0.4049756776784729 0.4530217497179956 0.4563255420661113 0.4643099422845015 1:2 2:4 3:5 4:6 5:6 6:7 7:8 8:10 9:11 10:11 11:8 12:8 13:9 14:13 15:13 16:5 17:3 18:3 19:2 20:4 21:8 22:8 23:8 24:7 25:9 26:10 27:15 28:19 29:19 30:17 31:8 32:2 
-0.5250985003954315 -0.615504339263744 -0.4960492330839432 -0.594368594075586 0.626612733215993 0.4358988405949485 0.4878424508734079 0.4920113016822403 0.5008465143721944 1:2 2:4 3:4 4:5 5:6 6:7 7:7 8:7 9:6 10:7 11:11 12:14 13:14 14:14 15:13 16:5 17:3 18:3 20:5 21:6 22:7 23:8 24:10 25:9 26:8 27:13 28:18 29:18 30:17 31:6 32:4 33:3 
-0.2825680791489909 -0.3308395017120733 -0.2664550365675138 -0.3190322936069476 0.3365082167926588 0.2346090314131285 0.2621014271983283 0.2638391608675351 0.2689678557354765 1:2 2:4 3:4 4:5 5:6 6:7 7:7 8:8 9:9 10:9 11:8 12:9 13:11 14:13 15:13 16:9 17:3 18:3 20:4 21:5 22:7 23:8 24:8 25:9 26:12 27:15 28:18 29:18 30:17 31:7 32:2 
-0.1825204919959082 -0.2136327236567089 -0.1720777364342291 -0.2052592724889634 0.2172276058224979 0.1506147679329388 0.1690106294888201 0.1699163481639878 0.1734353850341697 1:2 2:4 3:4 4:5 5:6 6:7 7:7 8:7 9:6 10:6 11:6 12:6 13:9 14:13 15:13 16:11 17:4 18:4 19:3 20:5 21:6 22:8 23:8 24:8 25:6 26:7 27:14 28:19 29:19 30:17 31:4 32:2 
-0.1536620382249834 -0.1789379494577347 -0.1433698000420795 -0.1732120229815221 0.1818115998022345 0.1263624275347064 0.1419683010627225 0.1439844143265992 0.144876939688487 1:2 2:4 3:4 4:5 5:6 6:7 7:7 8:7 9:7 10:7 11:7 12:7 13:10 14:13 15:13 16:8 17:6 18:5 19:4 20:4 21:5 22:7 23:7 24:7 25:6 26:7 27:14 28:19 29:19 30:18 31:10 32:5 33:1 
-0.01630834087993492 -0.01976213524806309 -0.01593149028728877 -0.01901175560086956 0.01977782106911712 0.01428197720711661 0.0155306412475554 0.01560627031926524 0.01616135687606336 1:2 2:4 3:5 4:6 5:6 6:7 7:9 8:10 9:7 10:6 11:6 12:6 13:9 14:13 15:13 16:5 17:3 18:3 20:4 21:5 22:8 23:8 24:7 25:7 26:8 27:11 28:18 29:18 30:17 31:7 32:2 
-0.3224575575265997 -0.3771184614372801 -0.3030141082730977 -0.3648739551671471 0.3829526892624667 0.2671059377289077 0.2989943105362593 0.3016879981730681 0.3062554947407969 1:2 2:4 3:4 4:5 5:6 6:7 7:7 8:7 9:6 10:6 11:6 12:6 13:9 14:13 15:13 16:12 17:6 18:3 19:2 20:6 21:7 22:9 23:8 24:8 25:7 26:7 27:11 28:19 29:19 30:17 31:4 32:2 
-0.6690392280529255 -0.7839360839147322 -0.6299016979519212 -0.7557483481943666 0.7970727729435024 0.5543993731949012 0.6207257803168267 0.6251784454907479 0.6358770631819913 1:3 2:5 3:6 4:6 5:7 6:8 7:8 8:9 9:10 10:10 11:10 12:10 13:11 14:13 15:13 16:7 17:4 18:4 19:4 20:5 21:6 22:7 23:8 24:11 25:12 26:11 27:18 28:19 29:19 30:19 31:11 32:2 
-0.1049283444460885 -0.1256048001824979 -0.1010470611643217 -0.1185895302846113 0.1279308797918567 0.08819717603540009 0.09679709144412378 0.0958484933051643 0.1005383383117987 1:2 2:4 3:4 4:5 5:6 6:7 7:7 8:7 9:6 10:6 11:6 12:6 13:9 14:13 15:13 16:6 17:6 18:5 19:4 20:4 21:5 22:7 23:7 24:7 25:6 26:6 27:14 28:19 29:19 30:18 31:6 32:4 
-0.3137676824302256 -0.3681622642365803 -0.2959841321463412 -0.3543311895547891 0.3732680672609625 0.2606127481740979 0.2909978426515748 0.2929358103685545 0.2982256907982365 1:2 2:4 3:4 4:5 5:6 6:7 7:7 8:8 9:8 10:9 11:8 12:8 13:9 14:13 15:14 16:7 17:6 18:4 19:4 20:4 21:6 22:7 23:7 24:7 25:7 26:7 27:18 28:19 29:19 30:18 31:8 32:4 33:2 
-0.01118355506894349 -0.01358159766037946 -0.01034027286907322 -0.01217048008381156 0.01407481020311372 0.00870678176976082 0.009940709369320622 0.01068632590106178 0.01023791005526496 1:2 2:4 3:4 4:5 5:6 6:7 7:7 8:7 9:6 10:6 11:6 12:6 13:9 14:13 15:13 16:9 17:3 18:3 20:5 21:6 22:8 23:8 24:7 25:6 26:6 27:11 28:18 29:18 30:17 31:4 32:2 
-0.3953127542352148 -0.463499938342288 -0.3723862320334193 -0.4462192668966067 0.4706605331513907 0.32725663554983 0.3663218220923639 0.3688074136020318 0.3758488035463869 1:2 2:4 3:4 4:5 5:6 6:8 7:8 8:9 9:6 10:7 11:8 12:9 13:12 14:13 15:14 16:10 17:8 18:6 19:4 20:5 21:6 22:7 23:8 24:11 25:8 26:11 27:15 28:19 29:19 30:18 31:9 32:4 33:3 
-0.3726800695137217 -0.4368942205953164 -0.3517195411840572 -0.42119689274033 0.4445688233981888 0.3096448997441155 0.3460789403689533 0.3483013303471528 0.3542903724103309 1:2 2:6 3:7 4:6 5:7 6:7 7:7 8:7 9:6 10:6 11:6 12:6 13:9 14:13 15:13 16:5 17:3 18:3 19:2 20:6 21:7 22:7 23:7 24:8 25:7 26:7 27:11 28:19 29:19 30:17 31:4 32:2 
-0.2827387088816065 -0.3307689063725167 -0.2660452902064029 -0.3194969221815088 0.3362732450820037 0.2335742186420239 0.2618340995131045 0.2639590535425947 0.2687253920179851 1:2 2:4 3:4 4:5 5:6 6:7 7:8 8:8 9:10 10:9 11:10 12:12 13:12 14:13 15:13 16:5 17:3 18:3 19:2 20:4 21:5 22:7 23:9 24:10 25:8 26:10 27:15 28:19 29:19 30:17 31:8 32:5 
-0.07409831536807086 -0.08633802587783494 -0.06960025736601519 -0.08223871269082124 0.08756304915782866 0.06045607666448651 0.06713304732539405 0.06826581368954047 0.06947578995399019 1:2 2:4 3:4 4:5 5:6 6:7 7:7 8:8 9:8 10:7 11:7 12:8 13:11 14:14 15:14 16:5 17:3 18:3 20:4 21:5 22:7 23:7 24:7 25:7 26:7 27:15 28:18 29:18 30:17 31:5 32:3 33:3 
-0.07013892561896515 -0.08045426051131806 -0.06610098602948407 -0.07926968116970473 0.08262804085803303 0.05795892802380293 0.06439441396490687 0.06630997082969109 0.06708358896624009 1:2 2:4 3:4 4:5 5:6 6:7 7:7 8:7 9:6 10:6 11:6 12:6 13:9 14:14 15:14 16:6 17:5 18:4 19:4 20:4 21:5 22:7 23:7 24:7 25:6 26:6 27:14 28:19 29:19 30:18 31:5 32:3 33:2 
-0.09015399423614487 -0.1063628636996595 -0.0852052088710651 -0.1015356564737964 0.1079468740583826 0.07453467559579523 0.0849655251306735 0.08542799685512996 0.08594703843250943 1:2 2:4 3:4 4:6 5:8 6:10 7:8 8:7 9:6 10:6 11:6 12:6 13:9 14:13 15:13 16:5 17:3 18:3 20:4 21:5 22:7 23:7 24:7 25:6 26:6 27:11 28:18 29:18 30:17 31:8 32:4 33:1 
-0.005617661073007812 -0.005814993057707096 -0.005463336826235283 -0.005988124552959254 0.005472543240006221 0.003674801726977738 0.004452468393559548 0.004119641051915222 0.004870863891247801 1:3 2:4 3:4 4:5 5:6 6:7 7:7 8:7 9:6 10:6 11:6 12:9 13:12 14:13 15:13 16:5 17:3 18:3 19:2 20:4 21:5 22:7 23:8 24:9 25:7 26:7 27:12 28:19 29:19 30:18 31:4 32:2 
-0.05179480801181936 -0.06080450371828006 -0.04894036803816266 -0.05770375398108118 0.06211685643845404 0.0435110166747331 0.0483136129669335 0.04837418984044342 0.04925376079989683 1:2 2:4 3:4 4:5 5:6 6:7 7:7 8:7 9:6 10:8 11:9 12:10 13:11 14:13 15:13 16:5 17:3 18:3 19:2 20:4 21:5 22:7 23:8 24:10 25:6 26:7 27:14 28:19 29:19 30:17 31:7 32:2 
-0.6544399073392458 -0.767274349351069 -0.6162297979063305 -0.7393652753782161 0.7792280153614437 0.5421910419296264 0.6067295832271477 0.6112124025788784 0.6223954118242182 1:2 2:4 3:5 4:8 5:9 6:11 7:11 8:10 9:6 10:6 11:6 12:6 13:9 14:13 15:13 16:5 17:3 18:3 19:2 20:4 21:7 22:10 23:9 24:8 25:6 26:7 27:11 28:19 29:19 30:17 31:9 32:5 33:1 
-0.7499462605711061 -0.8787312914643837 -0.706138962767125 -0.8469747347953777 0.8926553629928295 0.6213465858107721 0.6955087295608229 0.6999959859332945 0.7124396169821957 1:2 2:4 3:4 4:5 5:6 6:7 7:9 8:10 9:7 10:6 11:6 12:6 13:9 14:13 15:13 16:7 17:7 18:9 19:7 20:4 21:5 22:8 23:8 24:9 25:8 26:11 27:14 28:19 29:19 30:18 31:9 32:5 
-0.6292982995951584 -0.7373482617126313 -0.592219554235482 -0.7106755434349481 0.7487594782356413 0.5217156008212166 0.5835916504273347 0.5877657398467102 0.5977958860367147 1:4 2:4 3:5 4:5 5:6 6:7 7:7 8:7 9:6 10:6 11:6 12:6 13:9 14:13 15:13 16:12 17:11 18:8 19:6 20:5 21:7 22:9 23:10 24:10 25:8 26:10 27:15 28:19 29:19 30:19 31:7 32:3 
-0.2221549912596061 -0.2605991859501717 -0.2085039243239752 -0.2486686848181845 0.2631161942979517 0.1831587998272668 0.2041551325249782 0.2062653510415074 0.2106485883116834 1:3 2:4 3:4 4:5 5:6 6:7 7:7 8:7 9:6 10:6 11:6 12:6 13:9 14:13 15:13 16:5 17:3 18:3 19:3 20:4 21:5 22:7 23:7 24:7 25:6 26:6 27:11 28:19 29:19 30:19 31:4 32:2 
-0.05125984894078133 -0.0627293768071978 -0.04922996572790396 -0.05998814637938487 0.06515200972175582 0.04592501436342285 0.05139508461830999 0.05028432512924139 0.05088596730583794 1:4 2:4 3:4 4:5 5:6 6:7 7:7 8:7 9:6 10:6 11:6 12:6 13:9 14:13 15:13 16:5 17:3 18:3 20:4 21:5 22:7 23:7 24:7 25:6 26:6 27:12 28:18 29:18 30:18 31:4 32:2 
-0.07703582326793912 -0.09010501400583659 -0.07094841751213235 -0.08574945722516472 0.08955473070633525 0.06238213147920194 0.06988315072800731 0.07018344689760428 0.07089475292138356 1:2 2:4 3:4 4:5 5:6 6:7 7:7 8:7 9:6 10:6 11:9 12:12 13:14 14:14 15:14 16:5 17:3 18:3 20:4 21:5 22:7 23:8 24:10 25:9 26:8 27:13 28:18 29:18 30:17 31:5 32:3 33:3 
-0.396286041565531 -0.4636139020853928 -0.3722513057828828 -0.4472460395831241 0.470723402767398 0.3284106956643248 0.3673372974835392 0.36927674555546 0.3761807866654641 1:2 2:4 3:4 4:5 5:6 6:7 7:7 8:7 9:6 10:6 11:9 12:9 13:11 14:14 15:13 16:9 17:3 18:3 20:4 21:6 22:8 23:8 24:8 25:6 26:6 27:11 28:18 29:18 30:17 31:6 32:5 33:4 
-0.08219339336450204 -0.09575977081934925 -0.07548026214679388 -0.09410288129478764 0.09667044971771449 0.06765578610701427 0.07828326973477089 0.07912542489358049 0.0772896183964739 1:2 2:4 3:4 4:5 5:6 6:7 7:7 8:7 9:6 10:6 11:6 12:6 13:9 14:13 15:13 16:5 17:5 18:4 19:4 20:4 21:5 22:7 23:7 24:7 25:6 26:6 27:14 28:19 29:19 30:18 31:5 32:2 
-0.6471179410506541 -0.7580321689627982 -0.6086621965285063 -0.7304865452729282 0.7694879305440769 0.5356100597940718 0.599971237959999 0.6039176129559323 0.6145406862040735 1:2 2:4 3:4 4:5 5:6 6:7 7:7 8:7 9:7 10:8 11:12 12:12 13:14 14:14 15:13 16:12 17:4 18:3 19:2 20:6 21:7 22:8 23:9 24:10 25:11 26:10 27:15 28:19 29:19 30:17 31:6 32:4 33:2 
-0.5763010780163986 -0.6744869171213861 -0.5425004844799405 -0.6505889759379603 0.6858077636284664 0.4773322422292344 0.5340915435178483 0.5380064010215531 0.5475289672622943 1:3 2:5 3:6 4:5 5:6 6:7 7:7 8:8 9:8 10:9 11:9 12:10 13:11 14:14 15:14 16:10 17:5 18:4 19:3 20:5 21:7 22:7 23:7 24:7 25:7 26:9 27:18 28:19 29:19 30:18 31:10 32:6 33:5 
-0.01797367389114727 -0.02103213018381517 -0.01714049256124896 -0.02144018153929611 0.02144375359695943 0.01505694370056336 0.01663934405862549 0.01686234061251246 0.01777937760766815 1:2 2:4 3:4 4:5 5:6 6:7 7:7 8:7 9:6 10:9 11:9 12:8 13:10 14:13 15:13 16:5 17:3 18:3 20:5 21:6 22:7 23:7 24:7 25:6 26:7 27:14 28:18 29:18 30:17 31:7 32:2 
-0.2484130265380402 -0.2918359831997649 -0.2342285688546261 -0.2807098938557476 0.2963677680441873 0.2062828105526877 0.2309354881579934 0.2320870689161649 0.2362640854941903 1:2 2:4 3:4 4:5 5:6 6:8 7:9 8:9 9:8 10:8 11:10 12:10 13:12 14:14 15:14 16:8 17:7 18:3 19:3 20:5 21:6 22:7 23:9 24:9 25:7 26:9 27:16 28:19 29:19 30:18 31:10 32:6 33:4 
-0.4648108954848902 -0.5443793119592633 -0.4380091094428365 -0.5250354177585421 0.5531632069170234 0.3849484063837766 0.4306117283018675 0.4342682119371286 0.4417247879245796 1:2 2:4 3:4 4:6 5:7 6:8 7:7 8:7 9:6 10:6 11:9 12:13 13:14 14:14 15:13 16:11 17:4 18:3 20:4 21:6 22:8 23:9 24:11 25:8 26:9 27:14 28:18 29:18 30:17 31:9 32:4 33:3 
-0.5946347355179566 -0.6972938899521117 -0.5601018544001991 -0.6715657938184305 0.7078175816817265 0.4923765783108883 0.5515635538757001 0.5551085905269391 0.5649010469943332 1:2 2:4 3:6 4:7 5:6 6:7 7:7 8:7 9:6 10:6 11:6 12:6 13:9 14:13 15:13 16:13 17:9 18:3 20:6 21:7 22:8 23:8 24:8 25:8 26:9 27:12 28:18 29:18 30:17 31:7 32:4 
-0.6472859993575758 -0.7574771115874686 -0.6093562828696567 -0.7302510043051953 0.7699375357580545 0.5358228288484785 0.5993427916286794 0.6041224091813698 0.6149834746074982 1:2 2:4 3:4 4:5 5:6 6:7 7:7 8:7 9:6 10:6 11:6 12:6 13:9 14:13 15:14 16:14 17:13 18:5 19:4 20:5 21:7 22:9 23:9 24:9 25:8 26:8 27:14 28:19 29:19 30:18 31:6 32:4 33:3 
-0.444027385296108 -0.5197956109905901 -0.4176235386198429 -0.5008225728947875 0.5277711749971832 0.3675774433691675 0.4105073718377413 0.4139786398790221 0.4214014873115073 1:2 2:4 3:5 4:9 5:9 6:10 7:8 8:7 9:6 10:6 11:6 12:6 13:9 14:13 15:13 16:5 17:3 18:3 20:4 21:5 22:7 23:10 24:9 25:7 26:7 27:11 28:18 29:18 30:17 31:8 32:3 
-0.3616561482326969 -0.4230197818760128 -0.3398634441964207 -0.4076847776228745 0.4298305512491413 0.2992753003473725 0.3348035628481232 0.3366990619334919 0.3428236424133875 1:2 2:4 3:5 4:6 5:7 6:8 7:9 8:9 9:7 10:6 11:6 12:10 13:14 14:14 15:13 16:5 17:3 18:3 19:2 20:4 21:5 22:7 23:8 24:9 25:8 26:8 27:12 28:19 29:19 30:17 31:10 32:5 33:2 
-0.3153939462027548 -0.3688473947005975 -0.2963925745684009 -0.3558640539055639 0.3740235670333696 0.2599018122658188 0.2910854015726729 0.2933561112385954 0.298692915091626 1:5 2:5 3:6 4:6 5:6 6:7 7:7 8:7 9:6 10:6 11:6 12:6 13:9 14:13 15:13 16:5 17:3 18:3 20:4 21:5 22:7 23:7 24:7 25:6 26:7 27:12 28:18 29:18 30:18 31:8 32:2 
-0.01390773016891018 -0.01366423543219212 -0.01278988275042472 -0.0151835570613244 0.01319693504540584 0.009689275685058252 0.01068352520443029 0.0109793647996344 0.0115023284076548 1:2 2:4 3:4 4:5 5:6 6:7 7:7 8:7 9:6 10:6 11:6 12:6 13:9 14:13 15:13 16:5 17:3 18:3 20:4 21:5 22:7 23:7 24:7 25:6 26:6 27:11 28:18 29:18 30:17 31:4 32:2 
-0.3384179272956375 -0.3966441429242826 -0.3183648800585047 -0.3825176974686648 0.4032315297406128 0.2809516794760761 0.3140376151222734 0.3160918579675719 0.3214964965972342 1:2 2:4 3:4 4:5 5:6 6:8 7:9 8:10 9:9 10:7 11:6 12:6 13:9 14:13 15:13 16:11 17:4 18:3 19:2 20:4 21:7 22:9 23:9 24:8 25:8 26:9 27:13 28:19 29:19 30:17 31:7 32:2 
-0.5343274399579511 -0.6482975655699287 -0.4983244116811694 -0.6212241893447846 -0.5761978729557892 0.4350505206775361 0.4876186745501486 0.4978793972655025 0.5039462427485482 1:11 2:11 3:4 4:3 5:3 6:5 7:11 8:14 9:14 10:9 11:4 12:4 13:3 14:3 15:5 16:6 17:8 18:10 19:8 20:2 21:8 22:13 23:14 24:13 25:9 26:7 27:7 28:7 29:9 30:11 31:13 32:13 33:10 
-0.4295739475377926 -0.5215111661613906 -0.4026293676936243 -0.5002367394482197 -0.4627356161016631 0.3507818948393011 0.391932531669237 0.4006781657626882 0.4041797131615084 1:8 2:9 3:4 4:3 5:3 6:5 7:9 8:11 9:9 10:5 11:3 12:3 13:3 14:4 15:7 16:10 17:13 18:13 19:11 20:4 21:8 22:13 23:14 24:13 25:11 26:7 27:7 28:7 29:9 30:11 31:12 32:11 33:6 
-0.3134386540543327 -0.3796532038030352 -0.2925801801788286 -0.3680164708551976 -0.3378093597113676 0.2648707360473478 0.2857121930807216 0.2993708014672738 0.2953663719575341 1:12 2:12 3:4 4:3 5:3 6:5 7:9 8:11 9:12 10:10 11:6 12:4 13:6 14:5 15:7 16:6 17:8 18:10 19:8 20:3 21:11 22:14 23:14 24:13 25:10 26:7 27:7 28:7 29:9 30:14 31:13 32:11 33:8 
-0.2755422279171337 -0.3337950790425923 -0.2671401151602658 -0.3195701248062067 -0.2966116147564844 0.2221890817485762 0.2510714877443219 0.2623054822721714 0.2589958781768598 1:11 2:10 3:5 4:3 5:3 6:5 7:9 8:11 9:9 10:7 11:6 12:4 13:4 14:4 15:6 16:6 17:8 18:10 19:8 21:12 22:15 23:14 24:13 25:9 26:6 27:6 28:6 29:8 30:14 31:12 32:9 33:5 
-0.233121760217643 -0.2829571627764406 -0.2184558416042096 -0.2735132538644073 -0.2517143184715451 0.1951123469925528 0.212315910662064 0.220313588110936 0.2196976904282247 1:11 2:10 3:6 4:5 5:4 6:5 7:9 8:11 9:12 10:10 11:6 12:3 13:3 14:3 15:5 16:6 17:8 18:10 19:8 21:11 22:14 23:15 24:13 25:11 26:8 27:7 28:7 29:9 30:10 31:13 32:10 33:7 
-0.2217716871021773 -0.26932011326938 -0.2158633874086009 -0.2624539495701255 -0.2391223616401693 0.1811105655957723 0.2021204717767584 0.2083008788714185 0.2090391667054291 1:8 2:9 3:4 4:3 5:3 6:5 7:9 8:11 9:9 10:5 11:4 12:4 13:4 14:4 15:6 16:7 17:10 18:10 19:8 21:7 22:13 23:14 24:12 25:9 26:6 27:7 28:7 29:9 30:14 31:11 32:9 33:5 
-0.7457863300983871 -0.904861060020572 -0.6974913452326218 -0.8670758839724861 -0.8035777086315713 0.6077419135796438 0.6804709702589135 0.6956399046136017 0.7026165835363204 1:8 2:9 3:4 4:3 5:3 6:5 7:9 8:11 9:9 10:5 11:3 12:4 13:8 14:11 15:14 16:12 17:11 18:10 19:8 20:5 21:9 22:15 23:17 24:16 25:11 26:8 27:10 28:9 29:10 30:10 31:11 32:9 33:7 
-0.3940665698327361 -0.4784177565301561 -0.3599067071555014 -0.4600245990809527 -0.4241872268154369 0.3214511653024884 0.3597446263932291 0.3669749461911143 0.3709181839184671 1:8 2:9 3:4 4:3 5:5 6:10 7:12 8:11 9:9 10:5 11:3 12:3 13:3 14:3 15:5 16:6 17:8 18:10 19:7 21:7 22:13 23:14 24:12 25:9 26:6 27:6 28:6 29:9 30:10 31:13 32:12 33:7 
-0.7738277414096859 -0.9362149727814062 -0.7215749162529933 -0.8969765040924004 -0.8315259178680654 0.6310006519243639 0.703674121080221 0.7243846887018044 0.7268468255666645 1:8 2:9 3:5 4:6 5:11 6:14 7:13 8:12 9:9 10:5 11:3 12:3 13:3 14:3 15:6 16:7 17:10 18:10 19:8 20:7 21:10 22:13 23:14 24:12 25:12 26:7 27:7 28:7 29:10 30:12 31:14 32:13 33:7 
-0.08463487233017372 -0.1030890612301961 -0.0748551507254011 -0.09832524829310919 -0.09128246540525786 0.06648056942696624 0.07734735688894971 0.08296582149361779 0.07956815061220296 1:8 2:9 3:4 4:3 5:3 6:5 7:9 8:11 9:12 10:10 11:7 12:4 13:4 14:4 15:6 16:6 17:9 18:10 19:8 21:9 22:14 23:15 24:13 25:11 26:7 27:7 28:7 29:9 30:14 31:11 32:9 33:6 
-0.3342219348700113 -0.4061014170050004 -0.3063173410797145 -0.3887290841389721 -0.3601285747986697 0.27156455581832 0.3051565139965034 0.3108085202244659 0.314870470840611 1:11 2:12 3:5 4:3 5:3 6:5 7:9 8:11 9:9 10:5 11:3 12:3 13:3 14:5 15:7 16:8 17:8 18:10 19:7 20:2 21:11 22:15 23:15 24:13 25:9 26:6 27:6 28:6 29:8 30:8 31:13 32:9 33:6 
-0.6503340080419935 -0.7884913892643293 -0.6050885244324948 -0.7571683160554581 -0.7000533646057462 0.5388871817345297 0.592870138320182 0.61095218750485 0.6124216145471418 1:13 2:14 3:11 4:4 5:4 6:5 7:9 8:11 9:10 10:6 11:3 12:3 13:3 14:3 15:6 16:8 17:10 18:11 19:9 20:5 21:13 22:14 23:14 24:13 25:9 26:7 27:6 28:7 29:10 30:11 31:15 32:12 33:7 
-0.06742237404218715 -0.08145925167545208 -0.1001997275094229 -0.08042705522113457 -0.07224372220934003 0.05820940242863451 0.06122406908289525 0.06194451407286139 0.06298369982454463 1:9 2:9 3:5 4:4 5:4 6:5 7:10 8:12 9:10 10:6 11:3 12:3 13:3 14:3 15:5 16:6 17:8 18:10 19:7 20:3 21:11 22:14 23:14 24:12 25:9 26:6 27:6 28:6 29:8 30:8 31:11 32:9 33:5 
-0.731204773442533 -0.8880762307321923 -0.68414935767582 -0.8519949006180864 -0.7886022474590791 0.6001635670719621 0.6679154044925877 0.7041183118582476 0.6910948104541209 1:8 2:9 3:4 4:3 5:3 6:5 7:9 8:11 9:10 10:9 11:10 12:13 13:10 14:7 15:6 16:7 17:8 18:10 19:8 20:4 21:10 22:17 23:18 24:16 25:11 26:7 27:8 28:10 29:11 30:12 31:11 32:9 33:6 
-0.01208961611519665 -0.01494937317726634 -0.006048885966892422 -0.01379197095242982 -0.01251942467416263 0.009160927398106342 0.01081603283684639 0.01000490012069371 0.01090754530869796 1:10 2:10 3:4 4:3 5:3 6:5 7:9 8:11 9:9 10:6 11:3 12:3 13:4 14:5 15:7 16:8 17:12 18:10 19:8 21:8 22:14 23:14 24:12 25:10 26:7 27:7 28:7 29:11 30:12 31:13 32:9 33:6 
-0.172964180616854 -0.2091958980454496 -0.1565169051351686 -0.2021677150106629 -0.1861086353598307 0.1422458450515781 0.1572782450619459 0.1594737678781643 0.1626960267147586 1:8 2:9 3:4 4:3 5:3 6:5 7:10 8:12 9:11 10:9 11:4 12:4 13:4 14:4 15:7 16:8 17:9 18:10 19:7 20:4 21:8 22:13 23:15 24:14 25:10 26:7 27:6 28:6 29:8 30:14 31:11 32:9 33:6 
-0.04466695751119797 -0.05438372952075937 -0.0927672865655888 -0.05766993370325359 -0.04789222563784987 0.03601847886029537 0.04071728917750642 0.04115445974580449 0.04166620218424786 1:8 2:10 3:7 4:5 5:5 6:8 7:9 8:11 9:9 10:6 11:3 12:3 13:3 14:3 15:5 16:6 17:8 18:10 19:7 21:9 22:13 23:14 24:12 25:11 26:8 27:7 28:7 29:8 30:9 31:13 32:9 33:6 
-0.6699003197562294 -0.813447367162644 -0.626756385832517 -0.7802498350526643 -0.7223147245146361 0.551221267982992 0.6110879687283439 0.6248463002974154 0.6312717569132497 1:8 2:9 3:4 4:3 5:3 6:5 7:9 8:12 9:13 10:9 11:4 12:3 13:5 14:9 15:10 16:10 17:10 18:10 19:7 20:5 21:9 22:14 23:17 24:17 25:12 26:7 27:7 28:8 29:10 30:10 31:11 32:9 33:7 
-0.347531246808661 -0.4211602555588925 -0.3270821811828771 -0.4038466629375759 -0.3751096219094249 0.2828770864723535 0.3169278604463727 0.3231095869288128 0.3278409436528419 1:9 2:10 3:4 4:3 5:3 6:5 7:9 8:11 9:9 10:5 11:3 12:3 13:3 14:4 15:8 16:11 17:13 18:11 19:7 20:1 21:7 22:13 23:15 24:13 25:10 26:7 27:7 28:8 29:10 30:10 31:13 32:10 33:7 
-0.4675429862342546 -0.5683775912905562 -0.4347984940511782 -0.548212007714621 -0.5045588269371031 0.3855505776152222 0.4269899860172752 0.4355974488113821 0.441140538119739 1:8 2:9 3:4 4:3 5:3 6:5 7:9 8:12 9:10 10:9 11:8 12:5 13:3 14:3 15:5 16:6 17:8 18:10 19:7 20:3 21:9 22:14 23:16 24:15 25:11 26:6 27:6 28:6 29:8 30:8 31:11 32:9 33:5 
-0.719733735491155 -0.8736362390415429 -0.6733460320910549 -0.8378727787025697 -0.7756699141398918 0.5904399145509246 0.6569432334428906 0.7323972100816699 0.6788219448648949 1:9 2:11 3:6 4:3 5:4 6:5 7:10 8:11 9:10 10:6 11:5 12:6 13:7 14:6 15:8 16:12 17:12 18:10 19:8 20:3 21:9 22:13 23:14 24:13 25:11 26:9 27:9 28:10 29:12 30:16 31:14 32:10 33:6 
-0.1329931348937066 -0.1614945844305504 -0.1210871326714952 -0.1546278498351334 -0.144076848891448 0.1084594049623747 0.1214835313298943 0.1246599514818943 0.1262953679076121 1:8 2:9 3:4 4:3 5:4 6:10 7:10 8:11 9:9 10:5 11:3 12:3 13:3 14:3 15:5 16:6 17:8 18:10 19:7 21:7 22:13 23:14 24:12 25:9 26:7 27:7 28:8 29:9 30:10 31:11 32:9 33:5 
-0.6995225439852065 -0.8487956420233042 -0.6596739978655806 -0.8276720595398913 -0.7544118505085573 0.5704189150346611 0.6379397047749901 0.670238824464046 0.6592590468757731 1:8 2:10 3:7 4:6 5:9 6:11 7:11 8:11 9:9 10:5 11:3 12:3 13:3 14:3 15:5 16:7 17:8 18:10 19:8 21:8 22:13 23:14 24:12 25:11 26:7 27:7 28:9 29:12 30:14 31:15 32:9 33:6 
-0.1993041420569268 -0.2423646636909582 -0.1849339928326419 -0.2314395588476463 -0.2151576967223797 0.1650158052480006 0.1819651147054154 0.1880037548825753 0.1880444594932365 1:9 2:10 3:7 4:4 5:4 6:6 7:10 8:11 9:9 10:5 11:3 12:3 13:3 14:5 15:7 16:8 17:12 18:10 19:9 20:4 21:9 22:14 23:15 24:13 25:11 26:8 27:8 28:8 29:8 30:9 31:14 32:9 33:5 
-0.2128659070150579 -0.2583223926394448 -0.1913358531872285 -0.2468119840855764 -0.230467116151673 0.1722291773025616 0.1942136284204181 0.1970793077815145 0.2012541427984539 1:10 2:11 3:10 4:3 5:3 6:5 7:9 8:11 9:9 10:5 11:3 12:3 13:3 14:3 15:5 16:7 17:8 18:10 19:7 21:7 22:14 23:14 24:12 25:9 26:7 27:7 28:7 29:9 30:9 31:14 32:10 33:6 
-0.6615084703779137 -0.8025314814986712 -0.6194588417177783 -0.772866544280903 -0.7129334659891237 0.5517261957124013 0.603674929973537 0.6246785538594462 0.6234218940478008 1:8 2:10 3:12 4:7 5:6 6:5 7:9 8:11 9:9 10:6 11:3 12:3 13:3 14:3 15:6 16:9 17:13 18:10 19:8 20:5 21:10 22:13 23:14 24:12 25:12 26:9 27:8 28:8 29:10 30:11 31:13 32:9 33:7 
-0.3952272037523108 -0.4793146800890518 -0.3700617782679426 -0.4611414473882807 -0.425443103779233 0.3262428128929296 0.3606063138198504 0.3686529144455657 0.3733719197369222 1:8 2:9 3:4 4:3 5:3 6:5 7:10 8:12 9:13 10:12 11:9 12:5 13:4 14:3 15:5 16:6 17:8 18:10 19:8 20:3 21:8 22:13 23:14 24:14 25:11 26:9 27:8 28:9 29:11 30:12 31:11 32:9 33:5 
-0.3738406153310012 -0.4531995885687201 -0.3540777070617263 -0.4325503692360317 -0.4025199207212817 0.3047525785758259 0.3406581117196813 0.3484716873524895 0.3516308588742112 1:8 2:9 3:4 4:4 5:5 6:10 7:11 8:12 9:12 10:6 11:3 12:3 13:3 14:3 15:5 16:6 17:8 18:10 19:7 20:3 21:9 22:13 23:14 24:12 25:10 26:8 27:8 28:8 29:9 30:9 31:11 32:9 33:6 
-0.09128719530064917 -0.1108600227782571 -0.07630117907138556 -0.1045951115005133 -0.09844111090351017 0.07437308036268885 0.08359401719659677 0.08493494448057534 0.0860933084662977 1:8 2:9 3:4 4:3 5:3 6:5 7:9 8:11 9:9 10:5 11:3 12:3 13:3 14:3 15:5 16:6 17:8 18:10 19:7 21:7 22:13 23:14 24:12 25:9 26:6 27:6 28:6 29:8 30:8 31:11 32:9 33:5 
-0.1139655515539965 -0.1392172310496066 -0.1174804618875685 -0.1325562903132345 -0.1230250840325071 0.09138006674193204 0.1043693554779965 0.100755976179913 0.1073583051217567 1:10 2:10 3:4 4:3 5:3 6:5 7:10 8:12 9:12 10:8 11:4 12:4 13:4 14:4 15:6 16:7 17:9 18:11 19:9 20:4 21:10 22:15 23:14 24:12 25:9 26:8 27:8 28:7 29:8 30:14 31:11 32:9 33:6 
-0.6337984390688445 -0.7645169218028747 -0.5895121927131022 -0.7808764804180456 -0.6787874656723143 0.6247392515604521 0.5746694515392829 0.6841412137577508 0.5956981682004741 1:9 2:10 3:4 4:3 5:3 6:5 7:10 8:12 9:11 10:8 11:7 12:7 13:7 14:7 15:7 16:8 17:8 18:10 19:8 20:6 21:12 22:17 23:17 24:12 25:9 26:6 27:6 28:7 29:9 30:14 31:13 32:9 33:7 
-0.6488237096665322 -0.7868117619925548 -0.6069509877428159 -0.7554132033824855 -0.6993233591673805 0.5324829628027136 0.5923533026684764 0.6189549135404854 0.6126260530357509 1:8 2:9 3:4 4:3 5:3 6:5 7:10 8:12 9:11 10:9 11:10 12:10 13:7 14:5 15:7 16:7 17:8 18:10 19:8 20:4 21:9 22:14 23:16 24:15 25:13 26:11 27:7 28:6 29:11 30:14 31:11 32:9 33:6 
-0.1108753324880232 -0.1346474447093664 -0.09675529557947937 -0.1288029306927873 -0.1198927176958226 0.08892724609342788 0.1007747731624175 0.1041426998802759 0.1043170761852697 1:8 2:9 3:4 4:3 5:3 6:5 7:10 8:12 9:9 10:5 11:3 12:3 13:3 14:3 15:5 16:8 17:9 18:12 19:7 20:4 21:8 22:13 23:14 24:12 25:9 26:6 27:6 28:6 29:8 30:8 31:11 32:10 33:6 
-0.1336190288488945 -0.1621149482125064 -0.1198660185286386 -0.1540655503546707 -0.1442059298324069 0.1078008676767367 0.1222344013300277 0.1240254970437167 0.1258156761338874 1:11 2:10 3:4 4:3 5:3 6:5 7:12 8:13 9:9 10:6 11:4 12:4 13:4 14:3 15:5 16:7 17:9 18:10 19:7 20:2 21:7 22:14 23:14 24:13 25:10 26:6 27:6 28:6 29:8 30:12 31:14 32:11 33:6 
-0.5756307878927872 -0.6990556385515669 -0.5392653813795671 -0.6695151140045649 -0.6212158804562219 0.4697433986736753 0.5253428498267313 0.5417831268389934 0.5435645530268912 1:8 2:9 3:4 4:4 5:5 6:9 7:10 8:12 9:12 10:13 11:9 12:4 13:3 14:3 15:6 16:6 17:8 18:10 19:7 20:2 21:9 22:14 23:15 24:14 25:13 26:9 27:9 28:9 29:11 30:11 31:11 32:9 33:6 
-0.02833525407979733 -0.03401044996423153 -0.04094238379177665 -0.03333729570059306 -0.03076732888770703 0.02248627072300339 0.02585647035916986 0.02629782200310613 0.02698619915258063 1:8 2:9 3:4 4:3 5:3 6:5 7:9 8:11 9:12 10:7 11:5 12:4 13:3 14:3 15:5 16:6 17:8 18:10 19:8 21:7 22:13 23:14 24:12 25:9 26:7 27:7 28:8 29:10 30:11 31:11 32:9 33:5 
-0.4986054868390246 -0.6056166176341864 -0.485982553622565 -0.5803926637487493 -0.538293606315888 0.4065788117065262 0.4552272657640577 0.4658954993229662 0.4701359856305257 1:8 2:9 3:4 4:3 5:3 6:5 7:9 8:11 9:9 10:5 11:3 12:3 13:3 14:3 15:5 16:6 17:8 18:12 19:13 21:9 22:14 23:14 24:12 25:9 26:6 27:6 28:6 29:8 30:9 31:12 32:11 33:6 
-0.2315431799679952 -0.2801943773700804 -0.254709062474112 -0.2775775638790395 -0.24864023401857 0.1913477453444535 0.2107036934914391 0.223303987512942 0.2177785263119664 1:9 2:11 3:12 4:5 5:4 6:5 7:9 8:11 9:9 10:5 11:3 12:3 13:3 14:3 15:6 16:7 17:9 18:10 19:8 20:3 21:10 22:13 23:14 24:12 25:10 26:7 27:7 28:7 29:9 30:10 31:14 32:11 33:5 
-0.1449625443274744 -0.1753570811654089 -0.1296930376009051 -0.1678019205382525 -0.1554151210527431 0.1173029408855059 0.1319350463939618 0.1346090145506975 0.1363643764452807 1:8 2:9 3:4 4:3 5:3 6:5 7:9 8:11 9:9 10:5 11:3 12:3 13:3 14:3 15:5 16:9 17:12 18:10 19:7 20:1 21:7 22:13 23:14 24:13 25:10 26:7 27:7 28:7 29:8 30:8 31:11 32:9 33:6 
-0.5656223248385576 -0.6867351940263673 -0.5244645706912574 -0.6570656103963477 -0.6095726018196664 0.4608061081481524 0.5166360694644316 0.5271958751973287 0.5328729003752074 1:11 2:12 3:12 4:4 5:3 6:5 7:9 8:12 9:12 10:7 11:3 12:3 13:3 14:3 15:5 16:6 17:8 18:10 19:7 21:8 22:14 23:14 24:12 25:10 26:8 27:8 28:8 29:9 30:9 31:14 32:13 33:8 
-0.3612881427676043 -0.4386141573319936 -0.3359907687672333 -0.4194509895721109 -0.3895529622608712 0.2913517121813259 0.3293220366757976 0.3404824513676946 0.3408297705631652 1:12 2:11 3:4 4:3 5:3 6:5 7:9 8:11 9:9 10:8 11:7 12:4 13:4 14:4 15:6 16:7 17:9 18:11 19:8 21:9 22:15 23:15 24:13 25:9 26:6 27:6 28:6 29:8 30:14 31:13 32:12 33:9 
-0.5516785940111347 -0.6314135741355911 -0.5247967687637916 -1 -0.5788454096312637 -0.6395909032326017 0.5212373261769097 0.5244192638183347 0.524063340482437 1:7 2:9 3:11 4:13 5:7 6:4 7:5 8:10 9:12 10:9 11:8 12:6 13:6 14:6 15:6 16:7 17:8 18:9 19:6 20:9 21:13 22:15 23:14 24:13 25:9 26:8 27:8 28:8 29:10 30:10 31:14 32:11 33:7 
-0.1386255555502384 -0.1411620975172855 -0.1181062512068909 -0.5171143404719591 -0.129755323573172 -0.1540740335869877 0.1174390496597069 0.1432846341768784 0.1232696688178423 1:7 2:9 3:8 4:7 5:3 6:4 7:5 8:10 9:12 10:9 11:8 12:7 13:8 14:8 15:7 16:7 17:8 18:9 19:6 20:9 21:13 22:15 23:14 24:12 25:8 26:6 27:6 28:8 29:9 30:14 31:13 32:10 33:5 
-0.502151253526489 -0.5682248352137734 -0.4766105219940683 -0.5050857689811225 -0.5229708730275947 -0.5852567449824012 0.4738084587781298 0.4822464707669216 0.4821721873037605 1:7 2:9 3:8 4:7 5:3 6:4 7:5 8:10 9:12 10:9 11:8 12:6 13:6 14:7 15:9 16:13 17:12 18:10 19:8 20:10 21:13 22:15 23:15 24:13 25:9 26:8 27:8 28:8 29:10 30:12 31:14 32:11 33:7 
-0.5311232040187449 -0.6036452826990645 -0.5058842044435349 -0.7186813851220525 -0.5550311961710624 -0.6236873254141986 0.5029383254088905 0.5569825789601283 0.5157249404632973 1:7 2:9 3:8 4:7 5:3 6:4 7:5 8:10 9:12 10:9 11:8 12:8 13:8 14:10 15:9 16:9 17:9 18:9 19:7 20:9 21:13 22:15 23:17 24:14 25:8 26:6 27:6 28:7 29:12 30:15 31:13 32:10 33:6 
-0.1865107138430436 -0.2120923164574982 -0.1767696881046391 -0.4284938497398159 -0.1946368302503668 -0.2067917357140117 0.1760174246139128 0.1371401809683397 0.1775590166818769 1:7 2:9 3:8 4:7 5:3 6:4 7:5 8:12 9:13 10:13 11:9 12:7 13:7 14:6 15:6 16:7 17:8 18:9 19:6 20:9 21:13 22:15 23:14 24:12 25:9 26:7 27:7 28:7 29:10 30:13 31:14 32:11 33:5 
-0.2422843701506884 -0.269849380844607 -0.2260064370574374 -0.5429584155153806 -0.2478294975378497 -0.2725838575288898 0.2248683775934507 0.2151245777526703 0.2273920871056705 1:7 2:9 3:8 4:7 5:3 6:4 7:5 8:10 9:12 10:9 11:8 12:6 13:6 14:6 15:6 16:8 17:8 18:11 19:10 20:10 21:15 22:17 23:15 24:12 25:8 26:6 27:6 28:6 29:9 30:10 31:13 32:10 33:6 
-0 -0 -0 -0.07958326743103271 -0 -0 0 0 0 1:7 2:9 3:8 4:7 5:3 6:4 7:5 8:10 9:12 10:10 11:9 12:8 13:7 14:7 15:7 16:8 17:8 18:9 19:7 20:9 21:13 22:15 23:15 24:13 25:9 26:6 27:6 28:6 29:9 30:15 31:13 32:10 33:6 
-0.2795589258394408 -0.3235517932180473 -0.2705159586136001 -0.2433769676220753 -0.2974721586956404 -0.3261372190655492 0.2691674411988734 0.2627388455610065 0.2699693051422558 1:7 2:9 3:8 4:7 5:3 6:4 7:5 8:10 9:12 10:13 11:9 12:7 13:7 14:7 15:6 16:7 17:8 18:9 19:6 20:9 21:13 22:15 23:17 24:13 25:9 26:7 27:7 28:7 29:9 30:10 31:13 32:10 33:5 
-0 -0 -0 -0.08326591664324726 -0 -0 0 0 0 1:7 2:10 3:12 4:8 5:5 6:4 7:5 8:10 9:12 10:9 11:8 12:7 13:7 14:7 15:6 16:7 17:9 18:9 19:7 20:9 21:14 22:16 23:17 24:12 25:8 26:7 27:7 28:8 29:9 30:11 31:14 32:11 33:6 
-0 -0 -0 -0.0801250427182959 -0 -0 0 0 0 1:7 2:9 3:8 4:7 5:3 6:4 7:5 8:10 9:12 10:9 11:8 12:6 13:6 14:6 15:6 16:7 17:8 18:11 19:9 20:9 21:13 22:15 23:14 24:12 25:8 26:6 27:6 28:6 29:9 30:11 31:14 32:12 33:6 
-0.08829368105563687 -0.09056725984488349 -0.07707377169793933 -0.03257487689809546 -0.08379252287371672 -0.1021068001837348 0.07557402054895491 0.0835516610262092 0.07873403614998831 1:9 2:10 3:8 4:7 5:3 6:4 7:5 8:10 9:12 10:9 11:8 12:6 13:6 14:6 15:6 16:7 17:8 18:9 19:6 20:9 21:13 22:15 23:14 24:12 25:8 26:6 27:6 28:6 29:9 30:10 31:14 32:12 33:5 
-1 -1 -1 -1 -1 -1 1 1 1 1:7 2:9 3:11 4:13 5:12 6:10 7:9 8:11 9:12 10:9 11:8 12:6 13:6 14:6 15:6 16:7 17:8 18:9 19:6 20:10 21:13 22:15 23:14 24:14 25:12 26:11 27:10 28:10 29:12 30:12 31:14 32:11 33:7 
-0.1029705177470603 -0.1285479368686022 -0.1137841963422432 -0.1156778243508551 -0.1191422078754482 -0.1713211050760073 0.1094148033490785 0.1097182294402922 0.1022758908748827 1:7 2:9 3:8 4:7 5:5 6:5 7:9 8:10 9:12 10:9 11:8 12:6 13:6 14:6 15:6 16:7 17:8 18:9 19:7 20:10 21:13 22:15 23:14 24:14 25:9 26:7 27:7 28:7 29:9 30:11 31:13 32:10 33:5 
-0.5423929553238115 -0.6059237055171044 -0.5065588281991174 -0.4276476056676785 -0.5577310110441858 -0.6181776169396426 0.5048795463697481 0.5007491764317815 0.5104535275469029 1:11 2:12 3:10 4:8 5:6 6:4 7:7 8:10 9:12 10:9 11:8 12:6 13:6 14:6 15:7 16:7 17:8 18:9 19:6 20:11 21:13 22:16 23:15 24:12 25:8 26:7 27:7 28:7 29:9 30:10 31:15 32:13 33:9 
-0.2503068253949972 -0.2817609306894865 -0.2359854206914718 -0.2420253921434971 -0.2588675934574782 -0.2903651473263212 0.2345506143488883 0.2621053601698032 0.2375039023141527 1:10 2:10 3:9 4:8 5:6 6:6 7:5 8:11 9:12 10:9 11:8 12:6 13:6 14:7 15:9 16:9 17:10 18:9 19:7 20:10 21:14 22:16 23:16 24:13 25:8 26:7 27:6 28:7 29:10 30:13 31:15 32:13 33:9 
-0.04370064805060096 -0.03985931212817002 -0.0324977243358229 -0.1183959183020584 -0.03590300306551633 -0.03671664231473318 0.03240658588059277 0.04771885947588377 0.03623226193543971 1:7 2:9 3:8 4:7 5:6 6:4 7:5 8:11 9:12 10:9 11:8 12:6 13:6 14:6 15:8 16:11 17:12 18:10 19:8 20:11 21:14 22:15 23:14 24:12 25:9 26:7 27:7 28:7 29:10 30:13 31:15 32:12 33:7 
-0.135538198763121 -0.1721963752110484 -0.1409336473705391 -0.2025537959119059 -0.1573491979111016 -0.166909245545576 0.140377744708163 0.09008908416536807 0.1384690496253571 1:7 2:10 3:10 4:8 5:6 6:7 7:8 8:10 9:12 10:9 11:8 12:6 13:6 14:6 15:6 16:7 17:8 18:9 19:6 20:10 21:13 22:15 23:14 24:14 25:11 26:8 27:7 28:7 29:9 30:10 31:13 32:11 33:7 
-0.1305646378766801 -0.1493951211574669 -0.1267625610416767 -0.50203077684852 -0.1370325146798149 -0.1479626629287568 0.1248944887633688 0.131064153721102 0.1275883151775336 1:10 2:11 3:12 4:9 5:4 6:4 7:5 8:10 9:12 10:9 11:8 12:6 13:6 14:6 15:6 16:7 17:8 18:9 19:7 20:11 21:13 22:15 23:14 24:12 25:8 26:7 27:7 28:7 29:9 30:11 31:14 32:12 33:9 
-0.06133279523746699 -0.07013085732595348 -0.05835306963533381 -0.09985205880347148 -0.06441611202377988 -0.07093392733523719 0.05832381141416894 0.05109632526021588 0.05731645947135575 1:7 2:9 3:8 4:7 5:3 6:4 7:5 8:10 9:12 10:9 11:8 12:7 13:7 14:7 15:8 16:10 17:12 18:9 19:8 20:12 21:13 22:15 23:18 24:13 25:9 26:7 27:7 28:7 29:9 30:11 31:13 32:10 33:6 
-0.1380454969274244 -0.115869392231861 -0.09863746632113175 -0.4080138812452178 -0.1075352120283849 -0.1177193415149203 0.09847544763127393 0.05028867943933819 0.1100514091021559 1:8 2:9 3:8 4:8 5:6 6:4 7:5 8:11 9:13 10:10 11:8 12:6 13:6 14:6 15:6 16:8 17:9 18:9 19:7 20:9 21:13 22:15 23:14 24:12 25:8 26:6 27:6 28:6 29:9 30:12 31:15 32:12 33:10 
-0.2208398043551948 -0.2502812866256579 -0.2093261821679408 -0.2771899978854143 -0.2301873553699707 -0.2748618346246441 0.208563736647369 0.2723405158995179 0.2146400607304508 1:7 2:9 3:8 4:7 5:3 6:4 7:5 8:10 9:12 10:10 11:9 12:8 13:8 14:8 15:7 16:7 17:9 18:10 19:9 20:9 21:14 22:16 23:18 24:13 25:9 26:6 27:6 28:6 29:9 30:15 31:14 32:10 33:5 
-0.4428969526408413 -0.5026983731293585 -0.4214693238950973 -0.564190224785251 -0.4633402542517153 -0.5054533614311767 0.419512576432465 0.4247246120102173 0.4232776752796206 1:7 2:10 3:13 4:8 5:3 6:4 7:5 8:10 9:12 10:9 11:8 12:7 13:7 14:8 15:9 16:9 17:9 18:9 19:7 20:10 21:14 22:16 23:17 24:13 25:8 26:7 27:7 28:8 29:10 30:13 31:13 32:10 33:8 
-0.6677611543126935 -0.7645923933200183 -0.6364007393289897 -0.8256878942664393 -0.7007219538924623 -0.7746778873142286 0.6324092833466722 0.7084094444123686 0.7151423827551852 1:7 2:9 3:11 4:10 5:7 6:4 7:7 8:10 9:12 10:13 11:10 12:8 13:7 14:6 15:6 16:7 17:9 18:9 19:7 20:9 21:13 22:15 23:14 24:13 25:10 26:9 27:9 28:10 29:12 30:14 31:14 32:11 33:6 
-0 -0 -0 -0.7520812658872681 -0 -0 0 0 0 1:7 2:9 3:8 4:7 5:3 6:4 7:5 8:12 9:13 10:9 11:8 12:6 13:6 14:6 15:6 16:7 17:8 18:9 19:7 20:9 21:13 22:15 23:14 24:12 25:8 26:6 27:6 28:6 29:9 30:12 31:14 32:11 33:5 
-0.4628509158476907 -0.5264523176462124 -0.4408285798754793 -0.5032774794262344 -0.4842097460943813 -0.5241816726318154 0.4380117988370218 0.4125446758278757 0.4420583779369023 1:7 2:9 3:8 4:7 5:4 6:4 7:5 8:10 9:12 10:10 11:9 12:8 13:8 14:8 15:9 16:8 17:11 18:9 19:7 20:13 21:14 22:15 23:17 24:14 25:9 26:7 27:6 28:6 29:9 30:15 31:13 32:10 33:5 
-0 -0 -0 -0.3748158781968013 -0 -0 0 0 0 1:7 2:9 3:11 4:10 5:6 6:4 7:5 8:10 9:12 10:9 11:8 12:6 13:6 14:6 15:6 16:7 17:8 18:9 19:6 20:9 21:13 22:15 23:14 24:13 25:9 26:7 27:7 28:7 29:10 30:10 31:14 32:11 33:6 
-0 -0 -0 -0.02428387849461966 -0 -0 0 0 0 1:7 2:9 3:8 4:7 5:3 6:4 7:5 8:10 9:12 10:9 11:8 12:6 13:6 14:6 15:6 16:8 17:8 18:9 19:6 20:9 21:13 22:15 23:14 24:12 25:8 26:6 27:6 28:6 29:9 30:10 31:13 32:10 33:6 
-0.211765652619139 -0.2349579064943645 -0.1971431228369805 -0.8015807201822518 -0.2165651364695227 -0.2249687718784662 0.1964725847983431 0.1940121745821304 0.1958888351111657 1:7 2:9 3:10 4:8 5:8 6:6 7:5 8:10 9:13 10:9 11:8 12:6 13:6 14:6 15:6 16:7 17:8 18:9 19:7 20:10 21:14 22:15 23:14 24:13 25:9 26:7 27:6 28:6 29:9 30:12 31:15 32:13 33:5 
-0.07159015185849943 -0.04471847854025517 -0.03822157527126347 -0.1641343220858675 -0.04190484980302106 -0.06119133576919268 0.03890047067409535 0.1573959850992031 0.05079773649145127 1:7 2:9 3:8 4:7 5:6 6:4 7:8 8:11 9:12 10:13 11:8 12:6 13:6 14:6 15:6 16:7 17:8 18:9 19:7 20:9 21:13 22:15 23:14 24:12 25:9 26:7 27:7 28:8 29:10 30:13 31:14 32:11 33:6 
-0.3185162108998687 -0.3639254681627301 -0.3047958560758446 -0.4901659337726029 -0.3348937503413171 -0.3723826237451561 0.303359877234929 0.2979102449380524 0.3087500871519662 1:7 2:9 3:11 4:10 5:7 6:4 7:5 8:10 9:12 10:9 11:8 12:6 13:6 14:6 15:6 16:8 17:12 18:11 19:6 20:10 21:13 22:15 23:14 24:13 25:9 26:8 27:8 28:8 29:10 30:10 31:14 32:12 33:9 
-0.6270912047517128 -0.6583525511820107 -0.5455814739528607 -0.5398278374663315 -0.60249485364124 -0.6809629366497475 0.542641832364217 0.8649022817947669 0.5729722888370622 1:7 2:9 3:8 4:8 5:8 6:8 7:9 8:11 9:12 10:9 11:8 12:6 13:6 14:6 15:6 16:7 17:8 18:9 19:7 20:9 21:13 22:15 23:14 24:14 25:9 26:7 27:7 28:7 29:9 30:13 31:15 32:12 33:8 
-0.2063950520745387 -0.2364040050557899 -0.1981002301094228 -0.3197588596203345 -0.2175145456216871 -0.2432830795227097 0.1975041325027555 0.1895685637382526 0.2019563041784511 1:7 2:9 3:8 4:7 5:3 6:4 7:5 8:10 9:13 10:10 11:10 12:9 13:7 14:7 15:7 16:8 17:8 18:9 19:7 20:10 21:13 22:15 23:17 24:14 25:11 26:6 27:6 28:6 29:9 30:11 31:13 32:11 33:6 
-0 -0 -0 -0.3672279931256147 -0 -0 0 0 0 1:7 2:9 3:8 4:7 5:3 6:4 7:5 8:10 9:12 10:9 11:8 12:6 13:6 14:6 15:6 16:7 17:8 18:9 19:6 20:9 21:13 22:15 23:14 24:12 25:8 26:6 27:6 28:6 29:9 30:10 31:13 32:10 33:5 
-0.8831512443419713 -1 -0.8399156885753786 -0.8817474792372814 -0.9247357261205869 -1 0.8359614229138221 0.9371990546607726 0.8637903992324842 1:7 2:9 3:9 4:9 5:9 6:7 7:7 8:10 9:12 10:13 11:9 12:7 13:7 14:7 15:7 16:9 17:13 18:11 19:7 20:10 21:14 22:16 23:15 24:15 25:11 26:9 27:8 28:9 29:12 30:15 31:15 32:12 33:8 
-0 -0 -0 -0.9917479739683991 -0 -0 0 0 0 1:7 2:9 3:8 4:7 5:3 6:4 7:5 8:10 9:12 10:9 11:8 12:6 13:6 14:6 15:6 16:7 17:8 18:9 19:6 20:9 21:13 22:15 23:14 24:12 25:8 26:6 27:6 28:6 29:9 30:10 31:13 32:10 33:5 
-0.4564790819413387 -0.5185644729456513 -0.4338596718886044 -0.5118599443926033 -0.4769900412621221 -0.5292259003819393 0.4319043829638847 0.4391362201252854 0.4401630579304036 1:7 2:9 3:8 4:7 5:3 6:4 7:5 8:10 9:12 10:9 11:8 12:6 13:6 14:6 15:6 16:11 17:13 18:10 19:6 20:9 21:14 22:16 23:14 24:12 25:8 26:7 27:8 28:8 29:10 30:10 31:13 32:10 33:7 
-0.4161762744204502 -0.475316983392697 -0.3982329474707618 -0.3864229181006504 -0.4378284571881781 -0.4821337998971731 0.3960452926506144 0.4046514455025077 0.4004553619484492 1:7 2:9 3:8 4:7 5:3 6:4 7:5 8:10 9:12 10:11 11:8 12:6 13:6 14:6 15:6 16:7 17:12 18:12 19:10 20:9 21:15 22:17 23:15 24:12 25:9 26:8 27:7 28:7 29:9 30:11 31:14 32:11 33:5 
-0.7008760805469437 -0.7972022270193587 -0.6676069692897851 -0.7091285382304107 -0.7334614362612452 -0.8057879777322987 0.6641018006281785 0.6633731356272506 0.6713189991222432 1:10 2:11 3:10 4:8 5:4 6:4 7:5 8:10 9:12 10:13 11:8 12:6 13:6 14:6 15:7 16:8 17:9 18:9 19:7 20:14 21:16 22:17 23:15 24:12 25:9 26:7 27:7 28:7 29:9 30:11 31:14 32:10 33:5 
-0 -0 -0 -0.06295127314232186 -0 -0 0 0 0 1:7 2:9 3:8 4:7 5:3 6:4 7:5 8:10 9:12 10:9 11:8 12:8 13:8 14:8 15:7 16:8 17:9 18:10 19:8 20:9 21:14 22:16 23:18 24:12 25:8 26:6 27:6 28:6 29:9 30:15 31:13 32:10 33:6 
-0 -0 -0 -0.04566664105154197 -0 -0 0 0 0 1:7 2:9 3:8 4:7 5:3 6:4 7:5 8:10 9:12 10:9 11:8 12:6 13:6 14:6 15:7 16:8 17:13 18:12 19:8 20:11 21:15 22:16 23:15 24:12 25:8 26:7 27:7 28:7 29:9 30:11 31:13 32:11 33:6 
-0.3443329189873273 -0.3971069912676829 -0.332766278985706 -0.5277908299299335 -0.3647440332668626 -0.4108481134806981 0.3305212113285356 0.3548576232475517 0.333295491993629 1:7 2:9 3:8 4:7 5:3 6:4 7:5 8:12 9:13 10:10 11:8 12:6 13:6 14:6 15:6 16:7 17:8 18:11 19:10 20:9 21:13 22:16 23:15 24:12 25:9 26:6 27:6 28:6 29:9 30:12 31:15 32:13 33:5 
-0.798511037981917 -0.9316109564762205 -0.7529793250254287 -0.897941280958516 -0.8399595523937738 -0.9467695553535243 -0.6737342725974764 0.7476500644018887 0.7594275011221275 1:13 2:14 3:11 4:8 5:7 6:4 7:4 8:4 9:3 10:3 11:3 12:4 13:5 14:4 15:3 16:4 17:3 18:3 19:1 20:4 21:5 22:5 23:4 24:6 25:10 26:9 27:9 28:10 29:13 30:9 31:8 32:6 33:3 
-0.9760120838903095 -1 -0.920632500740437 -1 -1 -1 -0.823781320920298 0.913219051341012 0.9280649623171797 1:11 2:12 3:5 4:3 5:3 6:3 7:3 8:3 9:3 10:3 11:4 12:5 13:7 14:9 15:10 16:4 17:3 18:3 19:1 22:2 23:2 24:6 25:9 26:10 27:9 28:10 29:13 30:13 31:10 32:7 33:4 
-0.4515782225322841 -0.5282967424224123 -0.4265683357181547 -0.5087380492686873 -0.4757306506944119 -0.5367392879430742 -0.3813052320555593 0.4237109556501226 0.4293184926613675 1:11 2:12 3:6 4:4 5:5 6:6 7:6 8:4 9:3 10:3 11:3 12:4 13:4 14:4 15:4 16:4 17:4 18:4 19:2 22:2 23:3 24:7 25:8 26:9 27:10 28:13 29:13 30:9 31:8 32:7 33:4 
-0.1657256691399959 -0.200736767109107 -0.1560580407334197 -0.1921822142433751 -0.1759061861472328 -0.2049822859125879 -0.1397665084498075 0.1551195450822095 0.1569961318361124 1:11 2:12 3:5 4:3 5:3 6:3 7:3 8:3 9:3 10:3 11:3 12:4 13:4 14:5 15:5 16:5 17:3 18:3 19:1 22:2 23:4 24:7 25:8 26:9 27:9 28:9 29:11 30:9 31:7 32:5 33:2 
-0.5075892145755601 -0.5910931519957843 -0.4786100003688747 -0.5706347754858504 -0.5341915010567183 -0.5998713067351352 -0.4282320409727394 0.4741701903675952 0.481767169485756 1:12 2:14 3:13 4:4 5:4 6:3 7:4 8:3 9:3 10:3 11:3 12:3 13:3 14:4 15:3 16:3 17:3 18:3 19:1 20:2 21:3 22:3 23:3 24:5 25:9 26:10 27:9 28:11 29:11 30:9 31:7 32:5 33:2 
-0.003704601455785295 -0.0033370353808905 -0.003647247389280887 -0.004349133038180211 -0.00450911317888601 -0.003653385601434299 -0.002109259951446278 0.002980390682493965 0.004354536093595401 1:11 2:12 3:5 4:3 5:3 6:3 7:3 8:3 9:3 10:3 11:3 12:3 13:4 14:4 15:4 16:4 17:3 18:3 19:5 22:2 23:3 24:6 25:9 26:10 27:10 28:10 29:9 30:9 31:7 32:5 33:2 
-0.3607524691931855 -0.4193791206356606 -0.3405323299706673 -0.404353407778691 -0.3786412897562018 -0.4251781937621575 -0.3054028622277905 0.3377386832418592 0.3430471777339182 1:11 2:12 3:5 4:3 5:3 6:3 7:3 8:3 9:3 10:3 11:3 12:3 13:3 14:4 15:3 16:3 17:4 18:5 19:4 22:4 23:4 24:5 25:8 26:9 27:10 28:9 29:9 30:9 31:7 32:5 33:2 
-1 -1 -0.9785037870645066 -1 -1 -1 -0.875439412021593 0.970905337193671 0.985867860835874 1:12 2:14 3:5 4:3 5:3 6:3 7:3 8:3 9:3 10:4 11:6 12:7 13:8 14:7 15:8 16:8 17:5 18:3 19:3 20:4 21:4 22:6 23:8 24:9 25:11 26:11 27:10 28:9 29:11 30:11 31:7 32:5 33:2 
-0.1607348975679475 -0.1897939306021567 -0.1511807535374308 -0.1822516140621341 -0.1694216711453756 -0.1929232114027986 -0.1356705924495962 0.1502985191734909 0.1525766041123612 1:13 2:14 3:8 4:5 5:4 6:4 7:4 8:4 9:3 10:3 11:3 12:4 13:4 14:5 15:4 16:4 17:3 18:3 19:2 20:1 21:3 22:3 23:3 24:6 25:8 26:9 27:9 28:11 29:14 30:9 31:8 32:6 33:4 
-0.8746549732202724 -1 -0.8251480641658826 -0.9834086960356578 -0.9202832525703434 -1 -0.7379430509129533 0.8185682241202551 0.8313946658967585 1:11 2:12 3:7 4:6 5:10 6:8 7:5 8:4 9:3 10:3 11:3 12:3 13:3 14:4 15:3 16:3 17:3 18:3 19:1 20:2 21:3 22:5 23:4 24:6 25:10 26:11 27:9 28:10 29:9 30:9 31:8 32:7 33:2 
-0.1433794455920703 -0.1673690299133919 -0.1355046366685458 -0.1610924312009359 -0.1508598859287354 -0.1704303655228152 -0.1218986931176255 0.135411493352682 0.1377340380836603 1:11 2:13 3:12 4:6 5:4 6:3 7:3 8:3 9:3 10:3 11:3 12:3 13:3 14:4 15:3 16:3 17:3 18:3 19:1 21:1 22:3 23:3 24:5 25:9 26:10 27:10 28:11 29:11 30:9 31:7 32:5 33:3 
-0.3836303322993087 -0.4466540905664787 -0.3614128872110357 -0.430892979499197 -0.4033057772109268 -0.4534078784176339 -0.3235642100060329 0.3583483156558019 0.3646808138386923 1:11 2:12 3:5 4:3 5:3 6:4 7:6 8:6 9:4 10:3 11:4 12:3 13:3 14:4 15:3 16:3 17:3 18:3 19:1 22:2 23:2 24:4 25:8 26:10 27:11 28:10 29:9 30:9 31:8 32:8 33:3 
-0.3253719887293943 -0.378478432172034 -0.3069347855634749 -0.3646387596388821 -0.3421740998913453 -0.383749726944024 -0.2745235893993273 0.3051853093122041 0.3091342705540627 1:13 2:13 3:5 4:3 5:3 6:3 7:3 8:3 9:3 10:3 11:3 12:3 13:3 14:4 15:3 16:3 17:3 18:3 19:1 20:1 21:2 22:2 23:2 24:4 25:8 26:9 27:9 28:9 29:9 30:9 31:7 32:5 33:2 
-0.9346718988535099 -1 -0.881656509642873 -1 -0.9833144485916953 -1 -0.7886705837367538 0.87449237907269 0.888848803180221 1:13 2:12 3:5 4:3 5:3 6:3 7:3 8:3 9:3 10:3 11:7 12:10 13:10 14:4 15:3 16:3 17:3 18:3 19:1 21:1 22:2 23:2 24:7 25:11 26:10 27:9 28:9 29:11 30:12 31:9 32:7 33:5 
-0.6620524904808255 -0.7843067534812846 -0.6235735620952403 -0.751970718027325 -0.6977227763565836 -0.7977465793217572 -0.5578740605563712 0.6183879117215167 0.6283030994294719 1:11 2:12 3:5 4:4 5:3 6:3 7:3 8:3 9:3 10:4 11:8 12:7 13:5 14:5 15:4 16:3 17:3 18:3 19:1 22:4 23:4 24:8 25:11 26:10 27:9 28:10 29:10 30:9 31:7 32:5 33:3 
-0.8192617138782953 -0.9579341617593211 -0.7722727000758112 -0.9234211641333722 -0.8627213921328293 -0.9731344247016858 -0.6902982872576191 0.7664720414169047 0.7782791794583329 1:11 2:12 3:5 4:3 5:3 6:3 7:3 8:3 9:3 10:3 11:3 12:3 13:3 14:4 15:5 16:6 17:10 18:4 19:1 22:2 23:3 24:6 25:8 26:9 27:11 28:12 29:10 30:10 31:8 32:6 33:3 
-1 -1 -0.9927142534931301 -1 -1 -1 -0.8882341527121909 0.9853545573519202 1 1:11 2:12 3:5 4:3 5:3 6:3 7:3 8:3 9:3 10:3 11:3 12:3 13:3 14:4 15:4 16:5 17:14 18:14 19:2 20:2 21:2 22:4 23:4 24:6 25:8 26:9 27:11 28:13 29:11 30:11 31:9 32:7 33:4 
-0.5565966881482447 -0.648396134524013 -0.5245578878150129 -0.6250200043514738 -0.5852835889430402 -0.6586245890101685 -0.4696084807396895 0.5206912970160648 0.5283097473645815 1:12 2:12 3:9 4:3 5:3 6:3 7:4 8:3 9:3 10:3 11:3 12:3 13:3 14:4 15:5 16:4 17:4 18:4 19:5 22:2 23:4 24:7 25:9 26:11 27:12 28:12 29:9 30:9 31:7 32:5 33:3 
-0.7321486381055224 -0.8535472449628808 -0.6905555039293123 -0.8227253379214067 -0.7697604643152028 -0.8675018876957974 -0.6174837082573261 0.6845270810445552 0.6957808703516628 1:13 2:13 3:7 4:4 5:4 6:6 7:9 8:6 9:4 10:3 11:3 12:3 13:3 14:4 15:3 16:3 17:3 18:3 19:1 20:3 21:4 22:3 23:4 24:6 25:8 26:9 27:11 28:11 29:11 30:9 31:8 32:6 33:2 
-0.7075813967158826 -0.8287413407812958 -0.6678163307792289 -0.7983325463185253 -0.7446157168254267 -0.8423550602930608 -0.5969377093896616 0.6624501903034766 0.6725540890091403 1:12 2:12 3:5 4:4 5:4 6:5 7:3 8:4 9:3 10:3 11:3 12:4 13:6 14:5 15:3 16:3 17:3 18:3 19:1 22:2 23:2 24:4 25:8 26:9 27:9 28:9 29:9 30:9 31:9 32:9 33:7 
-0.343959395639693 -0.4017056004126737 -0.3250540741324441 -0.3877572937055696 -0.3621484545230677 -0.4088432207897872 -0.2912052127145632 0.3224053341614603 0.3276928054792963 1:11 2:12 3:8 4:4 5:3 6:3 7:3 8:4 9:3 10:5 11:6 12:4 13:4 14:4 15:3 16:3 17:3 18:3 19:2 22:2 23:2 24:6 25:11 26:12 27:10 28:10 29:10 30:10 31:8 32:5 33:2 
-0.2105655379848807 -0.2443192709348528 -0.1981478429264839 -0.2356849628025513 -0.2210262357803706 -0.2475841943946452 -0.176600629320593 0.1961631024957654 0.1990014748078978 1:12 2:13 3:11 4:6 5:4 6:3 7:3 8:3 9:3 10:4 11:4 12:3 13:3 14:4 15:3 16:3 17:3 18:3 19:1 21:2 22:2 23:3 24:5 25:9 26:10 27:10 28:11 29:11 30:9 31:7 32:5 33:5 
-0.01347956742601255 -0.01545349529185903 -0.01312553844193298 -0.01311739372859565 -0.01382632002112891 -0 -0.008108674803774314 -0.01261577679102051 0.02586099883494149 1:6 2:10 3:8 4:6 5:6 6:6 7:8 8:8 9:9 10:9 11:11 12:8 13:8 14:8 15:8 16:10 17:12 18:10 19:8 20:4 21:11 22:15 23:18 24:13 25:10 26:8 27:8 28:9 29:12 30:18 31:17 32:12 33:4 
-0.002389726094579257 -0.009673606442512668 -0.005388908904794816 -0.02111137378132093 -0.008303608089948037 -0.06147607077044552 -0.05384907438482654 -0.008471455784473739 0 1:6 2:10 3:8 4:6 5:6 6:6 7:8 8:11 9:9 10:9 11:8 12:6 13:7 14:7 15:7 16:9 17:9 18:10 19:8 20:4 21:12 22:17 23:18 24:12 25:9 26:7 27:7 28:8 29:11 30:15 31:15 32:11 33:4 
